float biasFC2[84] = {-6.7802081e-05,  4.7756548e-04, -2.0351890e-03,  2.4824627e-03,
 -1.0864196e-03,  4.1438316e-04,  6.3703058e-04, -3.3982255e-04,
  6.8366720e-04, -1.6962652e-04, -2.9440462e-03,  1.9069813e-03,
 -1.0568479e-03, -2.7537409e-03,  1.9634494e-03, -1.9816854e-03,
  1.8281471e-04, -6.3532923e-04,  2.8487772e-03,  2.5008135e-03,
 -3.4496203e-04, -1.7853468e-04,  1.9120504e-04, -2.8557173e-04,
  1.7168776e-03, -1.9275647e-04, -1.8942640e-03, -2.2077379e-03,
 -2.2237825e-03,  7.2112924e-04, -3.4099680e-04,  2.2776732e-03,
 -2.0702553e-03,  2.4881293e-03, -4.2271288e-04,  3.8752944e-04,
 -1.1695442e-03, -5.0798734e-04,  3.9180624e-04, -1.9858477e-03,
 -1.3440734e-03,  3.4280118e-04,  2.0959217e-03, -1.6439778e-03,
  4.5717166e-05, -2.9354211e-04,  2.0025305e-03,  2.8423665e-03,
  1.6209112e-04,  5.5014913e-04, -5.0041801e-04,  4.0126988e-04,
  6.7771249e-04,  3.5320543e-04,  9.7139634e-04, -1.2608803e-03,
  1.6200579e-03,  8.6038589e-04,  9.3958779e-06,  6.3674053e-04,
  7.8129943e-04,  7.4548065e-04,  8.0618507e-04,  2.7981044e-03,
 -1.1625518e-03,  6.9645548e-04,  2.6310547e-04,  1.3851000e-04,
  1.0106585e-03, -1.6221113e-05, -1.0916301e-03, -2.6141477e-03,
 -1.7685408e-03,  1.3816782e-03, -2.0349112e-03,  1.5476038e-03,
  1.6860015e-03,  1.3206820e-03, -4.5553588e-05, -6.5560231e-04,
 -1.7132929e-03, -1.3189371e-03, -2.9746920e-03, -1.1366704e-03};
