float biasFC1[120] = { 1.65109013e-04,  3.15412355e-04,  1.64882964e-04, -2.04302589e-04,
  6.88384680e-05, -1.76435988e-05, -2.43896095e-04,  1.59447489e-04,
  2.49203847e-04, -1.28128144e-04, -4.70783234e-05,  3.95141760e-05,
 -1.36744551e-04, -2.35666579e-04, -1.97590198e-04,  4.51467466e-04,
 -4.64719633e-05,  1.38688891e-04, -4.08447057e-04,  1.38350544e-04,
 -2.87858165e-06,  3.70071270e-04,  3.44756729e-04, -7.09985150e-04,
 -1.07101800e-06,  3.04811219e-05,  4.48016624e-04,  2.85964663e-04,
  4.71388747e-04, -5.48110635e-04,  6.32296200e-04, -1.53016226e-04,
 -1.77974754e-04, -2.12206942e-06,  1.55276230e-05,  7.43239245e-04,
  5.47233612e-05, -1.96074994e-04, -1.16202202e-04,  8.14192405e-04,
 -3.34180542e-04, -1.80512114e-04, -1.04357096e-04,  3.62070103e-04,
 -4.65464655e-05,  2.83848021e-05,  7.09812448e-05,  6.84981351e-04,
  3.45942790e-05,  5.99712890e-04,  8.10383244e-06,  1.08006199e-04,
  1.58139355e-05,  2.51538295e-04,  3.57781829e-07,  3.43707565e-04,
  1.12291731e-04,  1.50455526e-04, -2.76631094e-04, -6.75094489e-05,
  5.55470760e-05,  9.66359148e-05, -2.32910563e-04, -2.72768055e-04,
 -9.88492684e-05,  5.86617789e-05, -1.74028555e-05,  2.81931541e-04,
  2.42923430e-04, -4.48609499e-04,  2.81504123e-04,  7.97530462e-04,
  1.08887034e-04,  8.05353164e-04,  3.68214319e-06,  9.37532313e-05,
  2.69897078e-04,  1.55496842e-03,  2.37929726e-06,  5.37566557e-05,
  3.90907313e-04,  6.07097973e-05,  9.03769323e-05,  2.86450486e-05,
  1.37188064e-04, -2.68213762e-06,  2.69777142e-04,  1.84415403e-04,
  6.10782372e-05, -5.40022011e-05, -1.04339881e-04,  5.22767194e-04,
 -1.41709806e-05, -3.44539032e-04,  1.61843331e-04,  4.60818264e-04,
  5.36206120e-04,  4.94216452e-04, -5.01342856e-06, -1.85887984e-04,
 -1.13122194e-04, -7.45025754e-05, -2.75978498e-04, -2.25025979e-05,
  1.90876715e-04,  7.73491280e-04,  4.45057987e-04,  6.91854802e-05,
  6.99240263e-05, -5.82811736e-05,  1.74781326e-05, -2.76918513e-07,
 -1.34980961e-04, -2.09716847e-04,  2.95300742e-05, -3.15074044e-06,
  4.60146082e-04, -3.05640890e-04, -6.65646658e-05,  3.53776762e-04};
