float weightsFC3[84][10] = {{ 2.57064123e-02, 7.80652917e-04, 4.90633622e-02, -3.66223343e-02, 4.15462777e-02, -2.03935392e-02, -8.47917702e-03, -4.57936674e-02, -3.63017917e-02, 5.93370060e-04},
 { 4.91606742e-02, -4.19294834e-02, -1.95062887e-02, 1.12509122e-02, -4.94155772e-02, -4.39953133e-02, 1.54776722e-02, 1.43537754e-02, 6.41952306e-02, -3.09612323e-03},
 { 5.41731855e-03, -5.89006916e-02, -2.82042939e-02, 2.86199935e-02, -4.76233140e-02,  1.73919294e-02, -1.49610918e-02, 6.08689561e-02, 2.14299653e-02, -1.09474491e-02},
 { 4.41121049e-02, 8.64405110e-02, -4.32832390e-02, 8.17904994e-03, 1.22551331e-02, -1.57185365e-02, -1.37337036e-02, -3.59404758e-02, -1.56646185e-02, -4.11781184e-02},
 {-8.17339718e-02, -9.71172657e-03, 8.50006659e-03, 1.37023866e-01, -2.58264551e-03, -1.14519298e-02, -8.82259756e-02, 2.35560220e-02, -6.80183584e-04, 2.46432219e-02},
 { 7.50066116e-02, 2.88312621e-02, 6.55074492e-02, -1.22880815e-02, -1.28247365e-02, -4.01235521e-02, 2.55271047e-02, 1.17182247e-02, -4.16227728e-02, -1.34388492e-01},
 {-9.54623986e-03, 2.72524711e-02, -3.65332775e-02, 3.00704222e-02, -7.72359828e-03,  1.00178225e-02, 9.09861643e-03, -7.84470662e-02, 2.98991483e-02, 9.94441286e-03},
 {-2.77863126e-02, 3.62622290e-04, -9.17618796e-02, 1.50569556e-02, -2.28322241e-02,  8.19377601e-02, 3.12581807e-02, -1.46386772e-02, 5.52527234e-02, -9.16041899e-03},
 {-1.52575308e-02, -1.13698198e-02, 3.42314988e-02, 1.62066426e-02, -2.30444432e-03, -6.78750221e-04, -6.14309870e-02, 6.65482357e-02, -2.49822228e-03, 1.43786976e-02},
 {-2.63573453e-02, 2.00298568e-03, 2.65575573e-03, 3.18714194e-02, -2.87411213e-02, -6.74296636e-03, -5.85804991e-02, -1.97729748e-02, -1.81142483e-02, 1.03034906e-01},
 { 4.10478227e-02, -1.12619579e-01, 6.77590370e-02, -1.18419481e-02, -5.58187887e-02,  3.76065522e-02, 2.47934964e-02, -1.11326138e-02, 4.20696773e-02, -2.49189455e-02},
 {-1.65144112e-02, 8.02317187e-02, 1.85039211e-02, -1.79427173e-02, 3.52260144e-03, -4.91101742e-02, -5.71157448e-02, 5.07722646e-02, -1.61639322e-02, 3.63167864e-03},
 { 6.32189363e-02, -4.52678725e-02, 1.46674449e-02, -5.43551072e-02, -3.59751321e-02,  9.36031435e-03, 1.02099419e-01, -3.24277245e-02, 3.78171578e-02, -3.07607315e-02},
 { 2.45453659e-02, -7.72535279e-02, 9.43900272e-03, -2.93573141e-02, 1.45848626e-02,  3.31448503e-02, 2.15125978e-02, 6.18735468e-03, -3.16092558e-02, 2.24130005e-02},
 {-2.31146743e-03, 1.00735184e-02, -6.97445357e-03, 9.46728513e-03, 5.21971583e-02, -1.96125917e-02, -2.68075615e-02, 2.20938474e-02, -5.09991981e-02, -4.66686953e-03},
 { 6.28261594e-03, -2.75279861e-02, 1.67615917e-02, 1.22049255e-02, 1.92172807e-02, -2.94744689e-02, -3.14217317e-03, 3.06399614e-02, 1.48731424e-02, -5.60663417e-02},
 {-4.28290516e-02, -1.63053244e-03, -3.35357077e-02, 3.59144919e-02, 5.73818199e-02,  1.90995466e-02, 1.06768114e-02, 5.23470119e-02, -4.24583144e-02, -6.55378625e-02},
 { 1.11579178e-02, 8.55230843e-04, 2.03445200e-02, 4.92549203e-02, -4.77321930e-02,  4.38852720e-02, 4.79115434e-02, -3.92517867e-03, 3.27020488e-03, -1.09482802e-01},
 {-1.53753571e-02, 8.80856812e-02, -2.90011279e-02, 2.33276132e-02, 4.16724710e-03,  1.10202935e-02, -1.08153597e-01, 7.36143291e-02, -5.46549447e-02, 1.94683168e-02},
 { 1.22768218e-02, 1.74142178e-02, 5.88076049e-03, -7.89902546e-03, 2.13531684e-02, -7.92572498e-02, -8.56975764e-02, 3.99077572e-02, 5.98051697e-02, 2.76720375e-02},
 { 1.12253400e-02, -1.85196120e-02, -2.91136298e-02, 5.57233393e-03, -4.64366786e-02,  1.12513527e-02, -1.47460643e-02, 6.85034692e-02, -1.42607735e-02, -2.08616052e-02},
 { 7.08495453e-03, -4.05718619e-03, 2.46707769e-03, -2.75459141e-03, 1.83573570e-02, -9.14295018e-03, 1.36536546e-02, -3.79748754e-02, -2.79747285e-02, 5.25613949e-02},
 { 5.88807128e-02, -2.49444917e-02, -9.95109826e-02, -5.19120768e-02, 2.21764483e-02,  1.26610296e-02, 3.13781537e-02, -4.63669859e-02, 8.11111741e-03, 6.36853278e-02},
 {-1.96885690e-02, 3.44235227e-02, -3.49247269e-02, 2.90392675e-02, -2.71588899e-02,  2.75105387e-02, 3.68099846e-02, -1.86330117e-02, -5.33609316e-02, 2.11910903e-02},
 { 8.26929463e-04, -1.24449674e-02, -5.24915941e-02, -4.42083292e-02, 8.48481357e-02, -1.20500578e-02, 2.87334491e-02, -3.67682539e-02, 1.00620259e-02, 2.61754692e-02},
 {-2.34471224e-02, -3.33398134e-02, 3.81083265e-02, -4.15139124e-02, 2.36943550e-02, -5.98363914e-02, -1.34629710e-02, -2.85449401e-02, 5.17920852e-02, 3.66688147e-02},
 {-7.56824315e-02, -8.73231143e-02, -4.54142392e-02, -1.92459263e-02, 8.92749578e-02,  2.01575048e-02, 5.63888066e-02, -1.98020469e-02, -5.36623923e-03, 6.92090616e-02},
 { 2.87876166e-02, -4.00082394e-02, 1.82418264e-02, 4.50885249e-03, -5.63318469e-02,  7.67951906e-02, 2.37325281e-02, 6.80123339e-04, -2.54278518e-02, -2.58626845e-02},
 { 2.25199591e-02, -5.98213337e-02, -1.24228727e-02, -2.50467602e-02, 4.38002571e-02,  2.03381926e-02, 2.42840983e-02, 1.44188758e-02, -3.79979685e-02, 2.11471599e-02},
 {-9.82812196e-02, 1.17698228e-02, -6.34866729e-02, -7.43600447e-03, 2.01627128e-02,  5.79460599e-02, -1.29759335e-03, 2.77291182e-02, 1.91181595e-03, 2.06401162e-02},
 { 2.72424370e-02, 7.63131455e-02, 3.23544629e-02, 1.92783512e-02, -7.71378875e-02,  4.84088585e-02, 5.37459143e-02, -3.54738757e-02, -3.14031057e-02, -8.40761885e-02},
 {-8.59513320e-03, 7.45885894e-02, 3.16262469e-02, -4.62862737e-02, 6.78109797e-03, -6.31303936e-02, 1.93901733e-02, 1.11401957e-02, -3.28427926e-02, -3.41672264e-02},
 { 3.31191421e-02, -5.80629520e-02, 4.00244743e-02, -3.84287233e-03, -2.79321577e-02,  4.08370513e-03, -6.29496798e-02, 3.65020894e-02, 3.06814481e-02, 2.43025832e-02},
 {-4.82192934e-02, 1.01165205e-01, 4.74102329e-03, 2.99412068e-02, -2.86646169e-02, -1.06501272e-02, 1.45358983e-02, -5.37052378e-02, 6.68509305e-02, 1.33812511e-02},
 { 3.83411683e-02, -1.81968659e-02, 4.78183245e-03, -1.61015708e-02, -7.47803552e-03, -5.05096093e-02, -5.29788807e-03, 5.78384660e-02, -3.65389474e-02, 6.12193532e-02},
 { 2.69835871e-02, 4.10793237e-02, 5.40927574e-02, -2.13407576e-02, -4.86648642e-02,  7.50689721e-03, 2.17302633e-03, -2.45096702e-02, 1.24768878e-04, -4.05267477e-02},
 { 2.34052818e-03, -3.03807165e-02, 1.56639591e-02, 3.83221246e-02, -8.40886608e-02,  1.06299166e-02, -8.91939830e-03, 1.19594613e-03, 5.91666903e-03, 8.06548924e-05},
 {-8.14317539e-02, -7.32115237e-03, 1.37393903e-02, 1.26959709e-02, -1.07748946e-02, -1.80648956e-02, -4.43600155e-02, 1.22183807e-01, -5.98726142e-03, -1.79335549e-02},
 { 5.86108491e-02, 2.43270285e-02, -2.92854402e-02, 2.65718903e-03, -7.46603608e-02,  7.27419332e-02, 2.25248039e-02, -3.71134200e-04, -7.95680508e-02, -1.91454571e-02},
 {-6.78130537e-02, -3.35218869e-02, 3.50383632e-02, 7.20006600e-03, 2.61710510e-02, -3.73783335e-02, -1.14856148e-02, -7.25077931e-03, 7.89140984e-02, 1.49703678e-02},
 { 4.36234996e-02, -4.89586852e-02, -1.15628820e-02, 5.21814637e-02, 8.71129055e-03, -7.13685527e-02, 2.91950870e-02, -4.47772183e-02, 1.36025082e-02, 1.89024601e-02},
 { 1.92334559e-02, -4.58359858e-03, 3.99803743e-02, -1.34705356e-03, -3.28347832e-02, -4.47701896e-03, -6.66062608e-02, 4.44908068e-03, -6.25837874e-03, 3.02109867e-02},
 {-6.74603954e-02, 2.10497398e-02, -6.17759477e-04, -5.11952639e-02, 1.02560237e-01,  2.13576779e-02, -5.14110215e-02, 2.10735947e-02, -4.61585587e-03, 1.55460024e-02},
 { 2.77553909e-02, -1.01930862e-02, 4.23077680e-02, 5.56762237e-03, -2.82980353e-02, -3.05764619e-02, -8.23719949e-02, 6.20772950e-02, -6.35567214e-03, -8.83772783e-03},
 {-3.04066949e-02, -1.01459688e-02, -1.05377939e-02, 1.96965765e-02, -6.16208576e-02, -2.26670150e-02, -3.22839571e-03, 2.49382220e-02, 9.16047916e-02, -4.30474915e-02},
 { 4.41809371e-03, -3.29691395e-02, -3.03207729e-02, 2.33740807e-02, 4.49876823e-02, -1.85057130e-02, -2.27804203e-02, 3.00888857e-03, 3.54018882e-02, -2.79845893e-02},
 {-7.84536302e-02, 2.64714379e-02, -2.91414224e-02, 3.99928726e-02, 2.68991478e-02, -3.04112118e-02, -2.99757831e-02, 3.15418094e-03, -2.61481199e-02, 2.49715839e-02},
 { 3.20442095e-02, 5.98183759e-02, -2.19974965e-02, -7.06171021e-02, 5.72317978e-03, -5.01930714e-02, 4.32156473e-02, 1.97561327e-02, -1.35889221e-02, -9.82697401e-03},
 {-4.47036289e-02, 3.73389795e-02, 1.22724567e-02, -6.20752051e-02, 5.08728698e-02,  1.86617579e-02, 3.65079343e-02, -1.15109375e-02, -3.70347984e-02, 1.54904230e-02},
 { 9.01131034e-02, -1.48631185e-02, -3.50993201e-02, 5.81143773e-04, 3.91013101e-02, -3.04487646e-02, 3.37625941e-04, -2.08074190e-02, -2.13980004e-02, 4.36693570e-03},
 {-8.17646645e-03, -4.01693434e-02, -7.45575223e-03, 2.18227338e-02, 2.47757154e-04,  2.79086288e-02, -3.73045728e-02, -7.08567649e-02, 8.23436528e-02, 1.30394138e-02},
 {-5.05578406e-02, -2.77165268e-02, -2.72323899e-02, -1.92058142e-02, 8.44347253e-02, -9.62873091e-05, -3.66430655e-02, 2.76122731e-03, 4.52199765e-02, -2.26051966e-03},
 { 6.14452921e-02, 1.18582435e-02, 3.48398015e-02, -1.89299285e-02, -1.07499352e-02, -4.00824249e-02, -5.13815740e-03, 6.80136681e-02, -8.34309459e-02, -2.67221760e-02},
 { 2.00780910e-02, 1.43746817e-02, 3.05011868e-02, 1.30692078e-02, -1.34295495e-02,  7.09954323e-03, -1.90430246e-02, 1.32982312e-02, -4.94526140e-02, 3.18815224e-02},
 {-2.51026899e-02, 2.00950410e-02, 7.56059075e-03, 3.82594243e-02, -4.64488305e-02, -2.88618375e-02, -5.02720736e-02, 4.72847596e-02, 2.47968510e-02, 3.33877659e-04},
 { 9.68506653e-03, -3.71190682e-02, 4.12690639e-03, -1.43968863e-02, 7.15261027e-02, -1.41109927e-02, 2.03158222e-02, 3.54328975e-02, -4.92656492e-02, 1.26297520e-02},
 { 9.10768658e-03, 1.19221453e-02, 1.78792002e-03, -2.32394151e-02, 7.00618103e-02, -5.70568070e-02, -6.49735034e-02, -1.29316011e-02, 1.78088956e-02, 3.24793123e-02},
 {-4.82206568e-02, 1.91644691e-02, -6.88588023e-02, 3.14140394e-02, -1.72283351e-02, -6.81367423e-03, 1.36569375e-02, 6.13358133e-02, 5.26060089e-02, -3.72410603e-02},
 {-1.42742833e-02, 1.51487272e-02, 5.95827214e-03, -1.14494748e-02, -6.21141419e-02,  1.40859993e-04, 2.80084144e-02, 2.48797722e-02, 1.39447460e-02, 1.77674517e-02},
 {-8.58812928e-02, 3.09846401e-02, 1.01466246e-01, 1.48393232e-02, 2.65772231e-02,  3.76895815e-03, -8.43007490e-02, 5.08946739e-02, 6.03462150e-03, -2.54324004e-02},
 { 4.12515849e-02, 2.05311459e-02, -2.00201888e-02, -1.56553369e-02, -4.67297547e-02, -4.30613942e-02, 3.22233420e-04, 3.93874086e-02, 4.60847206e-02, -6.08265437e-02},
 {-1.18005252e-03, 3.13964905e-04, -5.18687330e-02, -3.13163958e-02, 7.11745024e-02, -1.17830262e-02, 3.44413333e-02, 1.61240175e-02, 3.38816755e-02, -3.50520834e-02},
 { 6.27861395e-02, -5.14126383e-03, 3.38106416e-02, -1.91881247e-02, -9.34396610e-02, -8.84929299e-03, -5.30341901e-02, 3.05206496e-02, 8.43821559e-03, 1.20590953e-02},
 {-2.30504312e-02, 7.26847276e-02, 7.12414738e-03, -2.13113036e-02, -1.59747954e-02, -2.66768187e-02, -9.69039127e-02, 1.04463451e-01, -7.25956494e-03, 2.88690329e-02},
 { 2.33953055e-02, -5.49186468e-02, 7.55905174e-03, 3.62875834e-02, 1.75101161e-02, -1.35843549e-02, 2.48999707e-02, -7.69156590e-02, -1.67900398e-02, 2.83107199e-02},
 {-3.56899090e-02, -4.26621031e-04, -2.51329727e-02, -7.80225024e-02, -9.85404197e-03,  3.93883176e-02, 2.58454531e-02, 8.21964256e-03, 2.32542492e-02, 3.19682434e-02},
 {-2.35026190e-03, -1.61919724e-02, -2.33150423e-02, -1.57989878e-02, -5.07324636e-02,  7.14003220e-02, 1.61865763e-02, -1.49296771e-03, 5.19782417e-02, -8.27763304e-02},
 {-6.02975767e-03, 3.52869555e-02, -2.45896373e-02, -3.94320451e-02, -6.92797005e-02,  1.25292996e-02, 1.83858965e-02, 1.06411772e-02, 3.56739834e-02, 7.68110016e-03},
 {-3.06366533e-02, 6.25016540e-02, 4.20981683e-02, -6.77464232e-02, -5.65430382e-03,  8.30513984e-03, 1.07914940e-01, 7.36933295e-03, -2.84704883e-02, -9.78428498e-02},
 {-3.58220190e-02, 3.51955146e-02, 1.76163316e-02, -1.83797292e-02, -2.79054083e-02,  3.78907360e-02, 2.66128238e-02, -8.58534686e-03, -2.21363511e-02, -2.35353298e-02},
 {-5.36378995e-02, -1.70198046e-02, 4.95280512e-02, 7.20769614e-02, 1.21115800e-02, -2.47277655e-02, -4.11892980e-02, 1.32169537e-02, 4.27950807e-02, -5.86282052e-02},
 {-3.06535009e-02, -6.58557788e-02, 4.50482545e-03, 4.07229401e-02, -2.43211053e-02,  2.10460685e-02, -4.40047588e-03, -4.01652120e-02, 3.55813131e-02, 3.12294029e-02},
 {-2.39858013e-02, -2.16591042e-02, 1.74540766e-02, 7.38199502e-02, 1.38610778e-02,  1.39849745e-02, 6.59076171e-03, -4.10674848e-02, -6.46063760e-02, -1.88812446e-02},
 { 1.79161001e-02, 5.65220155e-02, 7.32779056e-02, 1.42502189e-02, -4.95242737e-02, -8.15035328e-02, 8.23635329e-03, 2.49464214e-02, 2.17569768e-02, -7.40230605e-02},
 { 6.46700524e-03, -3.92201804e-02, -4.39694064e-04, 3.34950276e-02, -5.44401668e-02,  6.61528409e-02, -2.65914444e-02, -1.80329476e-02, -4.23310623e-02, 8.68802704e-03},
 { 2.01776363e-02, 2.03230940e-02, 1.51402224e-03, -3.67772356e-02, 3.10861189e-02, -8.71709362e-02, -1.42132696e-02, 2.20019128e-02, -5.18745219e-04, 4.20271866e-02},
 {-4.12003100e-02, 6.57996982e-02, -3.39071043e-02, 1.21293524e-02, -1.79116055e-02,  2.26608329e-02, -1.97937209e-02, -1.46937231e-02, 1.02312549e-03, -3.88359874e-02},
 {-1.74521785e-02, 2.63783839e-02, 1.26322908e-02, -5.72954789e-02, 4.74066921e-02, -2.22520698e-02, -2.99486462e-02, -8.98833852e-03, 2.16820482e-02, 5.99064007e-02},
 { 3.22988071e-02, 2.46004760e-03, 8.64500031e-02, -6.41087443e-02, 1.67133734e-02, -6.71640635e-02, 8.04175287e-02, -5.05789779e-02, 2.40120664e-02, -8.28002766e-02},
 { 1.29419686e-02, -2.79383119e-02, 2.54154988e-02, 1.96053013e-02, -6.37297556e-02,  7.10229203e-02, -3.59161049e-02, 4.52016108e-02, -8.53208732e-03, -3.35607044e-02},
 {-4.82183211e-02, 1.42151024e-02, 1.15571991e-01, 7.86529705e-02, -3.50158960e-02, -9.14998911e-03, -3.53787728e-02, -6.18382990e-02, 7.73491412e-02, -6.92934245e-02},
 {-2.58971006e-03, 1.98657997e-02, 3.61060128e-02, -5.70825581e-03, -1.96553022e-02, -1.00530647e-02, 5.76300174e-02, -5.63154332e-02, 2.40902565e-02, 3.37105915e-02},
 { 5.98983616e-02, -6.92218393e-02, -6.72404543e-02, 1.05336405e-01, -7.06272125e-02,  4.60111164e-02, 2.41548866e-02, 2.05020816e-03, -2.57280772e-03, -7.90249277e-03},
 { 1.71774067e-02, -1.26498025e-02, 8.87200534e-02, -1.23346150e-02, -5.15125059e-02, -3.01567595e-02, 1.63740423e-02, 2.84718294e-02, -5.06816879e-02, -1.29224872e-02}};
