float weightsConv2[16][6][5][5] = {{{{-7.95677915e-05, 1.00828018e-02, 1.28877647e-02, -3.36350240e-02, 1.61700100e-02},
   {-2.53410486e-04, 2.64600897e-03, 2.76838280e-02, -4.07978892e-02, 1.52274380e-02},
   { 5.82234608e-03, 8.16992077e-04, 4.62938175e-02, -5.27360737e-02, 4.80611902e-03},
   {-2.58786622e-02, 1.93985384e-02, 6.46199286e-02, -1.59869865e-02, 2.65755858e-02},
   {-2.79745180e-02, 7.97587913e-03, 4.21515740e-02, -1.41044986e-02, 7.98955932e-03},},

  {{-1.52040403e-02, -2.66035995e-03, 5.29763149e-03, -5.81360981e-03, -1.26017891e-02},
   { 1.90116949e-02, 1.04715943e-03, 7.75225833e-03, -1.00652929e-02, 1.11018715e-03},
   { 1.09558087e-02, -7.66508421e-03, -1.38265798e-02, -9.17698815e-03, 6.65301923e-03},
   { 6.72786555e-04, 3.88788339e-03, 6.05697138e-03, -1.61940865e-02, -1.51862800e-02},
   { 4.55782143e-03, -3.55928182e-03, 1.83449388e-02, -3.98012996e-03, -9.57840064e-04},},

  {{-2.93876380e-02, -3.52649926e-03, 9.11602378e-03, 2.72262450e-02, 1.77668352e-02},
   {-4.52466533e-02, -2.39111669e-02, 4.80272155e-03, 3.10649537e-02, 1.65716633e-02},
   {-3.34258005e-02, -1.44010819e-02, 3.92491277e-03, 4.44836318e-02, 3.25246044e-02},
   { 3.42314411e-03, -1.46347368e-02, 1.63792763e-02, 9.68156010e-02, 2.47211754e-02},
   { 2.69717015e-02, 8.25280882e-03, 3.28965262e-02, 5.74906245e-02, 9.91600193e-03},},

  {{-1.55733316e-03, -1.43752415e-02, 1.37223769e-02, 8.96739028e-03, -3.51192639e-03},
   {-2.19550487e-02, -1.22220879e-02, 1.73969083e-02, 2.72038393e-02, -6.04660586e-02},
   {-2.65035592e-02, 2.14931183e-03, 1.83771178e-02, 3.18584442e-02, -3.00077982e-02},
   {-9.48318467e-03, -1.08694006e-02, 9.20677744e-03, 3.76648158e-02, -1.27254268e-02},
   {-1.98809374e-02, -3.41656841e-02, 1.23280240e-03, 2.68572886e-02, -7.25626806e-03},},

  {{-4.86932322e-02, -2.71096155e-02, -8.76823266e-04, 2.34061237e-02, 2.36027851e-03},
   { 5.10321511e-03, 1.34108844e-03, 9.82548017e-03, 3.64650674e-02, -3.01911943e-02},
   {-2.28401087e-02, -1.41747147e-02, -9.43156250e-04, 4.77068238e-02, -2.25610994e-02},
   {-4.60683787e-03, -3.18947323e-02, -2.50077154e-03, 2.82014739e-02, -1.28083182e-02},
   {-8.88293050e-03, -1.58705972e-02, 1.14472416e-04, 1.92962829e-02, -7.19693815e-03},},

  {{-7.14589935e-03, 2.00091898e-02, 4.97385114e-02, -3.85638140e-02, 5.29304147e-03},
   { 2.20718924e-02, 3.00001856e-02, 4.05409038e-02, -8.74289125e-02, -4.64865454e-02},
   { 2.28215028e-02, 1.19662471e-02, 1.07427351e-01, -9.92985889e-02, -7.75578693e-02},
   {-4.79685962e-02, -3.79865221e-03, 1.00692898e-01, -7.03706294e-02, -2.78300922e-02},
   {-7.91187286e-02, -1.93424430e-03, 9.48759541e-02, -5.58450744e-02, 9.91378631e-03},},},


 {{{-9.76635050e-03, -2.87898903e-04, -3.01198959e-02, -2.95613310e-03, 5.00542708e-02},
   { 1.41970124e-02, 3.88991274e-02, -5.71040176e-02, -2.63399500e-02, 2.02038437e-02},
   {-1.96849648e-02, 6.22742362e-02, -4.89347614e-02, -4.25055064e-02, 2.46931240e-02},
   { 8.33966956e-03, 3.67144682e-02, -3.74515951e-02, -2.20358092e-02, 3.31625082e-02},
   { 4.51420806e-03, 9.34516545e-03, -1.90177858e-02, 1.40661253e-02, 4.33123894e-02},},

  {{-5.03345102e-04, 5.32959215e-03, -7.91720394e-03, -2.65132505e-02, 9.50086024e-03},
   { 1.91454664e-02, 1.91210117e-02, -2.45109927e-02, -1.88604929e-02, 1.18232183e-02},
   {-2.38252599e-02, 1.79893163e-03, -2.00025402e-02, -1.13691129e-02, -1.50444184e-03},
   {-2.89477129e-03, 5.11669973e-03, -7.88827427e-03, -2.34457850e-02, 1.22870225e-02},
   {-4.24780324e-03, 2.04199203e-03, 7.37456232e-03, -7.77463149e-03, 1.00464355e-02},},

  {{-8.83600116e-03, 3.11429729e-03, 3.07250898e-02, 1.58286858e-02, -7.71525363e-03},
   { 9.33588762e-03, -2.35981066e-02, 5.31634353e-02, 3.10154520e-02, -1.61418412e-02},
   { 1.99255273e-02, -2.63372809e-02, 6.92334846e-02, 3.66926305e-02, -8.85723159e-03},
   {-5.30579267e-03, 2.97994283e-03, 5.81711531e-02, 2.93430723e-02, -2.04704292e-02},
   {-1.54526923e-02, 7.66665535e-03, 4.40033972e-02, 2.27948860e-03, -1.64645836e-02},},

  {{-2.70557357e-03, 1.66536774e-02, -1.17615251e-04, -2.16955803e-02, -4.56969999e-03},
   {-1.55837024e-02, -3.00334254e-03, 2.53645144e-02, -2.88251899e-02, -2.27861125e-02},
   {-3.24216448e-02, -7.10216677e-03, 5.98231219e-02, -3.23245749e-02, -2.19240021e-02},
   { 5.95409144e-03, 1.08714020e-02, 1.66821815e-02, -1.97048709e-02, -3.30726132e-02},
   {-1.70621090e-02, -1.48503417e-02, -3.44360038e-03, -3.76469009e-02, -2.68632062e-02},},

  {{-2.69878958e-03, 5.71856787e-03, 2.28747595e-02, -7.18742050e-03, 5.75921312e-03},
   {-2.11929029e-04, -2.94804224e-03, 2.77442746e-02, -9.33647994e-03, -2.50486154e-02},
   {-6.29717065e-03, 3.61707364e-03, 2.35256590e-02, -1.66996699e-02, -2.96292529e-02},
   {-1.97757292e-03, -3.14496341e-03, 2.30904557e-02, -1.64372064e-02, -2.24655569e-02},
   { 1.37932308e-03, -4.68572695e-03, 2.83267144e-02, -3.29743847e-02, -1.49408290e-02},},

  {{-2.83345114e-03, 4.83456329e-02, -6.90446943e-02, -3.15018967e-02, 8.51418450e-02},
   { 2.30674352e-03, 6.22352399e-02, -7.27682337e-02, -6.42361566e-02, 2.87734251e-02},
   {-4.01637219e-02, 7.94136003e-02, -8.91911760e-02, -1.28323823e-01, 1.74769908e-02},
   {-3.42433155e-03, 7.00797215e-02, -1.04047745e-01, -6.36335462e-02, 7.56490603e-02},
   { 1.76851582e-02, 5.16868792e-02, -1.11807078e-01, 3.65666975e-03, 6.67802244e-02},},},


 {{{-5.11231087e-02, -5.55484258e-02, -4.71982956e-02, -9.00207087e-03, -2.29655206e-02},
   {-1.29833221e-02, 7.28513766e-03, 3.21867950e-02, 1.79953892e-02, -2.86368057e-02},
   { 9.34894942e-03, 3.12204584e-02, 2.40638088e-02, -2.46550646e-02, -1.05258413e-02},
   { 9.79641639e-03, 1.12559572e-02, -1.71190836e-02, -3.42357717e-02, 1.43642779e-02},
   { 5.90731623e-03, -4.31856886e-02, -3.70194167e-02, 3.17421928e-03, 2.55538127e-03},},

  {{-6.80948514e-03, 3.91435996e-03, -1.49093820e-02, -8.16709269e-03, -1.39122205e-02},
   {-2.08395831e-02, -3.37776286e-03, 6.56761974e-03, 3.64337936e-02, 1.69827733e-02},
   { 6.70784852e-03, 3.66002433e-02, 1.77102238e-02, 1.69492066e-02, -9.10872314e-03},
   { 2.87419874e-02, 2.34842580e-02, 1.87720601e-02, -1.91455297e-02, -1.32073201e-02},
   { 1.67249564e-05, -9.81197041e-03, 7.31830194e-04, 4.99784667e-03, -1.04959924e-02},},

  {{ 7.76035478e-03, -1.78185124e-02, -5.46531472e-03, -2.65584849e-02, -4.59586866e-02},
   { 7.02375174e-03, -5.33904396e-02, -5.27713299e-02, -2.45658141e-02, -2.68646125e-02},
   {-2.35974453e-02, -3.90560180e-02, -4.61604744e-02, -2.92934030e-02, -6.73502777e-03},
   {-3.04460358e-02, -4.23971489e-02, -4.10284661e-02, -2.40768306e-02, -6.31770771e-03},
   {-1.18239801e-02, 2.00663675e-02, 1.71687081e-02, -1.18919294e-02, 1.55579792e-02},},

  {{-1.22959549e-02, -5.54591082e-02, -2.76763383e-02, -1.28852148e-02, -6.07637130e-03},
   { 7.81111931e-03, 1.59286372e-02, 4.82685603e-02, -1.34219881e-03, -8.52699974e-04},
   { 1.63447652e-02, -7.35832378e-03, -1.72550827e-02, -2.01986707e-03, 1.59369241e-02},
   {-7.46283634e-03, -3.64328586e-02, -5.28946556e-02, -1.86067168e-02, -1.53685790e-02},
   {-1.51786199e-02, -9.23107844e-03, -9.70256515e-03, -3.47065777e-02, 6.03391556e-03},},

  {{-1.23562720e-02, -1.58947222e-02, -2.02435609e-02, -4.41894680e-02, -1.57303177e-02},
   {-2.85771657e-02, -2.77095642e-02, -3.04731280e-02, 4.47122054e-03, 2.26408220e-03},
   {-8.49849265e-03, 1.67920310e-02, 6.93250448e-03, 4.27744687e-02, 2.40798034e-02},
   { 1.19711710e-02, 2.45041437e-02, 4.80499351e-03, 1.38603961e-02, -2.26597860e-02},
   { 3.95904033e-04, 3.52542661e-03, -1.03886696e-02, -2.94637606e-02, -4.73534595e-03},},

  {{-1.01863489e-01, -1.55581608e-01, -1.22362413e-01, -4.75157462e-02, 9.40511841e-03},
   {-5.52742220e-02, 3.70919704e-02, 9.72423479e-02, 1.32594168e-01, 5.11987396e-02},
   { 5.24040386e-02, 1.38596475e-01, 1.52281314e-01, 8.24671462e-02, -1.21640712e-02},
   { 7.26334378e-02, 5.46672828e-02, -4.96316552e-02, -1.00676730e-01, -5.00863604e-02},
   { 4.00499674e-03, -7.27308765e-02, -1.32771194e-01, -8.34726319e-02, 5.05979313e-03},},},


 {{{-1.38659850e-02, -1.26117468e-02, -1.77874770e-02, -2.66079721e-03, 1.01157483e-02},
   { 3.47459712e-03, -1.93022359e-02, -1.86203457e-02, -2.49705799e-02, -1.14982389e-02},
   { 6.27571158e-03, 2.21214909e-02, 1.74776197e-03, -2.55774576e-02, -3.01317424e-02},
   { 2.36831959e-02, 4.29750653e-03, 2.59841587e-02, 3.36474478e-02, -1.01171937e-02},
   {-8.63231160e-03, -1.91098470e-02, -6.68852404e-03, 2.36338377e-02, 1.23146977e-02},},

  {{ 2.46707834e-02, 1.65860425e-03, 8.98202043e-03, -2.56851735e-03, 4.14553098e-03},
   { 5.23233414e-03, -1.44479601e-02, -3.56443226e-03, 6.88676350e-03, 1.17225163e-02},
   {-5.87510783e-03, 2.04154314e-03, 2.28831470e-02, 4.20981739e-03, -2.01630127e-03},
   { 2.53615831e-03, -6.61913073e-03, 1.94603316e-02, -3.76975280e-03, -8.06566235e-03},
   { 1.83528922e-02, 1.81883778e-02, 1.07663618e-02, -6.38865400e-03, 6.25653309e-04},},

  {{-1.04192924e-03, 3.87556758e-03, -2.42763548e-03, 5.74819883e-03, -6.36676885e-03},
   {-1.17193414e-02, 1.59275904e-02, 2.26001232e-03, 4.35587671e-03, -1.23595502e-02},
   {-1.48373619e-02, -1.08077386e-02, 1.27396006e-02, 2.63563753e-03, -2.63708091e-04},
   {-2.58756895e-02, -3.47696915e-02, -3.44345048e-02, -9.95490700e-03, 3.58850434e-02},
   {-1.93972029e-02, 4.07747831e-03, -2.42492110e-02, -1.63370933e-04, 3.67438141e-03},},

  {{ 1.74396988e-02, -1.93806868e-02, -5.05860057e-03, -1.45502137e-02, 9.07769427e-04},
   { 2.26429827e-03, 5.64365787e-03, 1.19236382e-02, -2.78855450e-02, -3.86215523e-02},
   {-5.83323790e-03, 2.05372870e-02, 3.87071073e-02, 1.23725208e-02, -1.11010652e-02},
   {-1.25593906e-02, -9.15537681e-03, 4.28973697e-02, 6.67713657e-02, 1.39418617e-02},
   {-1.56983975e-02, -2.53362842e-02, -3.36961783e-02, 5.91559848e-03, 2.93934923e-02},},

  {{-1.34984888e-02, 7.82439951e-03, -4.87091765e-03, 2.74314662e-03, 3.41299828e-03},
   {-8.72958079e-03, -6.61019236e-03, -1.09759355e-02, -6.41953619e-03, -6.92579662e-03},
   {-1.34851355e-02, 8.21789727e-03, -4.24931245e-03, 1.94341969e-03, -1.13073103e-02},
   { 2.61699967e-03, -9.43605136e-03, 4.15415019e-02, 4.36568744e-02, 3.30085270e-02},
   {-1.07119074e-02, -2.08637118e-02, -1.30137596e-02, 1.64168875e-03, 2.37008631e-02},},

  {{ 8.09674244e-03, -1.56351775e-02, -4.10932526e-02, -5.06709293e-02, 5.69578074e-03},
   { 2.99679302e-02, -3.17585580e-02, -4.50439081e-02, -7.29775429e-02, -3.92590500e-02},
   { 2.68695727e-02, 2.71458644e-02, 2.39605904e-02, 3.10612726e-03, -5.35796881e-02},
   { 2.18222961e-02, 5.36900647e-02, 5.42482808e-02, 5.54530844e-02, -2.47755442e-02},
   {-1.50891133e-02, -3.11501492e-02, -8.72178283e-03, 1.57985538e-02, 7.72520155e-03},},},


 {{{-3.04339197e-03, -3.25061101e-03, -2.66805906e-02, -1.45255364e-02, 1.59464590e-02},
   { 3.36326137e-02, -2.06112824e-02, -2.51194611e-02, 5.89257926e-02, 3.67340185e-02},
   { 7.63877435e-03, -6.69444576e-02, 4.16258862e-03, 6.14654571e-02, -1.31027251e-02},
   { 1.17388992e-02, -2.70326491e-02, 4.29116078e-02, 2.98667718e-02, -2.79068723e-02},
   { 5.57099422e-03, 2.23258976e-02, 2.22320110e-02, -2.77748890e-02, -5.99108113e-04},},

  {{-1.16320904e-02, -3.79673298e-03, -7.89768156e-03, -5.76499524e-03, -6.62017846e-03},
   { 6.30654162e-04, -1.90011342e-03, -1.29452236e-02, -1.19304024e-02, 1.84198096e-02},
   { 2.64672306e-03, -4.70986270e-04, -1.89504530e-02, 2.95097736e-04, 5.65606169e-03},
   {-9.94885620e-03, -3.07958238e-02, 2.43602209e-02, 5.11906901e-03, -1.14472499e-02},
   { 1.57179241e-03, 4.69483109e-03, -1.80156715e-03, 3.38148442e-03, -3.16854715e-02},},

  {{ 4.93476680e-03, 1.23117855e-02, 2.40407847e-02, -1.95339229e-02, -2.96651516e-02},
   {-6.54440233e-03, 4.15590219e-02, 3.20582166e-02, -2.46148948e-02, -7.06235413e-03},
   { 1.23671712e-02, 9.45277885e-03, 2.20986083e-02, -2.96247788e-02, 3.13063599e-02},
   { 2.41601821e-02, 4.19949144e-02, 7.71684339e-03, 1.52996462e-02, 3.74424942e-02},
   { 5.48678683e-03, 9.11053363e-03, -1.05847698e-02, 2.85702329e-02, 3.57614062e-03},},

  {{-9.95508023e-03, 4.90311813e-03, -1.57907568e-02, 1.09551975e-03, -2.13668458e-02},
   {-8.45844671e-03, 3.90976621e-03, -1.34276357e-02, -1.12476572e-02, 1.86361757e-03},
   {-2.53866166e-02, 8.32316652e-03, -2.90860180e-02, -2.64340825e-02, -1.69517752e-03},
   {-1.48803135e-02, 1.55123603e-02, -5.66123985e-03, -2.31867433e-02, 2.65864679e-03},
   {-1.21437330e-02, 1.34490570e-02, -2.80951597e-02, -8.03665165e-03, -5.74645912e-03},},

  {{ 2.95027741e-04, 7.17586372e-03, -5.96335274e-04, -8.49603210e-03, -6.95905322e-03},
   {-1.54150836e-03, 2.40718909e-02, -3.11742863e-03, -1.89184006e-02, 1.53361699e-02},
   { 1.64739192e-02, 1.72214340e-02, -4.90937335e-03, -3.37278731e-02, 8.20102636e-03},
   { 1.03515806e-02, 1.60697456e-02, -1.54844802e-02, 2.68032476e-02, 2.95981821e-02},
   {-2.47391989e-03, 1.66979842e-02, 3.51149967e-04, 1.24996006e-02, -1.65687110e-02},},

  {{-1.37235699e-02, -3.01599875e-02, -9.90792662e-02, -9.06602573e-03, 7.05221444e-02},
   { 3.60222794e-02, -6.44546300e-02, -1.17129371e-01, 4.84646261e-02, 8.73779655e-02},
   { 3.26019898e-02, -1.08733028e-01, -5.75772263e-02, 9.80816036e-02, 1.27606066e-02},
   { 4.55949642e-03, -1.00762598e-01, 5.77652678e-02, 8.48314166e-02, -5.63637801e-02},
   {-3.28524038e-02, -1.17735229e-02, 7.42926747e-02, -2.87438221e-02, -5.85800447e-02},},},


 {{{-1.70479305e-02, -2.39885226e-02, -5.46698272e-03, -3.27198692e-02, 2.41584890e-03},
   { 8.55247607e-04, -1.57934744e-02, -5.60444873e-03, -2.30369903e-02, -5.42921200e-03},
   { 2.28812490e-02, 8.13162047e-03, 1.33392736e-02, -2.32459847e-02, -1.70948897e-02},
   { 8.92915297e-03, -2.75481376e-03, 3.94885764e-02, 1.57053992e-02, -4.22324566e-03},
   {-1.95563585e-02, -2.62078196e-02, 4.34000082e-02, 1.58206038e-02, -1.47272432e-02},},

  {{-4.18102974e-03, -2.71256641e-03, -1.92463268e-02, -1.24541139e-02, 3.78305931e-03},
   { 1.59944687e-02, 3.59730097e-03, -3.52446316e-03, -1.96736250e-02, -1.20531591e-02},
   { 1.69055108e-02, 1.82682034e-02, 5.20919356e-03, 5.82233490e-03, -2.67161950e-02},
   { 5.09549864e-03, -4.49463353e-03, 2.28899895e-04, 8.13637953e-03, -8.40480532e-03},
   {-1.50738657e-02, -1.62175745e-02, 1.45831716e-03, 1.24540587e-04, -7.20057497e-03},},

  {{ 2.03924682e-02, 1.49590382e-02, -2.88527422e-02, 2.21708324e-03, -1.90251768e-02},
   {-1.36032347e-02, 8.95188306e-04, 2.45395470e-02, 4.96732909e-03, -8.04445613e-03},
   {-1.95099600e-02, -6.52194256e-03, -7.64003769e-03, 1.49469217e-02, 1.38940681e-02},
   { 7.37704989e-03, -1.39185926e-02, -1.86666381e-02, 1.59499776e-02, 1.40667222e-02},
   { 4.43536369e-03, 1.13854893e-02, -1.75713953e-02, 2.85487976e-02, 1.03597511e-02},},

  {{ 1.64240990e-02, 6.22174377e-03, -1.50417732e-02, -1.76978819e-02, -6.39095204e-03},
   { 1.16953086e-02, 1.82380974e-02, 2.36626226e-03, 1.05066486e-02, -2.66061556e-02},
   { 9.14565194e-03, 3.11301667e-02, 2.43339408e-02, 2.79435646e-02, 1.55282775e-02},
   {-1.14180967e-02, -4.53859661e-03, 1.68635678e-02, 2.92675756e-02, 7.77025893e-03},
   { 7.89559330e-04, -1.47933774e-02, -2.27247067e-02, 2.09563579e-02, -1.42796701e-02},},

  {{-5.21823298e-03, 4.75686369e-03, -1.82263330e-02, -1.10525973e-02, -7.94817694e-03},
   { 9.05580726e-03, 1.18439160e-02, -9.30096488e-03, 2.45038350e-03, -6.02083141e-03},
   { 4.97186743e-03, 1.42285973e-02, 5.73699968e-03, 2.92386319e-02, -2.67004538e-02},
   { 8.47423822e-03, 6.45812042e-03, 7.43438816e-03, 2.03518029e-02, -7.29694217e-03},
   {-1.35113765e-02, -1.74530502e-02, -1.24347052e-02, 2.79891584e-02, 1.38665568e-02},},

  {{-2.93196887e-02, -3.28214318e-02, -2.93448530e-02, -4.78410162e-02, -1.28678633e-02},
   { 1.40740990e-03, 5.09715220e-03, 4.14944999e-03, -5.31915762e-02, -3.56705040e-02},
   { 4.93740775e-02, 2.93236766e-02, 5.76912239e-02, -1.35982893e-02, -6.64915442e-02},
   { 4.88133915e-03, -1.91830061e-02, 3.35344784e-02, -1.14198064e-03, -6.16718493e-02},
   {-2.43296381e-02, -3.35407741e-02, 5.29875830e-02, 2.70463433e-02, -4.44445685e-02},},},


 {{{ 2.11157557e-02, 1.88012514e-02, 5.53308502e-02, 8.15214217e-03, -1.63850244e-02},
   {-2.46651452e-02, -2.14091199e-03, 3.14918570e-02, 2.50312854e-02, -1.16291910e-03},
   {-3.74765657e-02, -3.01860832e-02, 3.77578288e-02, 2.04252712e-02, 2.23314180e-03},
   {-1.84859280e-04, -4.41092551e-02, -6.71459408e-03, 4.80878130e-02, -7.43756827e-05},
   { 3.02488618e-02, -4.55161966e-02, -2.51252595e-02, 4.54008058e-02, 8.92134011e-03},},

  {{-5.50226169e-03, -3.76538164e-03, 1.84896383e-02, 5.25775040e-03, -2.33390220e-02},
   { 1.32864586e-03, -1.03193028e-02, -1.47973597e-02, 4.54924721e-03, 5.73705509e-03},
   {-9.59500577e-03, -4.92416264e-04, -1.16570201e-02, 4.67010820e-03, -1.17012598e-02},
   {-1.65481120e-02, -1.16607007e-02, 1.83589861e-03, 1.30066357e-03, -1.05363119e-03},
   {-5.67637011e-03, 7.07344897e-03, 1.83793111e-03, 2.79298914e-03, 2.87089427e-03},},

  {{-1.44905411e-02, 9.46534798e-03, -1.09478673e-02, 2.60930024e-02, 1.24775842e-02},
   { 1.50530937e-03, 2.44181026e-02, -4.38035699e-03, 1.39746387e-02, 4.59520100e-03},
   {-2.51747090e-02, 2.24923398e-02, 6.35691779e-03, -1.77273452e-02, 1.65455043e-02},
   {-2.86478270e-02, 1.25346826e-02, 6.03990536e-03, -5.75964386e-03, 3.49154137e-02},
   {-1.51756033e-02, 2.20847372e-02, -3.05681233e-03, -1.71791576e-02, 1.22627709e-02},},

  {{-1.77228879e-02, 4.80996969e-04, 1.40142050e-02, 3.88585180e-02, 6.19737757e-03},
   { 2.67106807e-03, -5.75318048e-03, 5.57056675e-03, 4.35596183e-02, 3.40067409e-02},
   {-6.57606055e-04, -3.43040493e-03, -2.10782271e-02, 3.45232934e-02, 3.88459861e-02},
   { 2.88157864e-03, -8.76285881e-03, -4.84761922e-03, 5.95112285e-03, 2.58050300e-02},
   {-3.10799270e-03, 1.84414517e-02, -2.34513683e-03, -2.44679637e-02, 2.08813604e-02},},

  {{-2.07793582e-02, -6.27496885e-03, 2.40073968e-02, 2.63252092e-04, -2.46502017e-03},
   {-5.69099421e-03, 1.63141021e-03, 4.80649108e-03, 1.29621504e-02, 2.14718431e-02},
   { 2.69042067e-02, -1.03611508e-02, -3.32592539e-02, 9.90182161e-03, 1.16317514e-02},
   {-2.11177431e-02, 6.87246720e-05, -1.90527849e-02, -6.05282979e-03, 3.05464864e-02},
   {-4.37335484e-03, 3.67638469e-02, -2.24202760e-02, -1.74775906e-02, 6.76503219e-03},},

  {{-1.32199572e-02, -5.68568986e-03, 4.55840006e-02, 1.62928049e-02, -8.66904098e-04},
   {-2.81946864e-02, -6.76149726e-02, 4.47046496e-02, 2.84885298e-02, 2.20603608e-02},
   {-9.32108685e-02, -9.99825820e-02, 2.09974665e-02, 4.15710844e-02, 2.20135674e-02},
   {-1.39058465e-02, -8.38118643e-02, -3.13230902e-02, 6.26509786e-02, 1.16737848e-02},
   { 7.80126452e-02, -6.47027120e-02, -3.76424529e-02, 4.08851840e-02, 3.18413763e-03},},},


 {{{-2.37116311e-02, 2.11245492e-02, -2.88520730e-03, -2.76168305e-02, 7.33085796e-02},
   {-1.29113402e-02, 5.20680398e-02, -1.29562309e-02, -3.06534283e-02, 3.50289308e-02},
   {-6.07372075e-03, 7.19563589e-02, 7.53794936e-03, -2.30534151e-02, 3.05389147e-02},
   {-5.78457199e-04, 4.44434322e-02, -1.02503207e-02, -2.44887043e-02, 1.31539442e-02},
   {-1.56970285e-02, 3.04811317e-02, 3.76423746e-02, -1.08710621e-02, -1.67060532e-02},},

  {{-4.15537506e-03, -8.61038733e-03, 2.32834741e-03, -1.71806701e-02, 1.81926098e-02},
   { 2.44558742e-03, -1.89496344e-03, 2.58067943e-04, -1.33109111e-02, -1.80923603e-02},
   { 2.15173000e-03, 7.24534690e-03, -1.41872223e-02, -2.10903883e-02, 2.87572527e-03},
   {-1.03534488e-02, 1.71644520e-02, -1.89358890e-02, 1.21770462e-03, -2.37663183e-03},
   {-5.46986470e-03, -5.18668070e-03, 9.09042824e-03, 7.14607071e-03, -2.55538267e-03},},

  {{-5.45781059e-03, -1.24534557e-03, 5.93951866e-02, 2.68209726e-02, 1.05268648e-02},
   { 1.01416875e-02, -6.35177968e-03, 2.96622775e-02, 5.30456603e-02, -1.73093043e-02},
   {-4.03182302e-03, -3.58104851e-04, 6.15529753e-02, 4.53388207e-02, -1.68311726e-02},
   {-1.08312182e-02, 2.17796676e-03, 5.22537865e-02, 3.55621688e-02, -1.93028292e-03},
   {-7.66229769e-03, -7.74584524e-03, 9.70877893e-03, 4.49449793e-02, 1.03652989e-02},},

  {{-1.04515078e-02, -4.05770214e-03, -2.68088246e-04, -1.85829755e-02, -2.77280882e-02},
   {-2.86158524e-03, 2.53972295e-03, 3.35442908e-02, -2.29797009e-02, -4.27251980e-02},
   {-1.95722803e-02, -7.79287377e-03, 2.76561249e-02, -1.16021354e-02, -2.86636315e-02},
   { 3.42310802e-03, 5.90304006e-03, 5.72336614e-02, 2.01082062e-02, -3.50559764e-02},
   {-5.21338023e-02, 1.67254196e-03, 6.07709587e-02, 1.36096543e-02, 3.32065858e-03},},

  {{ 6.36021234e-03, 1.14138396e-02, 1.90065298e-02, -2.35846499e-03, -4.34097163e-02},
   {-5.64914569e-03, -2.51317141e-03, 3.13669927e-02, -1.34178381e-02, -2.82861814e-02},
   { 1.12775052e-02, -2.82150991e-02, 2.84251478e-02, 1.77851808e-03, -2.47512329e-02},
   {-5.35340654e-03, -8.67931917e-03, 3.64813134e-02, -1.14585487e-02, -2.69102473e-02},
   {-2.24186126e-02, -2.56283721e-03, 1.76667050e-02, 1.07759079e-02, -1.27580622e-02},},

  {{-2.33251657e-02, 4.39219885e-02, -4.47268859e-02, -7.51498118e-02, 5.66037633e-02},
   {-3.15045416e-02, 5.21561094e-02, -2.50295550e-02, -1.01668939e-01, 6.93665594e-02},
   {-4.82517295e-02, 8.02370906e-02, -6.39357641e-02, -9.92161930e-02, 3.14306989e-02},
   {-2.18484662e-02, 7.72282332e-02, -2.09697913e-02, -4.01320718e-02, -1.48950219e-02},
   {-3.85764502e-02, 3.43620814e-02, 1.58479009e-02, 1.73216332e-02, -1.65258422e-02},},},


 {{{-1.67535916e-02, -1.58047192e-02, -7.51538062e-03, 6.69877650e-03, 1.05557777e-02},
   { 3.51170450e-02, 1.63250919e-02, -2.32658368e-02, -1.98545284e-03, 1.73136927e-02},
   { 1.62584167e-02, 3.25211063e-02, -1.44333923e-02, -1.90630406e-02, 2.17463449e-02},
   {-7.09872518e-04, 2.81024855e-02, 7.69787654e-03, -6.85210398e-04, -4.12061438e-03},
   {-2.73555052e-02, 1.49613351e-03, 1.80665925e-02, 1.25446776e-02, -7.93194026e-03},},

  {{-8.14629067e-03, -8.28269031e-03, 7.88438041e-03, 2.07289383e-02, -8.75882455e-04},
   { 8.36108346e-03, 4.65278374e-03, -8.29420704e-03, -9.13959648e-03, 2.17500096e-03},
   { 1.01738293e-02, 7.70526892e-03, 9.51941311e-03, 1.83475367e-03, 1.34559432e-02},
   {-4.05870285e-03, 1.10429144e-02, -2.72821332e-03, -2.06233794e-03, 6.35804702e-03},
   {-1.11382669e-02, -3.82383494e-03, 1.94681610e-03, -1.03268977e-02, -2.50609126e-02},},

  {{ 1.69841330e-02, 5.56292338e-03, -3.75964330e-03, 1.36287464e-02, 2.05193413e-03},
   {-1.89543776e-02, 1.80203654e-02, 2.53044302e-03, -6.40658895e-03, -1.87792480e-02},
   {-5.23994304e-03, 1.17755840e-02, 2.26124786e-02, 1.05224056e-02, -1.52784763e-02},
   {-5.80017408e-03, -8.31286609e-03, 1.98922846e-02, 2.19243579e-02, -2.54716899e-04},
   {-1.45929831e-03, -6.50464697e-03, -1.91537999e-02, 1.16570210e-02, 8.00251402e-03},},

  {{ 7.41157774e-03, -5.08735236e-03, -4.06576544e-02, 4.87995381e-03, 1.02080042e-02},
   { 1.94454771e-02, 2.69077085e-02, -2.38540284e-02, -2.22171117e-02, -1.54171872e-03},
   { 1.08199834e-03, 3.62554938e-02, 2.84714121e-02, -6.64210087e-03, -9.25250293e-04},
   {-2.40471065e-02, -1.74637958e-02, 4.18792553e-02, 2.34549157e-02, -1.07865585e-02},
   { 3.09379864e-03, -1.66611299e-02, -9.81522538e-03, 1.09374132e-02, 1.61765199e-02},},

  {{ 1.42876571e-02, -1.03265010e-02, 4.82536945e-03, -4.27909335e-03, 1.21175591e-02},
   {-5.01015224e-03, 1.39214722e-02, 3.52853979e-03, -2.57041119e-02, 2.71851110e-04},
   {-1.51960384e-02, 1.45293530e-02, 1.57703515e-02, 1.59864444e-02, 1.04295556e-02},
   {-1.80880371e-02, -1.88652556e-02, 3.85403223e-02, 3.61463963e-03, 5.58085321e-03},
   {-1.97069962e-02, -3.28242779e-02, 4.18938464e-03, 2.76542194e-02, 5.96808502e-03},},

  {{-7.52297929e-03, -2.64362618e-02, -4.05755751e-02, -1.41449170e-02, 8.02068599e-03},
   { 3.12486663e-02, -1.89067237e-02, -5.86517528e-02, -2.68227570e-02, 4.07787599e-02},
   { 1.69490874e-02, 5.48523664e-02, -3.54421348e-03, -2.84158606e-02, 1.41988173e-02},
   {-3.56610194e-02, 3.35317403e-02, 2.02889014e-02, -1.18610812e-02, 3.09760147e-03},
   {-4.63227108e-02, -2.37745866e-02, 9.27122124e-03, 9.85141471e-03, -7.43418653e-03},},},


 {{{-1.52393421e-02, -3.95688927e-03, 3.34457457e-02, 2.11671623e-03, -1.48972161e-02},
   {-1.23491054e-02, -5.33134937e-02, 5.93147017e-02, 4.07922901e-02, -2.00159028e-02},
   {-2.34748106e-02, -4.65430878e-02, 3.50513123e-02, 3.17690708e-02, -1.07428795e-02},
   {-9.50085185e-03, -3.34841199e-03, 2.55048610e-02, 4.92963102e-03, 1.59492763e-03},
   {-6.69072848e-03, 1.78525690e-02, 2.48336047e-02, -2.20254529e-02, 1.10809936e-03},},

  {{ 4.09453921e-03, -7.17297336e-03, 3.27343890e-03, 5.04187727e-03, 2.54455977e-03},
   { 7.30076164e-04, -5.70438569e-03, -5.76373516e-03, -7.99259357e-03, 8.48879572e-03},
   {-1.23710493e-02, -1.54920388e-02, -6.11840375e-03, -1.29536409e-02, 2.70985113e-03},
   {-2.62975623e-03, 1.27285793e-02, 5.42059587e-03, -9.11271572e-03, -3.44387442e-02},
   {-1.77129533e-03, 1.20571360e-03, 3.94181954e-03, -1.69486254e-02, -1.53337177e-02},},

  {{ 9.67848767e-03, -1.15381815e-02, -6.86436717e-04, 4.32298593e-02, 3.34261581e-02},
   { 1.73415896e-02, -1.31987231e-02, -1.56824943e-02, 3.52502838e-02, 6.17163889e-02},
   {-3.31114489e-03, 4.05705767e-03, -3.43488939e-02, 1.58917941e-02, 4.93401997e-02},
   {-1.38776656e-02, 1.65699096e-03, 2.14525475e-03, 1.01248724e-02, 2.80837677e-02},
   { 1.05811015e-03, -5.61422855e-03, 1.86048094e-02, 2.83277649e-02, -1.02152526e-02},},

  {{-2.81457286e-02, -3.70171815e-02, -2.81619979e-03, 4.00747173e-02, -8.80145747e-03},
   { 1.78979877e-02, -1.83596499e-02, -6.61299471e-03, 3.56477834e-02, 9.50372033e-03},
   {-1.24593489e-02, -1.09701185e-03, -1.88946705e-02, 2.12931708e-02, 2.91593149e-02},
   {-1.88227165e-02, 5.56436833e-03, -1.34441918e-02, 5.69513347e-03, 1.57696102e-02},
   {-1.56553425e-02, -6.67848112e-03, -4.91669751e-04, -1.08709857e-02, -3.07070743e-03},},

  {{-1.64790601e-02, 1.26949074e-02, -5.72153274e-03, 2.41647270e-02, -1.20492065e-02},
   { 1.73118175e-03, 7.49339350e-03, -3.65921073e-02, 2.36985441e-02, 1.40553005e-02},
   { 7.06278021e-03, -3.72110633e-03, -3.51959169e-02, 3.42891701e-02, 5.34211518e-03},
   { 1.47035602e-03, -2.47290591e-03, -3.08959577e-02, -4.86795034e-04, -1.52684348e-02},
   {-2.58095153e-02, -1.34012988e-03, -5.71728777e-03, 1.03388699e-02, -4.84859757e-03},},

  {{ 1.36483815e-02, -1.60900168e-02, 5.10240421e-02, -2.00096052e-02, -4.47628386e-02},
   { 3.80604039e-03, -8.55248198e-02, 4.80642393e-02, 2.73531396e-02, -6.30504563e-02},
   { 2.05010641e-02, -8.36715698e-02, 4.99347746e-02, 4.51328643e-02, -4.69980203e-02},
   {-1.01623880e-02, -4.33510728e-02, 5.92816621e-02, -5.24654798e-03, -1.87721122e-02},
   {-4.47411016e-02, 2.00825147e-02, 5.53311296e-02, -2.26291306e-02, 7.19828019e-03},},},


 {{{ 4.02860856e-03, 7.04923738e-03, 8.38556048e-03, -8.28697905e-03, -1.19812507e-02},
   {-2.52812961e-03, 1.61782671e-02, -1.40042091e-02, -3.01179532e-02, 1.20073103e-03},
   {-1.54235968e-02, -2.89957523e-02, -3.84702794e-02, -2.82363836e-02, -2.08320189e-02},
   {-3.04490216e-02, 4.06433735e-03, -5.36686881e-03, 6.09792955e-03, -3.71443632e-04},
   { 5.56746917e-03, -7.35483086e-03, -4.23151487e-03, 8.76261853e-03, -5.68926986e-03},},

  {{-2.43241736e-03, 3.03021469e-03, -9.80617106e-03, 3.06317471e-02, 7.87756126e-03},
   { 1.68759320e-02, 1.57797225e-02, 2.37680227e-02, 6.98094768e-03, 1.18355919e-02},
   {-9.01245140e-03, 5.69840102e-03, -1.86234973e-02, -2.55304538e-02, -1.58797707e-02},
   {-1.14935283e-02, -4.08180058e-03, 4.20174515e-03, -4.02235100e-03, 2.21205037e-02},
   {-1.75993424e-02, -8.61814304e-04, 1.06336493e-02, -2.59169727e-03, 1.18846428e-02},},

  {{-2.13815980e-02, -1.87982116e-02, -2.63880100e-02, -2.28647962e-02, -1.40624121e-02},
   {-1.77510157e-02, -6.72360091e-03, -2.84183957e-02, -1.34834293e-02, -1.42451013e-02},
   {-2.30293348e-02, -4.07408364e-03, -1.05433250e-02, -4.52080034e-02, 2.69620516e-03},
   {-6.70213299e-03, 1.06299920e-02, -2.62075174e-03, -5.83765563e-03, -9.58093721e-03},
   {-1.54267764e-02, -3.85211743e-02, -1.39185181e-02, -1.21923974e-02, -5.60667366e-03},},

  {{ 5.63277863e-03, 5.60701732e-03, 3.61901224e-02, 4.51910449e-03, 5.14941569e-03},
   {-3.43761928e-02, -4.29291464e-02, -1.56509131e-02, -2.24632397e-02, -2.02971473e-02},
   {-5.82006620e-03, -1.84638295e-02, -2.47263778e-02, -2.65279151e-02, -2.94521097e-02},
   { 1.32880416e-02, -9.37077124e-03, 2.56489171e-03, -1.09210210e-02, -1.05914157e-02},
   {-1.69224236e-02, 1.58941988e-02, -4.19381168e-03, 6.62012259e-03, -2.70468500e-02},},

  {{-2.06953194e-02, -3.02861887e-03, 1.06605617e-02, 8.86130054e-03, 2.87437346e-02},
   {-2.10559238e-02, -7.45786540e-03, 9.41562094e-03, 1.18061705e-02, 7.44123058e-03},
   {-1.71670355e-02, -1.99715234e-02, -2.45888587e-02, -1.24919601e-02, -3.25386375e-02},
   {-9.11301933e-03, -5.85699547e-03, -6.57396205e-03, -2.02881675e-02, -1.17988484e-02},
   { 9.62045882e-03, -7.59734260e-03, -4.52006189e-03, 2.06645858e-02, 1.76766124e-02},},

  {{ 3.63987759e-02, 5.26324920e-02, 5.09841330e-02, 4.65689562e-02, 4.33001891e-02},
   {-4.75569442e-03, 2.37369891e-02, 2.59352531e-02, -2.68128160e-02, -1.32984454e-02},
   {-1.51273338e-02, -3.15653384e-02, -6.42910525e-02, -7.49650821e-02, -6.12507062e-03},
   {-2.78185625e-02, -4.53602485e-02, -1.07550099e-02, 1.35915456e-02, 6.19132444e-02},
   {-3.27183343e-02, 2.33092550e-02, 5.15551120e-02, 2.85939537e-02, 2.46981215e-02},},},


 {{{ 1.34775601e-02, -3.35977413e-03, -2.12431084e-02, 1.90589286e-03, 9.76231135e-03},
   { 1.98298395e-02, 3.69700007e-02, 1.03530819e-02, 1.94327794e-02, -2.74537451e-04},
   { 1.68321412e-02, 2.30908804e-02, 2.59083491e-02, 1.42093543e-02, -3.80439572e-02},
   {-1.24304285e-02, 5.56195667e-03, 2.74549797e-02, 7.20847398e-03, -3.45313065e-02},
   {-1.40293809e-02, -1.69582723e-03, -5.54744154e-03, -5.60264029e-02, -3.32905203e-02},},

  {{-1.93065926e-02, -1.20591242e-02, 6.48470409e-03, -5.38461143e-03, 1.94147937e-02},
   { 5.93218580e-03, 1.48424236e-02, -1.67139359e-02, 1.62439258e-03, 8.75975750e-03},
   {-3.28141334e-03, -5.21195820e-03, -1.04401121e-02, 2.48325225e-02, 1.55855026e-02},
   { 4.68536047e-03, -3.69401835e-03, 1.62638668e-02, 8.51667777e-04, -5.03105670e-03},
   {-2.64743436e-02, 3.81908403e-03, -5.59238344e-03, 1.13667338e-03, -3.24048437e-02},},

  {{-2.19385289e-02, 7.50438729e-03, -1.41633591e-02, -1.66971758e-02, 7.04209786e-03},
   {-1.68001298e-02, -9.14219487e-03, 1.58761274e-02, 9.09107830e-03, 1.38302259e-02},
   { 1.65371154e-03, 3.14236473e-04, -6.86284620e-03, -1.13435090e-02, 3.32285394e-03},
   { 5.66400867e-03, -1.91439246e-03, -2.91135702e-02, 9.79350694e-03, 1.67869925e-02},
   { 3.19745555e-03, -2.35772561e-02, -1.69306323e-02, 2.09714454e-02, 2.57695504e-02},},

  {{ 2.26090517e-04, 3.46912444e-02, 2.36502588e-02, 9.14272293e-03, -3.17555782e-03},
   {-3.90692949e-02, 1.16891721e-02, 2.67521087e-02, 4.40207571e-02, 8.43489356e-03},
   {-1.67142544e-02, -1.76315531e-02, 2.83031873e-02, 1.62639637e-02, 5.37998136e-03},
   {-5.03270794e-03, 3.04527208e-02, 3.32579501e-02, -1.79726370e-02, -2.89132656e-03},
   {-1.60655081e-02, -6.11864729e-03, -2.95508485e-02, 3.42831481e-03, -3.26352268e-02},},

  {{-2.23570857e-02, -1.14984764e-02, 1.18418667e-03, -2.94068493e-02, -1.16050034e-03},
   {-7.07738986e-03, 1.33667514e-02, 7.91409239e-03, 1.43865142e-02, -7.15475110e-03},
   {-3.81323546e-02, 5.08175185e-03, 1.26303425e-02, -2.65402225e-04, 6.88922545e-03},
   {-2.44160090e-02, -3.35512450e-03, -6.73040375e-03, 2.41541676e-02, 5.64637780e-03},
   {-1.44725135e-02, -1.59539543e-02, 7.89635722e-03, 1.70228686e-02, -2.29504220e-02},},

  {{-1.25517072e-02, -5.83359646e-03, -3.11947912e-02, -1.69704091e-02, -4.47963690e-03},
   { 2.43937876e-02, 1.81577336e-02, 1.53550226e-02, 4.02513444e-02, 2.69878451e-02},
   {-9.03941412e-03, 1.07775005e-02, 1.82619113e-02, 6.31298274e-02, 1.38697717e-02},
   {-2.22881120e-02, -4.02113758e-02, 5.93068302e-02, 3.22010703e-02, -6.80033341e-02},
   {-7.87659213e-02, -3.69281955e-02, 3.06091402e-02, -6.65895790e-02, -9.28156227e-02},},},


 {{{-2.76619457e-02, 6.88298326e-03, 4.05755676e-02, -1.63577367e-02, 7.76587287e-03},
   {-3.26134451e-02, 2.11697239e-02, 4.83788624e-02, -1.56567823e-02, -1.73833072e-02},
   {-7.13401213e-02, 4.29370739e-02, 5.37367761e-02, -3.21802385e-02, 1.19429165e-02},
   {-5.66714294e-02, 3.16685513e-02, 2.36429311e-02, -2.15455610e-02, -1.99540723e-02},
   {-3.90586853e-02, 4.69230255e-03, 3.36452499e-02, 1.06168175e-02, -8.48777313e-03},},

  {{ 6.50385069e-03, -1.62280072e-02, 1.42488563e-02, 2.61540804e-03, 1.26811527e-02},
   {-1.12750055e-02, 1.47814918e-02, 2.97534885e-03, 5.69927599e-03, -2.56534363e-03},
   {-4.65840995e-02, -1.34110404e-02, -4.62916773e-03, -3.42618488e-02, -1.28775043e-02},
   {-9.11490992e-03, -6.74430700e-03, -6.03982667e-03, -4.98373853e-03, 1.18277373e-03},
   {-1.75721254e-02, -2.32624840e-02, 2.16613407e-03, 1.03240169e-03, 1.14857005e-02},},

  {{-1.09598292e-02, -7.05645978e-03, 1.71715096e-02, 5.50694950e-02, 5.45267481e-03},
   { 1.71392299e-02, -3.41881067e-03, 1.52539660e-03, 5.11011295e-02, 5.83929149e-03},
   { 2.31093876e-02, -8.65228754e-03, 2.02965979e-02, 5.69754131e-02, 5.50390966e-03},
   { 1.69918519e-02, 6.40283164e-04, 1.88066103e-02, 2.55335532e-02, 4.15945286e-03},
   { 3.26529220e-02, 1.01116188e-02, -1.39048109e-02, 4.46667103e-03, -1.10103318e-03},},

  {{-3.57453674e-02, -2.25340165e-02, 1.63132679e-02, 3.51776183e-03, -9.66843497e-03},
   {-1.62568223e-02, -1.91328302e-02, -1.43901305e-03, 2.15184242e-02, -5.71555505e-03},
   {-1.57000553e-02, -6.44973218e-02, 1.05255619e-02, 3.96484993e-02, 3.46362428e-03},
   {-1.68255717e-02, -3.69132981e-02, -8.15740786e-03, 3.88194323e-02, -1.88027732e-02},
   { 3.09145153e-02, -1.86860748e-02, 8.07793345e-04, 2.21310519e-02, 1.62882339e-02},},

  {{-2.41088513e-02, -1.10981092e-02, 1.50187481e-02, 1.26078120e-02, -2.54824236e-02},
   { 6.55336026e-03, -1.95506420e-02, 3.82772274e-03, 2.07102988e-02, -1.24739390e-02},
   {-1.57422721e-02, -4.66425009e-02, 2.52497047e-02, 3.26437280e-02, -8.81557725e-03},
   { 1.34710995e-02, -2.93710232e-02, 2.08407664e-03, 1.45027852e-02, 1.26447389e-03},
   { 1.47931930e-02, -2.27417629e-02, 4.31199186e-03, 1.63441449e-02, -1.52862142e-03},},

  {{-1.18202595e-02, 2.47857627e-02, 4.24872451e-02, -2.61486322e-02, -1.75115615e-02},
   {-5.56868389e-02, 7.13767204e-03, 7.29617104e-02, -4.43293303e-02, -5.16114384e-02},
   {-1.42386779e-01, -1.23829097e-02, 8.17825049e-02, -3.14379409e-02, -1.64007004e-02},
   {-1.29583701e-01, 2.21809708e-02, 6.77174628e-02, -1.67816542e-02, -9.09590686e-04},
   {-8.09315741e-02, -1.85798630e-02, 4.30822782e-02, 6.93899533e-03, -5.44232130e-03},},},


 {{{ 6.13799784e-03, 1.55922240e-02, -5.57203451e-03, -1.55748958e-02, 2.28862674e-03},
   { 6.01246767e-03, -5.12640411e-03, -3.46521661e-02, -2.11141929e-02, 2.53592758e-03},
   { 1.32168981e-03, -3.99456173e-02, -3.78756151e-02, 1.51070617e-02, 2.50868825e-03},
   { 3.48960198e-02, 1.54661257e-02, -1.74710713e-02, -7.78232375e-03, -1.56622846e-02},
   { 1.13996174e-02, 1.94589961e-02, -5.19645819e-03, 8.67933128e-03, -9.84519906e-03},},

  {{ 3.06190527e-03, -6.64814725e-04, -6.08116109e-03, -7.83435302e-04, 5.35644544e-03},
   {-2.67140716e-02, -5.37085021e-03, -6.09701406e-03, 3.36911948e-03, -1.29063763e-02},
   {-1.56699214e-02, 5.41833322e-03, -8.47053900e-03, -1.00453543e-02, 1.40127977e-02},
   {-3.34876450e-03, -8.28481466e-03, -1.24008106e-02, -9.92709305e-03, 5.89223811e-03},
   { 7.48109492e-03, 2.00882629e-02, 1.79169737e-02, -1.97601598e-03, -1.76337652e-03},},

  {{ 8.94548278e-03, 1.52157794e-04, 1.22459815e-03, 1.20619703e-02, 2.02409625e-02},
   { 3.16930236e-03, 5.28211473e-03, 2.90547404e-02, 5.72623080e-03, -6.22047111e-03},
   { 9.21075046e-03, 1.22304671e-02, 2.03904267e-02, -1.65429674e-02, -9.93987732e-03},
   {-1.88976806e-02, 8.16216040e-03, 9.19692498e-03, -1.76270902e-02, -5.01904171e-03},
   {-3.10951769e-02, -2.31363941e-02, -1.68082565e-02, -5.19533316e-03, -7.98804592e-03},},

  {{ 9.41839628e-03, -2.49060877e-02, -1.18539305e-02, 5.99831762e-03, -6.48007123e-03},
   {-1.82719380e-02, -1.95855014e-02, -2.45033558e-02, -3.76606248e-02, -2.20244061e-02},
   { 1.49228191e-02, 1.01495432e-02, -1.31155262e-02, -2.77872849e-02, -2.35025436e-02},
   { 3.82664055e-02, 4.11252752e-02, 4.27776091e-02, 4.72125830e-03, 7.73070939e-03},
   {-2.66602379e-03, 2.09415071e-02, 4.27914597e-02, 1.30325193e-02, 3.44611555e-02},},

  {{ 1.48557993e-02, -3.52022145e-03, -2.01271707e-03, 5.33721363e-03, -4.28112166e-04},
   {-2.53260136e-03, 1.51696661e-02, -1.29991453e-02, 1.67420274e-03, -7.48427911e-03},
   { 9.04511381e-03, 7.89604522e-03, 1.07339639e-02, -1.98286474e-02, -2.47448888e-02},
   {-4.80587361e-03, 3.84783442e-03, -4.00307169e-03, 3.32898344e-03, 1.12899980e-02},
   {-1.08773413e-03, 8.62951111e-03, 2.08770223e-02, -4.97704046e-03, 1.49798719e-02},},

  {{-2.18697488e-02, 3.67099862e-03, 3.94533994e-03, -9.45119187e-03, -1.05554722e-02},
   {-3.98219284e-03, -1.22849401e-02, -6.53592274e-02, -6.60170168e-02, -2.06556898e-02},
   { 2.49172598e-02, -8.33664648e-03, -9.38480720e-02, -2.47298107e-02, 2.04428378e-02},
   { 2.45082695e-02, 1.48587134e-02, 2.86842743e-03, 3.52130346e-02, 1.49310902e-02},
   { 2.07119379e-02, 4.48549874e-02, 5.15312925e-02, 4.70225513e-02, 9.13786422e-03},},},


 {{{ 1.69090312e-02, 3.24584506e-02, -1.12595866e-02, -3.38868573e-02, -7.23280071e-04},
   {-7.72433486e-06, 1.29614314e-02, -2.03245152e-02, -1.81605704e-02, 2.40382063e-03},
   { 2.09893845e-02, -5.73648280e-03, -3.71421576e-02, -5.27682528e-03, 4.06539912e-04},
   {-4.11957968e-03, -1.11741507e-02, -8.38091969e-03, -2.09913086e-02, 1.45909805e-02},
   {-6.27042772e-03, -2.59130634e-02, 8.67092423e-03, 4.82325035e-04, 2.41434015e-02},},

  {{-3.06927860e-02, 1.02964118e-02, 3.03910468e-02, -1.91797763e-02, -1.19501805e-04},
   { 1.04376804e-02, 1.67572275e-02, 1.21970810e-02, -1.98391844e-02, -3.16432049e-03},
   { 1.49383880e-02, -7.76797580e-03, 1.23947933e-02, -7.84248754e-04, -8.73181131e-03},
   {-3.89566366e-03, -4.65629855e-03, -1.12914983e-02, 2.56195967e-03, -1.47916060e-02},
   {-1.26253115e-03, 7.44460803e-03, 1.49073545e-02, 5.00210747e-03, -1.94790971e-03},},

  {{-1.09608388e-02, -1.19095324e-02, 4.45311517e-03, 9.01431125e-03, -2.70738429e-03},
   {-2.16196850e-02, 2.10145693e-02, 1.01344110e-02, -1.72264734e-03, -3.33546987e-03},
   {-1.95040666e-02, 2.09860075e-02, 2.10104091e-03, 4.84478706e-03, -5.85610978e-03},
   {-6.08324492e-03, 1.69689711e-02, 1.22941043e-02, -1.44089165e-03, 4.02264996e-03},
   {-8.02664086e-04, 1.42257633e-02, -8.11889861e-03, 1.30750127e-02, -7.12826615e-03},},

  {{ 1.90583523e-02, 1.80703041e-03, 1.68800540e-02, 1.00025330e-02, 2.89261411e-03},
   { 1.52093768e-02, -1.96593031e-02, 1.30634205e-02, -1.85682308e-02, -1.66453384e-02},
   { 8.53563659e-03, 1.43255042e-02, -6.17781363e-04, -8.39675870e-03, 1.89152395e-03},
   {-4.06746529e-02, 7.37164402e-03, -1.53975356e-02, -3.41473242e-05, -8.16913322e-03},
   { 9.33243486e-04, 1.49179967e-02, 1.60494249e-03, 1.48193138e-02, 5.88254258e-03},},

  {{ 3.59052652e-03, -4.33879765e-03, 1.76719334e-02, 6.32451894e-03, -2.08230596e-02},
   {-1.89613842e-03, 1.52814686e-02, 2.86260732e-02, -1.98085848e-02, 7.09568034e-04},
   { 1.24517251e-02, 3.49801243e-03, 1.01885973e-02, -6.13778969e-03, -1.66703966e-02},
   { 3.84954643e-03, 9.93857812e-03, -3.25259776e-03, 7.47814169e-03, -1.33383914e-03},
   {-1.36491638e-02, 9.58408695e-03, -2.93759070e-03, -1.42334215e-03, -8.27912882e-04},},

  {{-9.54904221e-03, 5.70594668e-02, 3.60397510e-02, -6.23257197e-02, -5.22994855e-03},
   { 5.57451211e-02, 4.64585088e-02, -4.35378551e-02, -3.80242057e-02, 1.01874014e-02},
   { 6.01926818e-02, 1.62427202e-02, -4.95493375e-02, -2.74772607e-02, -1.22951036e-02},
   { 1.62433349e-02, -3.16265486e-02, -1.54632768e-02, -1.29681323e-02, 1.00231236e-02},
   {-1.45764975e-02, -9.69583355e-03, 1.12679275e-02, -2.09846124e-02, 8.63059610e-03},},},


 {{{-1.39585948e-02, -3.00874729e-02, 6.04825020e-02, -9.25818458e-03, -1.36031415e-02},
   {-2.96274200e-02, -7.38783833e-03, 7.61803612e-02, -2.75794771e-02, 2.23962981e-02},
   {-1.42084854e-02, 1.10605666e-02, 2.17188857e-02, -3.14616226e-02, 5.50229428e-03},
   { 2.42673866e-02, 1.17514515e-02, -9.16884560e-03, 3.31569836e-03, 3.32684838e-03},
   { 1.79108907e-03, -2.16830000e-02, -3.60715315e-02, -3.29022808e-03, -4.67003614e-04},},

  {{-3.88230360e-03, 9.44909919e-03, -5.13916649e-03, 1.08114071e-02, 1.14969546e-02},
   { 3.06749018e-03, 1.10895839e-02, 1.01301372e-02, 7.38567067e-03, -8.72167945e-03},
   {-9.01758019e-03, 7.81980436e-03, 1.44927865e-02, -1.74249411e-02, -7.10846577e-03},
   { 3.49116735e-02, 1.44291669e-02, 1.76192559e-02, 7.12172454e-03, 7.92712066e-03},
   { 1.22864647e-02, -8.24964326e-03, -4.83358791e-03, 2.63755163e-03, -4.62662615e-03},},

  {{ 2.07390748e-02, 7.24566460e-04, -1.15084061e-02, 2.29174886e-02, 1.81160495e-02},
   { 4.37625824e-03, 1.95534490e-02, -2.04699375e-02, 4.30223569e-02, 3.68812047e-02},
   {-6.56323915e-04, -3.37749399e-04, -8.17957614e-03, 4.62947786e-02, 1.38408188e-02},
   {-2.06411611e-02, -2.21500155e-02, 1.11116348e-02, 2.33984329e-02, -2.11822484e-02},
   {-1.77234132e-02, -1.31403375e-02, -6.89503271e-03, -2.30440162e-02, -5.86703094e-03},},

  {{-7.59472325e-03, -1.39541076e-02, -1.46059822e-02, -2.63303122e-03, -7.17242341e-03},
   { 5.10296877e-03, 3.35715804e-03, -3.09206415e-02, 1.80391241e-02, 8.39263760e-03},
   { 6.77887117e-03, 1.61918215e-02, -1.18967909e-02, 7.89811928e-03, -3.18684918e-03},
   { 2.23114248e-02, -4.06182557e-03, -5.05325804e-03, -1.00351730e-02, -3.91169358e-03},
   {-9.77140572e-03, -1.69090962e-03, -3.01113678e-03, -1.62783056e-03, 3.74066923e-03},},

  {{-1.00388872e-02, -5.00773964e-03, 3.37542995e-04, 5.42411068e-03, 1.21494671e-02},
   { 6.52588299e-03, -9.14028846e-03, -5.01898723e-03, 2.23498866e-02, -1.54657159e-02},
   { 2.64822063e-03, -7.31543638e-03, -1.20149432e-02, 1.99297108e-02, -2.17225496e-03},
   { 1.97354220e-02, -4.39042313e-04, 5.66556910e-03, -1.76066197e-02, -1.15611330e-02},
   { 2.38440540e-02, 2.92839506e-03, -3.93797318e-03, -9.80147347e-03, -1.31916832e-02},},

  {{-2.81338450e-02, -5.51453419e-02, 6.47942126e-02, 9.06520337e-03, -2.98156328e-02},
   {-2.64456253e-02, -2.54034940e-02, 9.14837793e-02, -4.16155718e-02, -3.78375314e-02},
   {-2.42926590e-02, 3.16986442e-02, 6.49180263e-02, -5.99925332e-02, 1.18683130e-02},
   { 4.04275628e-03, 3.97752188e-02, 2.29818150e-02, -5.36779277e-02, 4.33908124e-03},
   { 3.91457863e-02, 1.26747945e-02, -5.87237701e-02, -2.10510101e-02, 2.81634904e-03}}}};
