float weightsConv1[6][1][5][5] = {{{{ 0.01189332, -0.00244649, 0.02664022, 0.04645637, 0.05471471},
   {-0.01605481, -0.02278261, 0.03580619, 0.11792258, 0.09706485},
   {-0.04959176, -0.04808839, 0.01805659, 0.16073638, 0.13790983},
   {-0.0596071, -0.06083356, 0.03337436, 0.14901759, 0.11203902},
   {-0.07028288, -0.03566865, 0.04365143, 0.09537844, 0.11081903},},},


 {{{ 0.00315793, -0.00695704, -0.01783591, 0.02729934, 0.02557152},
   {-0.00924778, 0.00908082, 0.03550152, 0.03859122, 0.04011666},
   { 0.03121919, 0.03542824, 0.06161683, 0.03268077, 0.02347045},
   { 0.00906403, 0.02852688, 0.01803826, 0.01532854, 0.00281642},
   {-0.00976486, -0.00390861, -0.01045571, -0.02164596, -0.02882989},},},


 {{{ 0.06750847, 0.05749184, -0.0486226, -0.07344749, -0.0477025},
   { 0.11827964, 0.08396649, -0.03907353, -0.09443045, -0.06583684},
   { 0.12411849, 0.08625061, -0.03454891, -0.11392811, -0.05030312},
   { 0.11908775, 0.09507928, -0.0461584, -0.095231, -0.04091821},
   { 0.10827794, 0.06505992, -0.00284572, -0.04637713, 0.00977219},},},


 {{{ 0.05592963, 0.03555366, -0.0238843, -0.08638404, -0.07344002},
   { 0.08688308, 0.10503792, -0.00813187, -0.0742018, -0.06135088},
   { 0.07506491, 0.11438194, 0.0534343, -0.0041628, -0.02453222},
   { 0.04804413, 0.07690161, 0.09011273, 0.07585916, 0.03714071},
   {-0.01873591, 0.03331103, 0.0740438, 0.07800284, 0.0498543},},},


 {{{ 0.05065823, 0.03722098, 0.00920581, -0.02628562, -0.02834502},
   { 0.05305657, 0.0972119, 0.036475, -0.01938817, -0.0179581},
   { 0.05824497, 0.11186897, 0.06936, -0.0016453, -0.03086219},
   { 0.02370778, 0.06762417, 0.04368377, -0.00791861, -0.0362829},
   {-0.01437275, 0.02407365, 0.04938601, -0.00384067, -0.01907438},},},


 {{{-0.01196707, -0.02764115, 0.00955337, 0.09806886, 0.10129198},
   {-0.03182513, 0.0047078, 0.08029107, 0.23202763, 0.19096518},
   { 0.00904822, 0.06758254, 0.22716945, 0.35671023, 0.20063159},
   { 0.04568767, 0.10459904, 0.23061529, 0.27580374, 0.1823993},
   {-0.02329829, 0.04083685, 0.09732271, 0.11349221, 0.07173854}}}};
