float weightsFC1[120][16][5][5] = {{{{-1.43762454e-02, -1.19359307e-02, -7.13476352e-03, 9.59923491e-03, 8.84048734e-03},
   { 1.21321948e-02, 1.65574090e-03, -4.86181024e-03, -4.26146993e-03, 8.09727644e-04},
   {-8.49731674e-04, 4.89847548e-03, -9.10769776e-03, -1.46745630e-02, 1.06392177e-02},
   { 1.25131253e-02, -9.56464326e-04, -1.60912592e-02, 1.36486273e-02, -2.35209037e-02},
   {-1.10243610e-03, -4.26207297e-03, -1.47259757e-02, 8.87198281e-03, -1.66201349e-02},},

  {{-7.80048128e-03, -4.96388087e-03, 1.96906365e-03, -4.20292560e-03, 1.32240709e-02},
   { 3.31012765e-03, 1.42845670e-02, -4.58953436e-03, -1.08435107e-02, 9.31189221e-04},
   { 2.40938901e-03, 1.08934927e-03, 1.61144079e-03, 1.67440139e-02, -2.94744708e-02},
   { 9.39706620e-03, 1.28873652e-02, -1.33624980e-02, 7.51757156e-03, -1.10589555e-02},
   { 2.37032827e-02, 1.32756615e-02, 2.01938121e-04, 1.69530604e-02, -7.53652910e-03},},

  {{ 7.27738161e-03, -1.67611204e-02, 1.83019647e-03, 2.95034866e-03, 1.42651889e-02},
   {-3.90429981e-03, -9.36006475e-03, 1.19509399e-02, 8.07585754e-03, 5.02338307e-03},
   {-1.45608298e-02, -1.97887104e-02, -2.16979645e-02, 1.27448868e-02, 2.58015119e-03},
   { 8.40744935e-03, 8.07297137e-03, -1.74728036e-02, 6.72801910e-03, 1.40510648e-02},
   { 2.16991152e-03, 2.65235081e-02, 1.77282933e-02, 2.24852506e-02, 2.87413760e-03},},

  {{ 8.52115545e-03, -1.48811773e-03, -4.59575513e-03, 4.81556141e-04, 1.28954574e-02},
   {-3.39843985e-03, -5.07916324e-04, -1.50791276e-02, 8.20939895e-03, 6.25799643e-03},
   { 6.77092094e-03, -1.37089530e-03, -7.78552843e-04, 5.15624695e-03, 1.64116104e-03},
   { 1.55350827e-02, -1.05005251e-02, -8.51058029e-03, -6.96771638e-03, 1.06569566e-02},
   {-4.50749183e-03, 4.28015395e-04, 4.06886358e-03, -1.56874508e-02, -9.91882943e-03},},

  {{-1.67678623e-03, 6.66432641e-03, -1.43659450e-02, -9.24691744e-03, -5.19202184e-03},
   { 7.77673209e-03, -1.94968248e-04, -3.06112668e-03, -3.02176178e-03, 4.31646081e-03},
   {-2.46772636e-03, 1.87673420e-02, -2.47375644e-03, -1.19139617e-02, 8.48856755e-03},
   { 1.61341820e-02, 8.55722115e-04, -1.55409388e-02, 2.53882725e-03, -1.16848191e-02},
   {-1.57314856e-02, -9.76396352e-03, 9.40148719e-03, -3.39249708e-03, -7.03902915e-03},},

  {{ 1.56884745e-03, -4.87931818e-03, -1.50417965e-02, 2.23808344e-02, 1.46080358e-02},
   { 1.87971490e-03, -2.35981937e-03, -1.15340191e-03, 2.84528622e-04, 4.00261162e-03},
   {-2.22724210e-03, -1.10788981e-03, 6.99582277e-04, -5.29612997e-04, -7.65146571e-04},
   { 6.38348807e-04, 1.67845411e-03, -7.99969491e-03, 7.70730106e-03, 6.01026602e-03},
   { 8.89335107e-03, -3.69936158e-03, 9.48391668e-03, -1.83764268e-02, 6.09728566e-04},},

  {{-7.49330502e-04, 9.65903979e-03, 1.44815417e-02, 1.45429317e-02, -8.13866907e-04},
   { 1.15400953e-02, -4.65228688e-03, -9.04136244e-03, 5.95847843e-03, 1.17373536e-03},
   { 1.94471180e-02, -6.20046072e-03, -8.77099950e-03, 5.71379252e-03, -1.75496973e-02},
   { 1.53742032e-02, 4.59288992e-03, -9.78108682e-03, -2.16125185e-03, 6.42784126e-03},
   { 1.02387927e-02, 5.07997815e-03, 7.65361171e-03, -8.81664921e-03, -1.23127014e-03},},

  {{ 4.54422086e-03, 1.74495354e-02, -1.30826961e-02, 1.61351189e-02, -4.49941354e-03},
   { 1.76807621e-03, -1.69114657e-02, -1.14251138e-03, 2.32828874e-02, 3.70204286e-03},
   {-1.68557949e-02, 8.99979565e-03, 6.31161965e-03, 8.38013832e-03, -1.00865001e-02},
   { 2.09627710e-02, -3.47141689e-03, -1.31021179e-02, 1.64308250e-02, -9.66621190e-03},
   {-8.88621062e-03, 6.63483399e-04, 9.61377565e-03, -1.42395822e-02, -3.09139420e-03},},

  {{-2.89149247e-02, 1.71643440e-02, -1.78514441e-04, -1.13057380e-03, -5.94963413e-03},
   {-2.68603358e-02, 1.49432104e-02, 9.37583949e-03, 4.11761925e-03, 7.70705938e-03},
   {-2.00449042e-02, 2.30892072e-03, -9.26228333e-03, -9.58236586e-03, -1.14826886e-02},
   { 3.45887989e-03, -9.78922378e-03, -2.51544686e-03, -3.46065441e-04, -1.91608001e-03},
   { 2.29282025e-02, -4.03641118e-03, -1.23740220e-02, 2.05023605e-02, 2.53422791e-03},},

  {{ 2.17984896e-02, 1.47753744e-03, 1.81883182e-02, 1.21310819e-02, 5.79125015e-03},
   {-7.34602043e-04, -1.65885314e-02, 6.75378181e-03, -7.80352298e-03, -1.11446138e-02},
   {-8.08937650e-04, 6.38017943e-03, -1.29568484e-02, -1.83371492e-02, -1.43864518e-02},
   {-1.61165977e-03, -2.64360365e-02, -8.75493232e-03, -3.84299899e-03, -6.67143846e-03},
   { 1.18629262e-02, 2.45397836e-02, -6.15372322e-03, -7.92068371e-04, -8.40451289e-03},},

  {{ 8.65785591e-03, 1.38085820e-02, -1.67297770e-03, 8.42683832e-04, 3.23977997e-03},
   { 1.39084237e-03, -1.64581579e-03, 3.62262176e-03, -3.22101009e-03, 9.21533350e-03},
   {-6.35515200e-03, 1.39921689e-02, -1.19668781e-04, -3.92751023e-03, 2.54065450e-02},
   { 4.09698021e-03, -9.27681976e-05, -1.11026876e-02, 8.70668516e-03, 4.41596285e-03},
   { 1.12884035e-02, 1.52591534e-03, -9.16003902e-03, 1.08496929e-02, 1.11352028e-02},},

  {{-2.27602925e-02, -5.77355444e-04, 6.88691973e-04, -6.73736539e-03, 6.63510477e-03},
   {-1.78988092e-02, -5.81431948e-03, 3.03520588e-03, -1.27344421e-04, 2.19133846e-03},
   {-3.86770605e-03, 7.68137164e-03, -7.15942308e-03, -7.30592245e-03, 2.59791198e-03},
   { 5.85429883e-03, -8.51634517e-03, 8.32344498e-03, -8.55934713e-03, 6.26780652e-03},
   { 1.19869737e-02, -1.16165830e-02, 1.90083741e-03, 2.52679165e-04, 1.40353562e-02},},

  {{-5.79838362e-03, 5.22413116e-04, 2.55167251e-03, 2.10881117e-03, 1.04875444e-02},
   {-6.69478253e-03, 2.87740817e-03, 1.59711447e-02, 7.70839304e-03, -4.64225188e-03},
   {-4.47242102e-03, -1.05978847e-02, 3.33207403e-03, -1.24463497e-03, 3.54403630e-03},
   { 3.56441853e-03, -1.83932092e-02, 5.64964861e-03, 1.04503270e-04, -8.11425969e-03},
   { 1.07534863e-02, 1.18574733e-02, -2.63423077e-03, 7.61198392e-03, -2.80744210e-02},},

  {{ 4.84068412e-03, 8.81476980e-03, -1.11974385e-02, -1.74451177e-03, 6.47326699e-03},
   { 9.70027130e-03, 1.29373204e-02, -1.11691384e-02, -5.62086049e-03, -1.35761301e-03},
   { 6.31574541e-03, 1.27339168e-02, 2.68327491e-03, -1.64531600e-02, -5.95892314e-03},
   { 1.19921137e-02, 6.49672560e-03, 2.87192017e-02, 7.97302183e-03, -1.84592120e-02},
   { 9.77273565e-03, -7.04969338e-04, -1.45133305e-03, -8.88652634e-03, -4.09809407e-03},},

  {{-1.48896698e-03, 3.91338626e-03, -1.55607359e-02, -5.31486189e-03, -1.63496248e-02},
   { 6.56743115e-03, 9.88977146e-04, -2.25234940e-03, -6.69688592e-03, 1.38702488e-03},
   {-6.38062367e-03, 1.79980472e-02, -3.89524852e-04, -5.15253283e-03, 4.93848836e-03},
   { 1.12369424e-03, -1.76845193e-02, -1.63553003e-02, -3.48357484e-03, -5.55331993e-04},
   { 1.20661939e-02, -3.91287124e-03, -1.40432233e-03, -2.72184261e-03, 4.85059666e-03},},

  {{-7.49633834e-03, 4.13456699e-03, -1.33856768e-02, 3.89174419e-03, -8.57628789e-03},
   { 2.51642521e-03, -3.42547568e-03, -1.47965434e-03, -4.57157195e-03, -7.11876806e-03},
   {-3.99185251e-03, -2.23318581e-02, -1.88462455e-02, -1.93976332e-02, 1.31271044e-02},
   { 5.15556568e-03, 1.27615593e-02, 3.67801753e-03, 7.35513959e-03, 5.86595526e-03},
   { 8.94168206e-03, 1.22677712e-02, 1.43878488e-03, 8.10344797e-03, -1.13415429e-02},},},


 {{{ 7.68218562e-03, -7.67017202e-03, 9.21738043e-04, -1.52017493e-02, 4.59857145e-03},
   { 3.96813825e-03, -9.55662690e-03, 1.05144046e-02, -2.88308579e-02, 9.60468408e-03},
   { 4.37193504e-03, 3.08249658e-03, -6.57179486e-03, -1.18233720e-02, 4.86491248e-03},
   {-8.07603635e-03, 1.32683301e-02, -7.51716271e-03, 3.82761192e-03, 8.21256824e-03},
   {-1.94192547e-02, -1.38324741e-02, -5.17748296e-03, 1.16326278e-02, 1.89371058e-03},},

  {{-3.25126015e-03, -4.62929904e-03, -5.38129034e-03, 6.33167010e-03, -5.28842397e-03},
   { 1.95363406e-02, -7.21979933e-03, -3.02715972e-03, 5.19410567e-03, -4.67677880e-03},
   {-7.09699094e-03, 7.71477865e-03, 1.21474406e-02, 2.88136713e-02, 3.53600201e-03},
   {-1.00876614e-02, -2.00589057e-02, -4.91013611e-03, 9.97861009e-03, 9.13267722e-04},
   {-9.46315005e-03, -1.65857486e-02, -4.00242209e-03, 1.05743785e-03, -8.59787862e-04},},

  {{ 2.80077639e-03, -4.62946296e-03, 8.52371380e-03, 1.19109135e-02, -6.35229168e-04},
   {-1.14594605e-02, -2.77955476e-02, -8.16345273e-04, -1.80623010e-02, -1.70739796e-02},
   {-1.99409109e-02, -8.42286926e-03, 4.02094983e-03, -2.07941886e-03, 6.31827209e-03},
   {-8.99978355e-03, 1.65232748e-03, 2.94949324e-03, 4.85680904e-03, 1.61385667e-02},
   {-7.29341945e-03, -1.44627700e-02, -9.74118523e-03, 1.09727327e-02, 9.88272578e-03},},

  {{-1.89642143e-02, 9.73882619e-03, -1.67299751e-02, 3.45729874e-03, 2.71281181e-03},
   { 2.05900799e-03, -6.43609883e-03, 8.12487677e-03, 5.26051549e-03, -5.39429719e-03},
   { 5.75692859e-04, 1.37479920e-02, -6.62063435e-03, 1.50990011e-02, 1.93811692e-02},
   {-1.94079621e-04, -1.19784791e-02, -1.44222444e-02, 1.12847993e-02, 1.47471903e-02},
   {-9.76785924e-03, 8.17414280e-03, 4.86943079e-03, -5.06106997e-03, 2.77749961e-03},},

  {{-1.89833306e-02, 3.98260181e-06, -2.03065649e-02, -8.65751505e-03, 1.67280342e-02},
   { 1.34362117e-03, -1.27161164e-02, -2.05558687e-02, -4.59976913e-03, 2.50163618e-02},
   { 3.89282504e-04, -2.85255956e-03, -7.40492810e-03, -2.10922100e-02, 9.88934841e-03},
   {-5.74691920e-04, 4.53157723e-03, -1.01256417e-02, 1.37399213e-04, -1.51222164e-03},
   {-1.84134357e-02, 1.59000531e-02, -5.29289758e-03, -9.20985360e-03, -1.84434615e-02},},

  {{ 1.42630013e-02, 1.21380370e-02, -1.90194082e-02, -6.72211172e-04, -7.79745635e-03},
   {-4.19203984e-03, 1.91890430e-02, 3.87925003e-03, -4.92619164e-03, -1.04640331e-02},
   { 7.35087646e-03, 3.93924490e-03, 1.23383887e-02, 1.42030660e-02, 1.56998485e-02},
   {-2.42270995e-02, 2.57100561e-03, 3.41453962e-03, 1.15394276e-02, 2.36632898e-02},
   { 6.32482907e-03, -9.74354055e-03, 1.82834379e-02, 5.51521266e-03, -1.18584931e-03},},

  {{-8.67033814e-05, -1.72247272e-03, 5.95548144e-03, 8.56418163e-03, 8.24804325e-03},
   {-1.07124504e-02, 5.25140949e-03, 2.33065011e-03, 5.87060861e-03, 1.00361544e-03},
   { 7.13177165e-03, 5.59230661e-03, -1.21858139e-02, -4.48104925e-03, -1.41177385e-04},
   {-2.14610202e-03, -4.74888505e-03, 1.42285358e-02, 1.07545946e-02, 2.28234176e-02},
   {-1.39557719e-02, -1.32996608e-02, -4.17234236e-03, 8.31332058e-03, -1.40318004e-02},},

  {{ 5.15878992e-03, 5.24112875e-05, 2.20744452e-03, 4.12030937e-03, -1.39170399e-04},
   {-2.01704726e-03, 3.50355264e-03, 1.58515591e-02, -1.48405572e-02, -5.04253898e-04},
   { 1.00574153e-03, -4.23443280e-02, 1.11584291e-02, 8.65990762e-03, 2.64670770e-03},
   {-1.21444082e-02, 3.28858313e-03, -4.68761241e-03, -1.61283184e-02, 1.12488242e-02},
   {-1.24843949e-02, 5.59285609e-03, -4.61160112e-03, 7.21704308e-03, 5.48197349e-05},},

  {{-1.48560554e-02, 1.83170103e-03, 5.03063062e-03, 3.72630358e-03, 5.37721766e-03},
   {-5.05239470e-04, -1.11089358e-02, 2.85118027e-03, -9.29452106e-03, 9.02209710e-03},
   {-2.07002694e-03, -8.28105304e-03, -6.67071110e-03, 9.89414565e-03, -9.19528713e-04},
   { 3.71278700e-04, -4.64067142e-03, -5.97153907e-04, -2.17751553e-03, -2.51281075e-03},
   { 1.34461997e-02, 4.73277271e-03, 6.11816812e-03, 1.25965420e-02, 8.65257066e-03},},

  {{-3.75622488e-03, 6.84954645e-03, -7.15328706e-03, 6.30814675e-03, 5.22569113e-04},
   { 1.06531440e-03, -5.06495219e-03, 3.59491655e-03, -1.30426632e-02, 7.31367711e-03},
   { 8.29569646e-04, 6.47126464e-03, -4.38228203e-03, -6.50876260e-04, -2.00100499e-03},
   {-2.12352797e-02, 3.79238743e-03, 3.32952919e-03, 1.15292752e-02, 2.52025109e-03},
   {-6.94860052e-03, -3.42353014e-03, -1.10085041e-03, -2.26938305e-03, 4.34345653e-04},},

  {{-1.47852730e-02, 8.38450680e-04, -2.25767703e-03, 4.93573723e-03, -2.82325735e-03},
   { 3.90558643e-03, -1.22107537e-02, -6.94563962e-04, 5.64097241e-03, 9.81977955e-03},
   { 1.02806673e-03, -2.01131520e-03, -4.75439662e-03, 2.06612796e-03, 2.36480515e-02},
   { 1.99235715e-02, 3.42368800e-03, 1.30861448e-02, 1.69514362e-02, -1.73209086e-02},
   { 1.12766298e-02, -1.02953566e-03, 1.84780192e-02, -2.55647907e-03, 6.01244252e-03},},

  {{-3.39303608e-03, 9.13072098e-03, 9.52953752e-03, 3.00260168e-03, 4.12871968e-03},
   {-9.85592231e-03, 1.91842660e-03, -8.01778212e-03, -1.45516749e-02, -1.72689538e-02},
   { 8.08631536e-04, 1.51579129e-02, -1.70145016e-02, -4.25452739e-03, -1.14282258e-02},
   {-4.78938827e-03, 1.26610380e-02, -1.68921158e-03, -1.01419538e-03, 8.78611393e-03},
   {-3.21877189e-03, -6.22319337e-03, 8.12412892e-03, -1.79067976e-03, 6.51402446e-03},},

  {{ 4.22710367e-03, -2.35340334e-02, -1.40108159e-02, -7.83107057e-03, 9.52377822e-03},
   { 9.55876522e-03, 4.03039996e-03, -2.54936609e-02, 5.97435934e-03, 1.08617209e-02},
   {-6.34541910e-04, 1.48096762e-03, -2.54601496e-03, -8.73397943e-03, 6.82985736e-03},
   {-1.28873065e-02, -2.71345547e-04, -3.12982909e-02, -7.66079361e-03, 1.30563155e-02},
   {-1.39022600e-02, -1.66058950e-02, 1.79292541e-03, -1.95724191e-03, 3.73800867e-03},},

  {{-1.37766334e-03, -1.31517248e-02, -3.76884663e-03, -1.85686769e-03, 6.86576450e-03},
   { 4.22586920e-03, 1.12250978e-02, 3.72344488e-03, 7.21669151e-03, 1.30929193e-02},
   { 3.79321515e-03, 5.77449286e-03, 1.36864441e-03, -2.37064087e-03, 8.57426040e-03},
   {-8.52594897e-03, 4.83385194e-03, -5.13180811e-03, -1.37890419e-02, 2.95973546e-03},
   { 1.08258333e-02, 7.34602660e-03, -9.72945523e-03, -4.23441594e-03, 4.53021144e-03},},

  {{ 8.06269527e-04, 1.22544905e-02, 6.73977425e-03, -1.68039072e-02, -1.52010703e-03},
   { 8.27331841e-03, -6.26514899e-03, 1.01541227e-03, -2.61876872e-03, -1.63568766e-03},
   {-8.97623226e-03, -1.19389873e-02, -2.10683653e-03, -6.77993894e-03, 6.84853131e-03},
   {-2.41112825e-03, 8.24077614e-03, -7.60170491e-03, -1.12393321e-02, 9.83806979e-03},
   {-1.23014050e-02, -8.36767780e-04, -4.33857925e-03, -1.75911617e-02, -1.03506567e-02},},

  {{-1.85605965e-03, 7.12493667e-03, -2.72367727e-02, 7.72705907e-03, -6.10732334e-03},
   {-1.82047044e-03, 1.22631260e-03, -9.77995154e-03, 3.33529757e-03, -1.74740423e-02},
   {-5.03034750e-03, 9.43457335e-03, 1.35124521e-02, 3.34346853e-03, 5.72741870e-03},
   { 8.64346104e-04, 1.65254995e-03, -1.52610615e-02, 2.80645140e-03, 8.13964382e-03},
   { 6.65012747e-03, 3.67914257e-03, -2.97910627e-03, -5.30860294e-03, 8.99050944e-03},},},


 {{{ 2.64049862e-02, 4.92269173e-02, -2.28479803e-02, 8.12871009e-03, -9.38933517e-04},
   { 3.83745357e-02, -8.02728906e-03, -1.10701220e-02, 1.58998370e-02, -1.68469045e-02},
   { 2.37743631e-02, -7.57313240e-03, 1.33234346e-02, 1.61239468e-02, -8.55152775e-03},
   { 2.39742640e-02, 2.09771954e-02, 9.60000977e-03, -1.81472115e-03, -1.96788311e-02},
   {-6.49519451e-03, 9.94357467e-03, 6.32205466e-03, 2.80393241e-03, 5.46457339e-03},},

  {{-5.74005395e-03, 3.70523036e-02, 2.07328573e-02, -1.50967273e-03, -2.92242728e-02},
   { 2.67158076e-02, 3.24967876e-02, 1.33418432e-02, -8.43169913e-03, -6.94698188e-03},
   { 4.07404359e-03, 2.09410246e-02, 3.85263609e-03, 1.02620022e-02, -7.41312513e-04},
   {-1.71594471e-02, 1.29688364e-02, -7.88105745e-03, -1.01121692e-02, 2.80897208e-02},
   {-1.43716997e-02, -1.51451817e-02, 2.30952110e-02, 6.39485195e-03, 1.73467305e-02},},

  {{-1.99505151e-03, -4.43276912e-02, -2.85809953e-02, -3.09022460e-02, 8.13390687e-03},
   {-3.31928511e-03, -1.92022789e-02, -3.51914242e-02, -5.62933320e-03, -1.11534109e-03},
   {-3.05859074e-02, -8.50458629e-03, 1.48622356e-02, 2.36723553e-02, -8.59813706e-04},
   { 1.11703332e-04, 3.56385671e-02, 2.12774780e-02, -1.55780362e-02, -9.13657434e-03},
   { 1.24333624e-03, -1.62213091e-02, -2.53128614e-02, -1.37419812e-02, -2.93202084e-02},},

  {{-2.14352459e-03, -1.48989372e-02, -2.38434914e-02, -1.12183867e-02, 2.09172182e-02},
   { 4.46350034e-03, -3.26328725e-02, -2.55931653e-02, 2.49747350e-03, -9.89071559e-03},
   { 2.94687841e-02, -1.93439201e-02, -4.78402991e-03, 8.93390551e-03, -1.45806149e-02},
   { 2.06802674e-02, 9.54984874e-03, -1.67121794e-02, -1.30134495e-02, -2.42762733e-03},
   { 1.12850945e-02, -2.72872997e-03, -7.96744134e-03, -1.50498338e-02, -3.99372599e-04},},

  {{-2.07852777e-02, -8.02215375e-03, 1.11310072e-02, 7.22992001e-03, -1.12791779e-02},
   {-1.54293329e-02, 4.04135548e-02, 3.31043452e-02, 2.75015598e-03, -1.09976176e-02},
   { 1.39555978e-02, 6.83632074e-03, 3.18251140e-02, 2.43372377e-03, -1.06661431e-02},
   { 1.25924731e-02, 2.75445916e-02, 2.99791980e-04, -9.75468475e-03, -1.02218436e-02},
   {-2.96676103e-02, -3.54930162e-02, 1.28340051e-02, 2.24337587e-03, -8.37980304e-03},},

  {{ 9.92982462e-03, -2.16803793e-02, -1.03657497e-02, -1.14866365e-02, -1.45467194e-02},
   { 1.07997013e-02, -9.89938993e-03, -1.24548413e-02, 1.64634977e-02, -2.14828402e-02},
   { 9.52077564e-03, -2.82407161e-02, -1.03776960e-03, -6.28559245e-03, -1.63809471e-02},
   { 8.88182502e-03, 1.08635472e-02, -1.79806948e-02, 6.14377111e-03, 1.43313371e-02},
   {-1.47869391e-02, 1.15730995e-02, 4.13632765e-03, 1.42946304e-03, 2.35044118e-03},},

  {{ 5.51156641e-04, 4.43626754e-03, 1.63117461e-02, 1.70115456e-02, -9.54152085e-03},
   {-1.60554703e-02, -1.29112424e-02, 6.81443198e-04, -1.95643472e-04, 1.87748950e-02},
   {-5.00388490e-03, -2.71129962e-02, 3.00652776e-02, 2.16664523e-02, 1.81484539e-02},
   {-1.02087762e-02, -7.09352223e-03, 6.56744465e-03, 8.84857029e-03, 7.86478445e-03},
   {-1.37186041e-02, -4.20258678e-02, -2.00492907e-02, 1.61677003e-02, 4.97131795e-03},},

  {{ 6.73547853e-03, 3.60279414e-03, -1.47998184e-02, -3.14437263e-02, -1.24972146e-02},
   { 1.46240154e-02, 2.56180041e-03, 1.50642060e-02, -3.18290229e-04, -3.93322157e-03},
   { 3.03695034e-02, 6.51435703e-02, -5.51049178e-03, 7.43819913e-03, -7.71961827e-03},
   { 3.33036855e-02, -1.33682322e-02, -1.60641018e-02, 4.63851541e-03, 2.31005196e-02},
   {-1.24378912e-02, -2.55029015e-02, -3.40867718e-03, 2.92446092e-03, -1.62498280e-03},},

  {{ 8.78029410e-03, -2.06438322e-02, -2.49017626e-02, -6.92426506e-03, -6.93933060e-03},
   {-1.04558961e-02, -9.73139482e-04, -4.48354846e-03, -8.95439554e-03, 1.09622376e-02},
   { 8.44886154e-03, 1.17395213e-02, -1.59169286e-02, 3.04878294e-03, 5.54197002e-03},
   { 1.84913278e-02, -1.04064308e-02, -1.90368276e-02, -6.92436378e-03, 9.32423957e-03},
   { 7.58622587e-03, -1.93108600e-02, 2.70190509e-03, 2.18834914e-03, 2.74044485e-03},},

  {{-1.55983604e-02, 6.58821454e-03, -3.89154418e-04, 1.45538803e-02, 1.09929405e-02},
   {-6.10482367e-03, 1.23764705e-02, 2.54408475e-02, 9.06615797e-03, -1.59628335e-02},
   { 1.45192491e-02, -4.19488596e-03, 1.64569467e-02, 1.56872887e-02, 2.00224691e-04},
   {-1.08814158e-03, -1.99455526e-02, -1.63938645e-02, 3.76154073e-02, 5.07340813e-03},
   {-1.59566551e-02, -2.21993811e-02, -1.48497410e-02, 1.33455107e-02, -7.09407590e-03},},

  {{-9.62893106e-03, -8.60565156e-03, -3.84585536e-03, 3.10758315e-03, -7.15422956e-03},
   {-7.84375530e-04, -7.10908696e-03, -1.84225310e-02, -4.96787205e-03, 5.20564569e-03},
   {-1.00434199e-02, -4.47762012e-03, 1.00948205e-02, 1.84263978e-02, 1.07587175e-02},
   {-1.37061002e-02, 1.68993548e-02, 6.24261331e-04, -1.10023348e-02, -1.83172375e-02},
   { 5.65170636e-03, 2.63562035e-02, -5.89457620e-03, -1.79034509e-02, -1.75702628e-02},},

  {{-1.72759108e-02, -2.24341871e-03, -6.87607937e-03, 7.84264226e-03, 8.58883467e-03},
   {-1.89456251e-02, -9.56484489e-03, -9.57114738e-04, 9.35125630e-03, -1.51195303e-02},
   { 1.85532738e-02, 4.54757782e-03, -5.54886879e-03, 6.77934708e-03, 4.08724695e-03},
   { 2.54116114e-02, -6.58534328e-03, -2.59174164e-02, 1.53109338e-02, 3.12798796e-03},
   {-7.19896564e-03, -1.72610525e-02, -1.12867607e-02, -2.74833627e-02, -1.36535941e-02},},

  {{-2.34282911e-02, 1.06513463e-02, 2.81591490e-02, 2.29474120e-02, -7.80514441e-03},
   {-3.01310830e-02, 1.43744489e-02, 3.84438373e-02, 4.06704983e-03, 6.40712120e-03},
   { 2.66538188e-02, -1.39479674e-02, 1.01409061e-02, 1.66357569e-02, 3.87345441e-02},
   { 5.90139022e-03, -2.01725382e-02, -2.75305170e-03, 6.43584505e-03, 2.24422384e-02},
   {-7.85833877e-03, -3.80308405e-02, -6.06009737e-04, 2.00082883e-02, 1.68913323e-03},},

  {{-1.38872648e-02, -2.44398378e-02, -3.01835649e-02, -2.51399484e-02, -2.29451563e-02},
   {-1.60968676e-02, -2.14709109e-03, -3.38594057e-02, -1.53065445e-02, 6.51322352e-03},
   { 2.35404633e-02, 3.08534130e-02, -1.71986707e-02, 3.86604748e-04, -8.46528448e-03},
   {-2.07401766e-03, 1.30779680e-03, -2.03605723e-02, -4.55026589e-02, 3.58275697e-03},
   { 6.71552261e-04, -8.63325316e-03, -2.53442563e-02, 1.10912137e-02, 2.69897524e-02},},

  {{ 2.14094333e-02, -3.28060100e-03, -8.60814750e-03, -2.17609070e-02, 2.65302067e-03},
   { 1.49637302e-02, 1.90936401e-03, 6.03657681e-03, -2.20874930e-03, -1.63320894e-03},
   { 3.83740349e-04, -1.23361070e-02, -2.95170280e-03, 1.16378162e-03, 1.44264707e-02},
   { 1.03640938e-02, 1.22963090e-03, -1.90313999e-02, 4.51624859e-03, -2.06160522e-03},
   {-8.16285796e-03, 1.72132403e-02, 8.20474979e-03, -1.14766890e-02, 1.07736140e-02},},

  {{-3.59785021e-03, 1.03112124e-03, 1.10577913e-02, 1.39208138e-03, -1.01384083e-02},
   {-6.61151344e-03, 2.87208566e-03, -5.81470877e-03, 7.13941036e-03, -2.90746009e-03},
   { 2.94537582e-02, 1.88833680e-02, 2.66062263e-02, 1.78017351e-03, -1.06612016e-02},
   { 2.49824263e-02, -8.71669222e-03, 6.27600262e-03, 6.85907342e-03, -1.20819081e-02},
   { 1.92663949e-02, -1.08584641e-02, -1.71081219e-02, 3.77102545e-03, -3.31111718e-03},},},


 {{{-3.07787512e-03, -6.05386822e-03, -2.60426139e-04, 2.20828899e-03, 7.67936045e-03},
   {-4.08442086e-03, -2.82780454e-03, -7.81159801e-03, 4.24121227e-03, -3.55712418e-03},
   {-6.51734276e-03, 8.87051690e-03, -2.15832219e-02, 1.58723129e-03, 3.29930522e-03},
   { 1.50284814e-02, 1.61595049e-03, 8.13584309e-03, 1.83413492e-03, 2.04257667e-02},
   { 1.90264871e-03, -1.39922546e-02, 9.02565941e-03, -1.75875239e-02, 5.65503910e-03},},

  {{ 2.14067474e-03, -1.14708515e-02, 1.88742636e-03, 7.19888136e-03, -1.18926438e-02},
   { 2.91529391e-03, 5.26548829e-03, -3.04012233e-03, 2.85046687e-03, 3.64889833e-03},
   {-6.91475160e-03, 7.97105767e-03, 9.41100903e-03, -1.18226884e-02, -8.16526357e-03},
   {-1.89691633e-02, -6.34547323e-03, -1.72992516e-02, 1.22008696e-02, -1.86615239e-03},
   {-3.26423929e-03, 8.93151574e-03, -1.31760491e-03, -9.98720434e-03, -1.19801238e-02},},

  {{ 8.61403765e-04, 3.02167865e-03, 3.61043582e-04, -3.83575610e-03, 1.01726921e-03},
   {-1.54499887e-02, 2.86772382e-03, 8.12327396e-03, -1.37423091e-02, 9.20485705e-03},
   {-2.55936827e-03, -1.27281400e-03, -4.72561260e-05, 1.94585812e-03, 8.78578052e-04},
   {-1.31704821e-03, -6.18459331e-03, 8.87350086e-03, 9.00028925e-03, -9.83964931e-03},
   {-1.84244327e-02, -6.52101531e-04, 8.98837671e-03, 1.08389705e-02, -7.25778705e-03},},

  {{-5.06855594e-03, 3.88569874e-03, 1.01043312e-02, -2.32502632e-03, 3.03394999e-03},
   {-2.44325725e-04, -6.95446646e-03, 2.96822260e-03, 4.72007412e-03, 2.27925405e-02},
   {-3.39098368e-03, -1.03111910e-02, -1.55593660e-02, 4.80237463e-03, 3.37461103e-03},
   {-9.02014319e-03, 3.53209616e-04, 1.03383395e-03, -1.59711335e-02, 2.14936566e-02},
   { 4.57486650e-03, -1.87966265e-02, -7.51562929e-03, -4.21887264e-03, 4.48410446e-03},},

  {{ 2.12912471e-03, -7.84250628e-03, -1.35548683e-02, 1.22364257e-02, -1.26127843e-02},
   {-1.32034498e-03, 5.31445956e-03, 1.09009910e-02, 4.97682299e-03, 8.93597491e-03},
   { 1.20178191e-02, -1.44430203e-03, 4.49805148e-03, 2.16550007e-03, 5.49395662e-03},
   {-2.27591339e-02, -6.42851554e-03, 8.58040247e-03, -6.56634662e-03, -5.27438824e-04},
   {-2.25039475e-04, -6.59782905e-03, -3.06745106e-03, 1.67155208e-03, 3.76687455e-03},},

  {{ 1.62544083e-02, -1.33193312e-02, 8.29396956e-03, 4.57808748e-03, 3.52524500e-03},
   {-8.07536114e-03, 2.20012013e-03, 8.28542002e-03, 1.49768256e-02, -1.62742678e-02},
   {-5.67758596e-03, -1.11780558e-02, -1.53194275e-03, -2.16399841e-02, 1.24811158e-02},
   {-2.23552696e-02, 1.85997458e-03, -1.46893440e-02, -7.96822656e-04, 1.33269245e-03},
   { 4.81085666e-03, -1.36691658e-02, 2.06415099e-03, -6.29532384e-03, 1.27810007e-02},},

  {{-6.90593803e-03, -1.34575916e-02, -1.13027403e-03, -2.66610784e-03, 1.41037991e-02},
   { 8.17672722e-03, -5.43301599e-03, -9.84110218e-03, -8.22167937e-03, -1.82607081e-02},
   {-2.08319252e-04, 6.44719228e-03, 9.89932846e-03, 1.20297996e-02, -1.11388555e-02},
   {-3.62156960e-03, 1.24161439e-02, 4.73066000e-03, -5.48492512e-03, 4.78464505e-03},
   { 1.26872612e-02, 2.91499845e-03, -4.55163745e-03, 1.09832152e-03, 2.17177602e-03},},

  {{ 6.41478645e-03, -6.72336295e-03, -2.67557125e-03, 6.20586378e-03, -2.12966860e-03},
   { 1.66732520e-02, 9.64660384e-03, 2.50972994e-03, -3.31644295e-03, 1.74277485e-03},
   { 1.53764500e-03, -3.93833686e-03, 3.58111202e-03, 6.62748469e-03, -1.24212941e-02},
   {-3.71790957e-03, 9.22280771e-04, 1.87249354e-03, 7.60260550e-03, -2.79893487e-04},
   { 7.12561281e-03, 4.36602952e-03, 1.18620566e-03, 7.06258602e-03, -1.16634937e-02},},

  {{-1.08870631e-03, -2.00706255e-03, 4.19685198e-03, 1.15269022e-02, 5.83257200e-03},
   {-3.28668579e-03, 1.75429434e-02, 1.93646085e-03, -4.32001706e-03, 3.70080210e-03},
   {-1.09269470e-02, 8.05286039e-03, 1.02534732e-02, 1.46309212e-02, -1.57504324e-02},
   {-7.52112688e-03, -1.44395307e-02, 1.05545227e-03, -5.38950879e-03, -4.17889887e-03},
   { 4.44069877e-03, 2.20485404e-03, 4.82415454e-03, 3.17284232e-03, 7.49496336e-04},},

  {{ 2.11889413e-03, 3.11923446e-03, -1.01235118e-02, 4.43694787e-03, -6.46094047e-03},
   { 5.82169835e-03, -5.02139935e-03, -3.96070164e-03, -2.77535222e-03, -8.31178855e-03},
   { 9.14027449e-03, 2.38679536e-02, -7.09110172e-03, -1.80768725e-02, -1.06505668e-02},
   {-3.90328793e-03, -1.18731055e-02, -2.34367568e-02, 1.02839665e-04, -2.62968172e-03},
   {-1.17923338e-02, 1.33051146e-02, -1.15970178e-02, -1.03662629e-02, 2.03742944e-02},},

  {{ 1.36245042e-02, -2.52805813e-03, 7.22626504e-03, -7.86263123e-03, 4.00251662e-03},
   { 4.89752740e-03, 9.87694040e-03, 1.29399048e-02, -9.84726474e-03, 6.92545576e-03},
   {-1.21939909e-02, -5.12709189e-03, -2.04984471e-03, -6.98428648e-03, 2.18810560e-03},
   {-6.71483530e-03, -1.10580334e-02, -4.64617275e-03, 3.18186060e-02, -1.86359100e-02},
   {-2.20260024e-03, 9.91691719e-04, 3.50335729e-03, -4.09253314e-03, 4.42770822e-03},},

  {{-3.87683464e-03, -8.60557519e-03, 7.31847715e-03, -1.93982478e-02, -1.70757193e-02},
   { 4.18388611e-03, -4.97569516e-03, -5.19069936e-03, 1.42673682e-02, -2.27089804e-02},
   {-5.57834050e-03, -1.91488396e-02, 7.03817094e-03, 4.12222650e-03, -4.93818941e-03},
   { 1.82539765e-02, 3.42253642e-03, 6.05069799e-03, -6.91372901e-03, 5.12451399e-03},
   {-8.76567420e-03, -4.29341896e-03, 5.80192282e-05, -3.60325212e-03, 2.39407585e-04},},

  {{-1.84432641e-02, 7.95643660e-04, -9.49653517e-03, -3.75526538e-03, 1.06978640e-02},
   {-1.74641365e-03, -2.24584318e-03, 2.16282438e-03, -2.65824329e-03, -1.38532752e-02},
   {-3.30416635e-02, 8.87275301e-03, -3.57987825e-03, -1.31861982e-03, -2.33037584e-03},
   {-2.36319415e-02, 1.51127214e-02, 4.98030614e-03, 2.06526881e-03, -4.62855492e-03},
   { 1.28159197e-02, 5.47818094e-03, 1.24202026e-02, 2.67421622e-02, 1.34056741e-02},},

  {{ 9.76484735e-03, -5.19472826e-03, -1.30527345e-02, -9.72219184e-03, 8.00486375e-03},
   {-2.01632865e-02, -1.91558916e-02, -1.40017495e-02, 9.70869907e-04, -1.50154496e-03},
   { 8.97606742e-03, -1.58471242e-02, 1.09992467e-03, -1.61973592e-02, -1.03787752e-02},
   {-2.73840548e-03, 1.10498564e-02, -7.99442083e-03, -1.80402212e-02, 3.69575666e-03},
   {-9.80528817e-03, -1.80646963e-02, -2.42150156e-03, -1.34771317e-02, -6.53791847e-03},},

  {{-9.57397278e-03, 3.22481222e-03, -8.43155291e-03, -1.40779011e-03, -7.15797115e-03},
   {-1.73158955e-03, -1.37260286e-02, -7.99453259e-03, 1.06701404e-02, 1.34074278e-02},
   { 3.68442456e-03, 1.06226048e-03, 4.20516776e-03, -5.04455715e-03, 4.38641617e-03},
   { 3.71319917e-03, 4.06304235e-03, -3.36307916e-04, 1.05719622e-02, 7.69051956e-03},
   { 2.12619621e-02, 3.61058000e-03, -1.44124858e-03, -3.18805710e-03, 5.01799630e-03},},

  {{-7.59349763e-03, 1.77812595e-02, 1.17886849e-02, -8.47516116e-03, -3.11802956e-03},
   { 3.45822005e-03, -9.07004438e-03, 1.31550350e-03, 1.45758130e-02, 1.76063068e-02},
   {-6.46852283e-03, 1.48947313e-02, -1.10176485e-02, -3.47930443e-04, 7.69109232e-03},
   {-8.09204858e-03, -9.29035130e-04, 4.43209521e-03, -2.71285116e-03, 3.27299611e-04},
   {-5.39843738e-03, -9.62530449e-03, 9.32791084e-03, -3.65708326e-03, 2.55797920e-03},},},


 {{{ 1.47085311e-03, -1.22931972e-02, -1.65806767e-02, 2.07416378e-02, 2.77852137e-02},
   { 1.04988338e-02, 1.03454823e-02, 7.92699400e-03, 6.49330020e-03, 1.01927565e-02},
   {-7.94412661e-03, 2.09230967e-02, 1.73504110e-02, 1.57995131e-02, 7.52375927e-03},
   {-2.68685594e-02, -3.57183665e-02, 3.80318356e-03, 3.27440724e-03, 5.16273687e-03},
   { 1.45780723e-04, -5.11934888e-03, 8.17613397e-03, -1.24394428e-03, 1.40653867e-02},},

  {{ 2.73884311e-02, -3.23469867e-03, -7.67305586e-03, 8.81117303e-03, 8.32262542e-03},
   { 6.35714456e-03, 1.15832333e-02, 7.18737906e-03, 8.01727641e-03, 1.28213558e-02},
   {-8.57997034e-03, 8.67544848e-04, 4.56763711e-03, -6.75882958e-03, 3.08524538e-02},
   {-5.18516963e-03, 1.62085483e-03, -1.24889286e-02, -8.51306692e-03, -1.40088145e-03},
   {-3.59244831e-03, -2.08596587e-02, -1.09696407e-02, -1.14200581e-02, 1.10837549e-03},},

  {{-3.98052298e-03, 2.08982155e-02, -2.31955224e-03, 3.59453261e-04, -9.01097618e-03},
   { 8.59862380e-03, -2.35073525e-03, 1.02420105e-02, -1.26802940e-02, -1.06811831e-02},
   {-5.32201608e-04, -4.10398748e-03, -3.53333540e-03, 1.64173963e-03, -1.72326714e-02},
   {-2.25709416e-02, 1.63430646e-02, 1.42919207e-02, 6.56172261e-03, -9.73116420e-03},
   {-1.60386842e-02, 1.64457597e-02, 7.42212217e-03, 1.75719231e-03, 1.15457282e-03},},

  {{-4.55468753e-03, -1.52099179e-02, -1.47315338e-02, 2.34645177e-02, 1.98839214e-02},
   {-5.65813249e-03, 2.57446477e-03, -1.04129128e-03, 4.51240642e-03, 5.64050721e-03},
   {-1.13417376e-02, 1.80890225e-02, 6.45542657e-03, -8.34623445e-03, 3.71829537e-03},
   { 1.31298685e-02, 6.21331763e-03, -6.23016153e-03, -1.46215362e-03, 1.18539631e-02},
   { 3.03476141e-03, 8.86700489e-03, -1.26678729e-02, 2.35301815e-03, 7.39280414e-03},},

  {{ 7.02740951e-03, 1.44696347e-02, -2.16051918e-02, 8.55551288e-03, -1.69158028e-03},
   { 9.73442476e-03, -7.81091210e-03, -1.45464130e-02, 1.22212077e-06, -2.54985713e-03},
   { 1.84931880e-04, 4.65131784e-03, -1.91148296e-02, 2.21198294e-02, 2.20418312e-02},
   { 5.05239796e-03, -1.78462155e-02, 5.71449427e-03, 1.93498041e-02, 1.85125228e-02},
   {-1.44840777e-02, -1.46594582e-04, -7.20940111e-03, -3.31869954e-03, 6.98664784e-03},},

  {{-6.04401389e-03, -9.92269907e-03, -1.40397614e-02, -3.70627828e-03, 5.66346105e-03},
   { 1.04155447e-02, 1.11686345e-02, -1.18510285e-03, 4.50775865e-03, 1.28323492e-02},
   {-1.82575397e-02, 4.24544513e-03, -1.14315711e-02, 1.76671240e-03, 1.65228974e-02},
   {-1.45031912e-02, 1.11678699e-02, 1.33021846e-02, 6.77685777e-04, 4.22502682e-03},
   { 6.96870405e-03, -1.10785514e-02, -4.83726524e-03, 1.96101237e-03, -5.89827262e-03},},

  {{-5.67701785e-03, -1.68181036e-03, -8.68679082e-04, 9.37642902e-03, 1.05033983e-02},
   {-5.09264972e-03, -1.74789466e-02, -9.81445052e-03, -3.05213197e-03, 1.47748031e-02},
   { 1.68455252e-03, 6.24036242e-04, -2.51636952e-02, 1.30999824e-02, 1.46270567e-03},
   {-4.95194923e-03, 8.82875826e-03, -1.85796879e-02, 1.61154298e-04, 1.78098958e-02},
   { 2.13764934e-03, 1.28849000e-02, -2.06590742e-02, -7.10588880e-03, 1.95534397e-02},},

  {{-2.54387092e-02, -2.77890288e-03, -1.19028063e-02, -2.75292620e-03, 1.61220916e-02},
   {-4.81698895e-03, 4.90132719e-03, -1.15618138e-02, 1.03066731e-02, -9.20229405e-03},
   {-8.05105828e-03, 7.31436117e-03, 1.84784792e-02, -7.71455560e-03, 4.49507497e-05},
   {-4.31006169e-03, 5.18426299e-03, -1.21903876e-02, -1.65992160e-03, -1.52538968e-02},
   {-1.00565255e-02, -1.69451181e-02, -1.08250557e-02, -2.38667130e-02, 5.64830238e-03},},

  {{ 1.36961350e-02, -1.93367666e-03, -4.86419024e-03, -6.45568362e-04, 6.29964378e-03},
   {-6.95237610e-03, -3.20794201e-03, -1.03835063e-03, 8.33842345e-03, -1.42999515e-02},
   {-6.06127828e-03, 1.59298647e-02, 9.33571067e-03, 5.30507509e-03, 1.16509516e-02},
   { 8.38662963e-03, -7.14956271e-03, 6.84574619e-03, 4.07236814e-03, -6.62880484e-03},
   {-1.39427232e-02, -7.80021679e-03, -5.27570816e-03, 1.18717002e-02, 3.70909157e-03},},

  {{-6.42494345e-03, 5.84567897e-03, -1.77794769e-02, -9.09976382e-03, 1.92748830e-02},
   { 2.57236827e-02, 7.20630027e-03, 1.03513373e-03, 1.52347945e-02, 1.70000475e-02},
   { 2.00520661e-02, 9.26610641e-03, 5.18371817e-03, -1.50870467e-02, 3.02318782e-02},
   {-8.07595532e-03, -2.31334995e-02, -1.65779591e-02, -1.30067198e-02, 4.81559010e-03},
   {-1.61591172e-02, -5.77340275e-03, -1.93671156e-02, -6.47064252e-03, 9.50947963e-03},},

  {{ 1.60057228e-02, 7.75681017e-03, -1.18838595e-02, -1.56770553e-02, -3.68207996e-03},
   { 6.90971920e-03, 1.83085073e-02, -8.55378574e-04, -1.10602344e-03, 1.17803330e-03},
   {-2.56709196e-02, -7.16740126e-03, 9.22151189e-03, -9.04819928e-03, -6.78339088e-03},
   {-1.14133051e-02, -1.00542733e-03, -1.60099170e-03, -1.02780871e-02, -1.52234873e-02},
   {-6.30222959e-03, 3.25251929e-02, -4.01733792e-04, 4.38968092e-03, 5.49782068e-03},},

  {{-1.08272675e-03, -2.23654117e-02, 3.16964719e-03, 5.62409963e-03, 1.82432588e-02},
   {-1.86382290e-02, -1.46620627e-02, -1.93863995e-02, 8.44766293e-03, 1.04236156e-02},
   { 1.27718281e-02, 1.44423330e-02, -8.46574735e-03, 8.38392973e-03, 1.17279869e-03},
   {-1.59457047e-02, 2.23497748e-02, -1.11409118e-02, 3.49994795e-03, 6.58507878e-03},
   {-4.66228928e-03, 2.25775191e-04, -1.04306946e-02, 4.03785205e-04, 9.35571920e-03},},

  {{ 1.56615376e-02, 9.05079674e-03, 4.95142490e-03, -1.59342575e-03, 8.57355352e-03},
   { 6.49347622e-03, 8.84742383e-03, -2.41993894e-05, -5.61761530e-03, 8.85229185e-03},
   { 5.22270892e-03, -1.23641267e-02, -4.21623001e-03, -5.29765431e-03, 2.94135250e-02},
   {-2.39743199e-02, -9.57867689e-03, -2.68372912e-02, -7.81143736e-03, 9.95124108e-04},
   {-1.49513800e-02, -2.06957981e-02, -1.06543032e-02, -8.15997925e-03, 2.18562353e-02},},

  {{-1.62216891e-02, 9.97067895e-04, -8.85867793e-03, 5.77337062e-03, 3.33840540e-03},
   {-5.63457143e-03, -1.05064493e-02, 3.52503615e-03, -5.86049072e-03, -2.65178713e-03},
   { 1.09095238e-02, -5.20355883e-04, -3.65171023e-03, -2.85424234e-04, -9.30702034e-03},
   {-2.49122959e-02, 6.93598716e-03, -1.40771940e-02, 8.87107290e-03, 1.90090146e-02},
   { 4.74481873e-04, -5.81940543e-03, 8.03526118e-03, 1.19897667e-02, -6.26996253e-03},},

  {{-1.75573933e-03, 3.44350934e-03, -2.30961735e-03, 1.59798823e-02, -1.20665843e-03},
   {-1.24717969e-02, 5.42922411e-03, -1.52723473e-02, 6.82474254e-03, 1.80692356e-02},
   { 9.97578073e-03, 2.44607194e-03, 1.83132128e-03, -6.53672917e-03, 2.28125360e-02},
   { 7.44350301e-03, -4.86787735e-03, 1.07378066e-02, 3.48166865e-03, -1.10270735e-03},
   { 6.57695392e-03, -1.51171591e-02, 1.87409371e-02, 5.73407765e-03, -4.62920964e-03},},

  {{ 7.01546157e-03, 6.29195187e-04, -1.86395980e-02, -1.88265566e-03, -1.27746304e-02},
   { 5.62197203e-03, 2.12837290e-02, -1.64050236e-02, -2.93494691e-03, 5.93567826e-03},
   { 1.03709698e-02, 1.42038800e-02, 6.01081643e-03, 1.99728291e-02, -8.84592161e-03},
   {-2.49053054e-02, 5.36144804e-03, -1.01982465e-03, -7.39941665e-04, 1.68547574e-02},
   {-1.54741071e-02, -7.40791811e-03, -5.66922594e-04, 1.28409258e-04, 1.69729174e-03},},},


 {{{-1.80534888e-02, -9.94928554e-03, 1.69133358e-02, -1.83589302e-03, -8.01117998e-03},
   { 6.85968390e-03, -1.75799709e-02, 2.75661461e-02, -1.22787980e-02, 6.01220317e-03},
   { 3.47596928e-02, -2.05243845e-02, 1.87095329e-02, 1.91860180e-02, 1.33857466e-02},
   { 7.68039469e-03, 1.43639557e-02, -8.58780090e-03, -8.52946378e-03, -6.57127379e-03},
   { 4.11581472e-02, 3.73395123e-02, -4.20457800e-04, -1.56695284e-02, 8.90829042e-03},},

  {{-3.57433893e-02, -1.73433647e-02, 8.86871014e-03, -1.02256201e-02, -1.68054178e-02},
   { 9.52327251e-03, -2.01309891e-03, 6.84667658e-03, -1.31569915e-02, -8.74505285e-03},
   { 3.82761034e-04, -2.94333603e-02, 4.04732674e-03, -5.70808630e-03, 1.19964741e-02},
   {-2.69963685e-03, 1.65502168e-02, 8.68848339e-03, -1.44065954e-02, 1.01860166e-02},
   { 1.33909099e-02, 2.06548870e-02, 2.27519125e-03, -2.76370198e-02, -1.38430670e-03},},

  {{ 2.75498093e-03, 2.45435716e-04, -1.58533696e-02, 6.75676158e-03, -3.25526521e-02},
   { 9.68716945e-03, 1.08096339e-02, -8.13191850e-03, 1.46662463e-02, 1.44145228e-02},
   {-6.41600555e-03, 5.43701521e-04, -3.82288964e-03, -9.43025667e-03, 1.21741823e-03},
   { 1.45334695e-02, -2.13739909e-02, -2.75245216e-02, -2.13223379e-02, 5.38890157e-03},
   {-6.62555126e-03, -8.36760085e-03, -3.09824999e-02, -2.22093910e-02, 1.82795338e-02},},

  {{ 7.81003432e-03, -4.12310055e-03, -1.41443945e-02, -1.04419366e-02, -1.25250341e-02},
   {-1.30058192e-02, 8.90555978e-03, 2.37650238e-02, 1.15766488e-02, 2.46569351e-03},
   {-2.26174649e-02, -9.08155181e-03, -3.33886640e-03, 3.06308997e-04, -1.98265892e-02},
   {-2.86921170e-02, -1.83094256e-02, -1.05002327e-02, 4.66738874e-03, -3.37517746e-02},
   { 3.06579866e-03, 1.42067512e-02, 2.99387291e-04, -9.40606836e-03, -3.95969860e-03},},

  {{ 1.28647061e-02, -8.80899187e-03, 3.00447759e-03, -1.26387272e-02, -1.33439561e-03},
   { 1.95097862e-04, -6.20206166e-03, 3.85144638e-04, 1.35606425e-02, 1.03950547e-02},
   {-4.67294268e-03, -5.33389673e-03, 4.44846367e-03, 6.61767460e-03, 3.55687737e-02},
   { 1.10111842e-02, 3.81955830e-03, -6.11794181e-04, -2.71728840e-02, 1.05013512e-02},
   { 5.91862481e-03, 7.35102221e-04, -1.46342115e-02, 1.79858890e-03, 1.12495013e-02},},

  {{-4.64678975e-03, 4.47858265e-03, 1.21057732e-03, 1.22108981e-02, 5.31939650e-03},
   {-9.04440600e-03, -2.89210031e-04, -1.22097759e-02, 7.24728801e-04, -8.53133295e-03},
   { 6.94672950e-03, 2.36330368e-03, -1.20388092e-02, -5.44859376e-03, -1.21503947e-02},
   { 1.06715178e-02, -3.63348145e-03, -1.83754954e-02, -1.28026549e-02, -4.73165605e-03},
   {-7.22089224e-03, 2.67921155e-03, 2.88266246e-03, 1.87768210e-02, -3.96839809e-03},},

  {{-3.05465073e-04, 2.90542888e-03, -1.83995031e-02, -9.00046714e-03, 7.33273616e-03},
   { 3.01479246e-03, -1.07178381e-02, 8.13715719e-03, -1.87364686e-02, 1.24113262e-02},
   { 1.16666988e-03, 8.95973854e-03, 3.79198254e-03, -1.60635859e-02, -5.58369374e-03},
   {-4.47012670e-03, -8.41605011e-03, 1.47243019e-03, 2.56133303e-02, 3.63222859e-03},
   {-1.34422155e-02, 9.87138972e-03, 1.64770726e-02, 6.94045844e-03, -2.08645919e-03},},

  {{ 6.32533338e-03, 3.02272588e-02, 2.18047686e-02, 9.63787548e-03, 1.03622526e-02},
   { 2.68525491e-03, 3.38253612e-03, 1.11044198e-02, 1.05040725e-02, 8.75819009e-03},
   { 2.52806465e-03, -1.67754069e-02, -8.66024382e-03, -1.51044605e-02, -6.70928799e-04},
   {-6.81306235e-03, 2.98131369e-02, -3.96018196e-03, -1.24666477e-02, -4.25275182e-03},
   { 1.17758112e-02, 3.93822454e-02, 2.34293118e-02, 3.19007132e-03, 5.21573052e-03},},

  {{ 9.53499880e-03, -1.93949286e-02, 9.90700442e-03, -1.14016132e-02, 1.23008899e-03},
   {-1.17782075e-02, 1.53666968e-02, -8.41239840e-03, -1.17127690e-03, 5.81473531e-03},
   {-6.69162581e-03, -1.47914616e-02, 1.84034312e-03, 1.78335235e-02, -2.17731111e-02},
   { 2.45120935e-03, 3.85233364e-03, -1.00339577e-02, 1.91656221e-02, -1.89346690e-02},
   {-6.05878141e-03, 1.09371021e-02, 7.03011220e-03, 8.63621850e-03, 1.61352611e-04},},

  {{ 5.71628939e-03, -1.56924557e-02, 1.40124364e-02, 8.67682230e-03, -1.04673824e-03},
   { 3.61783197e-03, 4.53200610e-03, -1.24531090e-02, -1.07700406e-02, 3.41707468e-03},
   {-9.40246321e-03, 1.01838226e-03, -1.06896460e-03, -5.87391155e-03, 9.24705900e-03},
   { 1.10319881e-02, -7.38869607e-03, 9.55655146e-03, 6.24999171e-03, 2.60892534e-03},
   { 1.27710095e-02, 8.39208718e-03, -1.31009670e-03, 2.28601811e-03, -1.31867649e-02},},

  {{ 9.36229806e-03, -2.33324594e-03, -1.17783342e-03, -2.57575419e-03, 8.12212937e-03},
   {-6.08758023e-03, 3.31742736e-03, -6.99094357e-03, -6.25707163e-03, -2.86651552e-02},
   { 1.16649222e-04, 4.21456061e-03, 6.28128601e-03, 9.84476879e-03, -1.76524110e-02},
   { 1.27943577e-02, -6.37234421e-03, -3.93953081e-03, -8.24359991e-03, -8.94917268e-03},
   { 7.37743452e-03, -1.57361552e-02, -9.02028196e-03, -3.38783162e-03, 2.30536819e-03},},

  {{ 1.01512726e-02, -1.44693663e-03, 4.65766899e-03, 2.42370274e-03, -5.03585907e-03},
   { 2.22479161e-02, -3.48519930e-03, 2.58122981e-02, -1.21877128e-02, 6.99262414e-03},
   {-1.75950304e-02, 1.18159009e-02, -2.33835378e-03, 3.08558648e-03, -1.45634636e-02},
   { 8.58702511e-03, -2.36948542e-02, -3.54481488e-03, 7.28783756e-03, -1.41232833e-02},
   {-6.90498913e-04, -5.10340370e-03, -1.35039613e-02, 8.82002758e-04, 4.24169330e-03},},

  {{ 1.51522756e-02, 3.21504101e-03, -5.63090853e-03, 1.79621149e-02, -1.32258274e-02},
   { 9.47658997e-03, -2.21301522e-03, 7.40935141e-03, -1.34575600e-02, -9.57550574e-03},
   {-1.15658650e-02, 1.12201450e-02, 2.60539353e-03, -8.98032542e-03, -3.11285444e-02},
   { 6.72742771e-03, 3.86204594e-03, 1.00317178e-02, 3.88645614e-03, -2.24163234e-02},
   { 1.54256132e-02, 9.60087311e-03, -4.53603035e-03, 2.56096199e-02, -1.41945230e-02},},

  {{ 1.07055614e-02, 1.00886924e-02, 2.64042057e-03, -4.22890577e-03, -2.22800877e-02},
   { 4.69785277e-03, -1.27121597e-03, 1.74397491e-02, -5.44121023e-03, 1.59112352e-03},
   {-4.99931956e-03, -1.47656063e-02, 3.42746102e-03, 3.78251774e-04, -9.77681763e-03},
   {-9.07448411e-04, -2.40888745e-02, 1.05341151e-02, 2.11939923e-02, 5.41710109e-03},
   {-6.77313237e-03, 4.45415592e-03, 3.35172541e-03, 9.35911760e-03, 4.66993172e-03},},

  {{ 1.61104428e-03, -7.36036664e-03, -1.35305023e-03, 3.28524713e-03, -5.00011118e-03},
   { 3.24004353e-03, -4.69612051e-03, -3.64693580e-03, 1.91703392e-03, -5.66197513e-03},
   { 1.35634579e-02, -8.59994907e-04, 9.05700121e-03, 1.48866614e-02, 8.64275265e-03},
   { 7.73417298e-03, -2.55656578e-02, -1.17242141e-02, -1.89172255e-03, 1.23180775e-02},
   {-1.86884718e-03, -5.43422299e-03, -5.49585652e-03, -8.81697051e-03, -1.90699706e-03},},

  {{-2.12008599e-02, -6.67540031e-03, 4.20559943e-03, 2.32966989e-03, 7.67148146e-03},
   {-7.74426479e-03, 4.65768995e-03, -1.19153494e-02, 1.08276615e-02, -7.47671630e-03},
   {-1.00723077e-02, -2.12690607e-02, -3.16569558e-03, -3.58999823e-03, 1.00246621e-02},
   { 1.66536625e-02, 8.33431142e-04, -9.40562505e-03, 9.31051560e-03, -1.60144246e-03},
   { 1.43130515e-02, 1.98146161e-02, 1.33133782e-02, -7.18326028e-03, 9.12022218e-03},},},


 {{{ 1.55224716e-02, 5.68010695e-02, 8.73796735e-03, 1.65141560e-02, -2.41323560e-03},
   { 2.77499872e-04, 1.39337266e-03, -1.26619209e-02, -6.32444303e-03, 1.37386774e-03},
   {-1.75077002e-02, 1.61543081e-03, -8.01586360e-03, -4.40443400e-03, -4.07307548e-03},
   {-1.07061211e-02, 1.01775425e-02, 2.46073287e-02, 8.41059908e-03, 9.04587097e-03},
   { 1.37316791e-04, 3.16103101e-02, 9.76021495e-03, -1.76048372e-02, -1.32520846e-03},},

  {{ 2.34149606e-03, 1.35029992e-02, 5.05887950e-03, 1.23437867e-02, 8.35364405e-03},
   {-2.17656372e-03, -7.50780851e-03, 7.85358017e-04, -1.62643138e-02, 1.10401129e-02},
   { 1.72391646e-02, 6.92731468e-03, 6.44162344e-03, 4.06269776e-03, -6.04111468e-03},
   { 1.47938747e-02, 1.71098839e-02, -1.50666106e-02, 1.60114060e-03, 8.21541902e-03},
   { 2.69661634e-03, 1.68675985e-02, 1.85306687e-02, -2.10617129e-02, -3.28765204e-03},},

  {{ 1.92224327e-03, -3.41640948e-03, -3.57747860e-02, -1.84077173e-02, -6.28168986e-04},
   {-1.54915368e-02, -8.48485343e-03, -5.13415737e-03, -2.47822870e-02, -1.62712876e-02},
   {-1.26721570e-02, -1.65324397e-02, 8.06812290e-03, -1.04849041e-02, 6.32426655e-03},
   { 1.80724505e-02, -1.20060360e-02, -1.65629610e-02, 3.77825927e-03, -2.10672559e-04},
   { 8.13132897e-03, 3.62713565e-03, 2.44869431e-03, -4.06531431e-03, 2.51327571e-03},},

  {{ 6.96170796e-03, 7.81130220e-04, 2.80383625e-03, 2.04598121e-02, 1.20296786e-02},
   { 7.42217642e-04, 2.84845289e-02, 6.81186735e-04, -1.85055856e-03, -7.46765465e-04},
   { 2.07493361e-03, -1.91699306e-03, 9.39612370e-03, -6.61409507e-03, -1.70951092e-03},
   {-2.43400019e-02, -1.20886909e-02, -6.81286305e-03, -1.74083523e-02, 1.01180077e-02},
   { 1.06165968e-02, 1.19516142e-02, -7.86632206e-03, -1.33916894e-02, -5.31265570e-04},},

  {{ 6.87744818e-04, 8.24311806e-04, -1.42721040e-02, 5.23108151e-03, -7.43095903e-03},
   {-7.28134671e-03, 1.37782516e-03, 5.88713586e-03, 2.02288106e-02, 1.86785951e-03},
   {-1.31100975e-02, 1.55099984e-02, -1.35693215e-02, -8.52073543e-03, 1.96690187e-02},
   {-9.92688164e-03, 2.27155797e-02, -1.78820547e-03, 1.74316484e-02, -6.70323661e-03},
   {-1.51831908e-02, 8.07564519e-03, -7.37933535e-03, -2.45344080e-03, -1.55375395e-02},},

  {{ 2.97649740e-03, 6.57209079e-04, 1.49437720e-02, -1.77789871e-02, 6.16184948e-03},
   {-1.06205943e-03, 5.71767800e-03, 1.04748653e-02, -2.55351467e-03, -2.39905994e-03},
   { 7.72505207e-03, -1.37474770e-02, -4.07863234e-04, -1.15385866e-02, 2.59024743e-03},
   {-8.89057945e-03, 7.47241965e-03, -7.44814146e-03, 8.47590901e-03, 1.11248752e-03},
   { 9.70688369e-03, -4.45525255e-03, 2.97192624e-03, -1.25453547e-02, -1.60087738e-02},},

  {{ 1.14687607e-02, 4.85776179e-03, 2.56283935e-02, 2.03829492e-03, -1.72058493e-03},
   {-5.42254280e-03, -1.75575018e-02, 1.21401135e-05, 1.15180397e-02, -1.38171541e-03},
   {-1.36505449e-02, -1.19131291e-02, 1.14436224e-02, 5.19993191e-04, -5.77184279e-03},
   { 6.19502505e-04, 6.23163907e-03, -6.12650113e-03, 5.75582776e-03, -1.07619422e-03},
   {-1.79746561e-02, -6.54503517e-03, 1.15316324e-02, -1.68933999e-02, 2.11016145e-02},},

  {{ 1.12024916e-03, 1.30086746e-02, 2.66540125e-02, -1.25689094e-03, -9.90247726e-03},
   { 2.27561360e-03, 1.56028094e-02, 1.35210650e-02, -2.69129407e-03, 2.54262239e-03},
   { 8.34230427e-03, 3.25642573e-03, 1.14901578e-02, -1.16896657e-02, 2.51850672e-02},
   { 1.23657314e-02, 8.84447433e-03, -1.15935523e-02, -9.51918773e-03, -2.35116575e-03},
   { 2.34752968e-02, -9.06074606e-03, 5.42054372e-03, -1.58868656e-02, -8.03871732e-03},},

  {{-3.45661351e-03, 2.94242054e-03, 1.17020262e-02, 7.23376637e-03, 5.32476790e-03},
   {-7.49271363e-03, -2.01650779e-03, -7.10049644e-03, 3.05599323e-03, 7.63942674e-03},
   { 4.16749343e-03, -2.54665385e-03, 1.35727320e-02, 2.94551607e-02, -1.93769336e-02},
   { 1.18837161e-02, 7.70215224e-03, -1.77590214e-02, 2.51641124e-03, -1.57720279e-02},
   { 5.36689209e-03, -2.75168405e-03, 3.43698310e-03, -7.24681979e-03, -5.16452268e-03},},

  {{ 1.04761207e-02, 9.46541596e-03, -5.35144890e-03, 1.06348470e-02, -1.44439386e-02},
   { 3.72712826e-03, 2.55894996e-02, -5.29333437e-03, -1.01518743e-02, 7.84508418e-03},
   {-6.48653135e-03, 9.37434379e-04, 1.82451624e-02, 2.97485432e-03, -1.63891856e-02},
   { 4.36580135e-03, 5.93659282e-03, 4.15734062e-03, -1.50234578e-02, -3.60257272e-03},
   { 3.95138282e-03, -3.20242834e-03, 9.47148015e-04, 1.47769898e-02, -8.40204675e-03},},

  {{-2.00875173e-03, -5.02366526e-03, -1.49118120e-03, -1.94764510e-03, -1.29786870e-02},
   { 9.98492003e-04, 8.92008422e-04, 2.02281703e-03, -7.31938053e-03, 6.73886668e-03},
   { 2.19832081e-03, 4.15178249e-03, 1.97443157e-03, 3.85168591e-04, -1.70854367e-02},
   { 6.04974059e-03, 2.50701495e-02, -1.05188671e-03, 5.15515031e-03, -4.19536233e-03},
   {-1.14799966e-03, -4.60751820e-03, -1.31883807e-02, 2.37166742e-03, 5.47543680e-03},},

  {{ 2.22414695e-02, 9.26873460e-03, -1.00110834e-02, 5.62365167e-03, 5.70216076e-03},
   {-2.03726417e-03, 1.02685057e-02, -2.51765102e-02, -3.38838063e-03, -4.69661038e-03},
   { 9.86409280e-03, 2.20059790e-02, 4.36336873e-03, -2.05169357e-02, 2.02953746e-03},
   { 2.89358180e-02, -1.26257082e-02, -1.21880695e-02, -8.62997316e-04, -1.25704566e-03},
   {-5.91551093e-03, -6.51910855e-03, -7.40757259e-03, -3.62086319e-03, 7.04477448e-03},},

  {{ 2.20152792e-02, -3.44189932e-03, -6.85287081e-03, 2.59286910e-02, 1.60137843e-02},
   {-9.49972961e-03, 2.03813543e-03, -2.19994560e-02, -1.31493453e-02, -5.54613629e-03},
   { 5.78850182e-03, 1.65554937e-02, -1.37428604e-02, -1.16013903e-02, 1.03361672e-05},
   {-1.89127773e-03, -6.47967728e-03, 1.01603083e-02, -8.67106207e-03, -1.61261577e-02},
   {-7.06809340e-03, 4.02507419e-03, -1.70149328e-03, 1.82538503e-03, -4.49538091e-03},},

  {{ 8.01271293e-03, -4.53551207e-03, -1.69602653e-03, -1.21495035e-02, -3.20355699e-04},
   {-8.63391440e-03, 2.63119638e-02, -2.48788879e-03, 4.36316617e-03, 7.18442583e-03},
   { 3.90402460e-03, -3.40894097e-03, -1.87198014e-03, 5.67194913e-03, 1.69781968e-02},
   { 1.03971059e-03, -1.51157556e-02, -8.81946087e-03, 2.49740612e-02, 7.08249165e-04},
   { 2.45345198e-03, 1.64962932e-02, 7.06342002e-03, -1.58718191e-02, -3.24514718e-03},},

  {{-2.81849666e-03, 8.82659294e-03, 3.07465084e-02, -3.05998279e-03, -1.27967102e-02},
   { 1.48363803e-02, -1.02875708e-02, -2.21970910e-03, 4.55564819e-03, -1.69518217e-02},
   { 1.01431999e-02, 3.91194131e-03, 9.75314807e-03, -1.95230194e-03, -1.34620126e-02},
   {-1.59975756e-02, 9.32719186e-03, -7.14724371e-03, 3.11378809e-03, 1.45681417e-02},
   {-2.94811977e-03, 6.85773510e-03, 9.48190782e-03, 9.60341713e-04, -3.38985212e-03},},

  {{ 7.69456441e-04, -1.47938663e-02, -6.07521646e-03, 2.52051302e-03, -2.57249270e-02},
   {-3.68363759e-03, -2.94721662e-03, 1.17707513e-02, -1.68654528e-02, -8.86390975e-04},
   {-5.72388945e-03, 3.45159438e-03, 2.92448713e-05, 4.95640887e-03, 1.62705127e-02},
   {-1.88233480e-02, 9.62197687e-03, -6.80861482e-03, 9.40159801e-03, 2.16556210e-02},
   { 2.25346051e-02, 3.63885937e-03, -1.41725596e-02, -4.86005982e-03, 4.16402100e-03},},},


 {{{-1.97093654e-02, 6.60283118e-03, -4.34822030e-03, 8.05992447e-03, 1.24538224e-02},
   { 1.40792280e-02, 9.34687967e-04, -4.41432837e-03, 1.35545526e-02, -1.23782810e-02},
   {-2.15097750e-03, 1.83553202e-03, 1.40905809e-02, 1.71969980e-02, 5.00883441e-03},
   {-8.50379094e-03, 1.77272744e-02, -1.94241256e-02, -9.73280577e-04, 1.27654374e-02},
   { 1.40439542e-02, 6.14945916e-03, 1.74455112e-03, -9.42364242e-03, 7.56929535e-03},},

  {{-2.92436546e-03, 4.11834661e-03, 1.62829496e-02, 2.42662709e-02, -4.18075966e-03},
   {-1.24417385e-02, 1.42910145e-03, 7.53670931e-03, 4.88952454e-03, 1.50691336e-02},
   { 1.43447863e-02, 1.74506642e-02, 6.28301781e-03, 1.46019645e-03, 1.15086781e-02},
   { 1.83551889e-02, 5.36703272e-03, -2.37182807e-02, 1.12641416e-02, 1.28701730e-02},
   { 2.68928390e-02, 2.99998350e-03, -1.83241093e-03, -1.38823660e-02, 1.70929953e-02},},

  {{-2.83767516e-03, -3.23231667e-02, -2.57062614e-02, 6.53294567e-03, -7.22251181e-03},
   { 2.22877450e-02, -9.42272972e-03, -1.38820782e-02, 2.80443970e-02, -2.47592293e-02},
   { 2.28131004e-03, 6.44235685e-03, 4.73582791e-03, -1.49207842e-02, 8.75569507e-03},
   {-2.39138976e-02, 2.06703902e-03, -1.06828716e-02, -4.22660634e-03, -2.66027525e-02},
   {-1.08862258e-02, 6.58765575e-03, -5.41482959e-03, -1.37026384e-02, -2.42989808e-02},},

  {{ 2.10918337e-02, -5.09641599e-03, 9.07135662e-03, 3.44981061e-04, -3.01471446e-03},
   { 1.96071975e-02, 2.23778486e-02, -4.88414103e-03, -2.44115237e-02, -7.45623093e-03},
   {-5.39682712e-03, -2.26908116e-04, 8.05598777e-03, 1.95104443e-02, -3.86825833e-03},
   { 6.56306790e-03, -1.50040572e-03, -9.05159768e-03, -8.12423136e-03, 3.01553751e-03},
   { 2.39195977e-03, -4.06414038e-03, 2.07668170e-03, 8.81922059e-03, -6.71850145e-03},},

  {{-2.89519969e-02, 4.42541810e-03, 3.24843861e-02, 6.46840502e-03, -1.40143363e-02},
   {-6.78706681e-03, -3.30044329e-03, 3.50725866e-04, 1.71798170e-02, 1.73857380e-02},
   {-8.27763753e-04, -1.78563304e-03, -1.08866263e-02, -4.99321986e-03, 7.85974879e-03},
   { 6.53968938e-03, -5.37287304e-03, 6.62151910e-03, -1.12654120e-02, 2.67002452e-02},
   { 1.17303459e-02, 9.50482034e-04, 1.11150201e-02, -8.49542441e-04, -1.72356665e-02},},

  {{-9.35964228e-04, 2.07881606e-03, 1.69794057e-02, -3.69183696e-03, 6.69989851e-04},
   { 8.30865279e-03, -1.61157607e-03, 1.28583713e-02, 1.57489069e-02, 1.60146244e-02},
   { 1.86569057e-02, 6.55568810e-03, 4.08549793e-03, 1.09085059e-02, -1.72038842e-03},
   { 2.62756046e-04, -1.16080968e-02, -3.85467499e-03, 7.31874071e-03, 1.46384900e-02},
   {-3.13563319e-03, -8.10901076e-03, 4.04224405e-03, -1.85201038e-03, -4.16633702e-04},},

  {{ 6.41947147e-04, 1.46671329e-02, 1.00650489e-02, -2.04270473e-03, 1.27898697e-02},
   { 6.41793851e-03, 3.22843762e-03, 1.55378468e-02, -7.03574624e-03, -6.71112025e-03},
   { 4.17485181e-03, 2.62347785e-05, 2.08742339e-02, -9.21439286e-03, -2.02700627e-04},
   {-2.24967636e-02, 1.40138166e-02, -5.23264240e-03, 2.24111299e-03, 2.03969050e-02},
   {-7.12433271e-03, 7.77804479e-03, -5.85452653e-03, 3.06107732e-03, -8.96804314e-03},},

  {{ 1.87069811e-02, -8.60764924e-03, -5.23001235e-03, -1.43408105e-02, 3.00759282e-02},
   {-2.16218382e-02, -2.40729470e-03, -1.44285371e-03, -4.84382967e-03, 4.43975237e-04},
   { 4.65001358e-05, -3.70838051e-03, -1.90534815e-02, 1.10873440e-02, 2.87733898e-02},
   { 2.87580537e-03, 6.72141369e-03, -4.42954758e-03, -6.79753767e-03, 1.64391808e-02},
   { 1.34577565e-02, 1.43003985e-02, 1.61337256e-02, 1.32456850e-02, 1.52943740e-02},},

  {{-8.75678565e-03, -8.57923739e-03, -1.05308527e-02, 8.54148343e-03, 2.32962193e-03},
   {-4.50533535e-03, -6.11745939e-03, 2.93961936e-03, -1.04600107e-02, 4.99463547e-03},
   {-3.99382203e-04, -6.42676139e-03, -8.72064440e-04, 6.75134500e-03, -2.97160773e-03},
   {-3.33117717e-03, 1.26160076e-03, -4.26274026e-03, -1.40501568e-02, 1.76806618e-02},
   { 2.06158832e-02, -5.96557092e-03, 1.55363455e-02, -1.21464534e-02, 2.04679105e-04},},

  {{-1.82515532e-02, 8.71358532e-03, 1.74260131e-05, 5.17505733e-03, -9.62261576e-03},
   {-2.24551875e-02, -5.07200509e-03, -9.16053716e-04, 1.43081499e-02, 4.98349452e-03},
   { 1.09430158e-03, -1.32283447e-02, 5.44480653e-03, 3.09047243e-03, 1.68143271e-03},
   { 5.94147108e-03, 2.07509426e-03, -1.38346935e-02, -6.32985402e-03, 1.31407334e-02},
   { 1.01311412e-03, 1.95462182e-02, -3.80436564e-03, 9.81800538e-03, 1.08577684e-02},},

  {{-1.53233390e-02, -6.05001673e-03, -3.70072830e-03, -8.16414971e-03, 1.00126127e-02},
   { 1.62239503e-02, -1.30859660e-02, -7.97044206e-03, -1.04931695e-03, -9.22389422e-03},
   { 1.94079764e-02, -1.47401635e-02, -1.85294375e-02, -1.15104094e-02, 3.67442495e-03},
   {-6.79321005e-04, 8.82075168e-03, -7.08927400e-04, 7.10501242e-03, -2.66762474e-03},
   { 3.50852846e-03, -2.87699979e-02, -1.16617894e-02, -2.06625112e-03, -1.04774965e-03},},

  {{-1.37742339e-02, -2.28396021e-02, 9.08808503e-03, -4.92165331e-03, -1.52619230e-03},
   {-1.75124761e-02, -1.51230292e-02, 6.56577665e-03, -6.38092496e-03, -1.27551956e-02},
   { 9.74341109e-03, 1.10940333e-03, 2.36138739e-02, -4.57643345e-03, -1.04771033e-02},
   {-8.67604744e-03, -1.67272761e-02, -2.33671572e-02, 3.06327664e-03, 1.37299821e-02},
   { 7.86684267e-03, 5.33383223e-04, -1.85359698e-02, -1.65143125e-02, -2.27069296e-02},},

  {{-1.12893889e-04, -5.56024862e-03, 3.56078777e-03, 3.13682482e-03, 1.10826809e-02},
   { 6.36687316e-03, 5.32153016e-03, 9.07280389e-03, -1.58513170e-02, 1.92440562e-02},
   {-3.33704217e-03, -2.83275568e-03, 2.12143231e-02, -7.40305707e-03, 9.59877111e-03},
   {-7.55032990e-03, 2.30722651e-02, 1.57794636e-03, 1.31943118e-04, 1.05777066e-02},
   {-5.55988541e-03, 2.26268861e-02, 2.76713632e-02, 1.37769040e-02, 1.17574641e-02},},

  {{ 1.31247006e-03, -9.27864201e-03, -3.49236070e-03, 1.68336774e-04, 7.37707363e-03},
   {-3.05825175e-04, -7.37088174e-03, 4.61547356e-03, -1.59810092e-02, 1.46463979e-02},
   {-1.31336665e-02, -2.12789029e-02, -2.66891308e-02, 1.09003177e-02, -1.54819898e-02},
   {-4.42145905e-03, -1.25067029e-02, -2.36469531e-03, 8.35385546e-03, 1.15694804e-02},
   { 1.61372370e-03, 1.20606422e-02, 8.09425302e-03, 3.76086473e-03, 2.38206983e-02},},

  {{-1.10086575e-02, 1.01282718e-02, -1.58181023e-02, 1.73634682e-02, 1.16791744e-02},
   {-5.84547734e-03, 1.99344824e-03, -1.48612758e-04, -1.44279087e-02, 1.27332406e-02},
   { 1.46785274e-03, 6.73078047e-03, -1.92555860e-02, 1.73565908e-03, -1.10773956e-02},
   { 9.64542665e-03, -9.16787889e-03, -1.67104900e-02, -2.90210033e-03, 6.30684139e-04},
   { 1.16875945e-02, -3.61345848e-03, -1.42304376e-02, -6.73828600e-03, 1.11340517e-02},},

  {{ 1.87031012e-02, -2.14662235e-02, -3.29211843e-03, 1.03787938e-02, -1.02232601e-02},
   {-2.27718870e-03, -1.10226683e-02, 3.03649367e-03, 2.05054935e-02, 1.13807274e-02},
   { 1.24390842e-03, 3.77881317e-03, -5.27275901e-04, 5.89775620e-03, 3.08158994e-03},
   { 1.85214598e-02, -1.23286173e-02, -3.20343697e-03, 5.75193530e-03, 3.87974037e-03},
   {-3.06161609e-03, -5.45639079e-03, -8.22665356e-03, -3.61916074e-03, 7.61243689e-04},},},


 {{{ 7.99125712e-03, 1.61158852e-02, 2.45521646e-02, -3.94941457e-02, -2.33127885e-02},
   { 8.63857754e-03, 1.18226493e-02, -4.18316610e-02, -2.51235459e-02, 1.11132972e-02},
   { 5.28252684e-03, 2.30296738e-02, -3.84882502e-02, -4.78168242e-02, 2.12164484e-02},
   { 1.19574917e-02, -1.57022395e-03, -2.45395638e-02, -1.24473749e-02, -1.99676398e-02},
   { 2.12429557e-02, 1.27293530e-03, -1.20607857e-02, 3.70745873e-03, -2.13843379e-02},},

  {{-2.91373711e-02, 1.02767227e-02, 6.52431324e-03, 1.58139796e-03, -9.25821345e-03},
   {-1.11207915e-02, 1.46005880e-02, -2.12322250e-02, -2.22584996e-02, -2.77891681e-02},
   {-5.40490123e-03, -7.97792524e-03, -2.06168517e-02, -1.44104604e-02, -1.93373897e-04},
   { 3.53427604e-03, -1.38956616e-02, 2.05431459e-03, -5.31564467e-03, -2.21575191e-03},
   { 1.78532989e-03, 1.65353029e-03, -4.67067864e-03, 1.78032927e-02, 1.78554165e-03},},

  {{-1.01068718e-02, 1.98999867e-02, 2.07278575e-03, 4.60642343e-03, -8.58532032e-04},
   {-1.35989506e-02, 1.11723272e-02, 4.38392945e-02, 1.26672788e-02, 1.88443456e-02},
   { 5.59490081e-03, 5.09038940e-02, 2.32873820e-02, 1.94460861e-02, 3.20898853e-02},
   { 1.06460806e-02, 9.38592013e-03, 3.14370766e-02, -7.24835973e-03, -4.46556322e-03},
   { 2.03355029e-02, 1.57529805e-02, -2.84003858e-02, -1.65116845e-03, -9.25895758e-03},},

  {{ 3.15357186e-03, 7.17295054e-03, -1.95972193e-02, -6.00789790e-04, -8.89520440e-03},
   { 1.91162340e-02, -4.42185905e-03, -9.65194125e-03, -1.63251068e-03, 6.77941041e-03},
   { 2.04437524e-02, 9.35181882e-03, -3.48340068e-03, 1.61066966e-03, 2.69216429e-02},
   {-2.26185002e-04, -4.36028745e-03, 9.85424221e-03, -1.29816104e-02, -4.35973797e-03},
   { 3.17816273e-03, 1.76626109e-02, -7.70662911e-03, 5.27159171e-03, -1.03589687e-02},},

  {{ 3.22952773e-03, -2.63329465e-02, 4.26432211e-03, 2.35845111e-02, 1.77813275e-03},
   {-1.62902903e-02, -1.90497432e-02, 3.25199999e-02, 2.14336417e-03, -9.00604390e-03},
   {-6.08532550e-03, -1.55307762e-02, 5.55791892e-03, -1.39069660e-02, -1.79543102e-03},
   { 3.06092612e-02, -3.06078978e-02, -2.51058955e-02, 9.95356869e-03, 8.94836895e-03},
   { 1.31991589e-02, -7.94469006e-03, 1.25698512e-04, -4.25192202e-03, 3.42848850e-03},},

  {{-8.58559366e-03, 1.10310763e-02, 6.02848921e-03, -2.22001355e-02, -7.25475466e-03},
   { 1.32667162e-02, -1.60599276e-02, -2.06594206e-02, -1.64784249e-02, 1.21162711e-02},
   {-2.54898164e-02, -1.88013539e-02, -1.09376330e-02, -2.76035462e-02, 1.71890389e-02},
   {-1.67481583e-02, -3.27322027e-03, 1.29057840e-02, 5.95154183e-04, 3.16779944e-03},
   {-5.04730875e-03, -8.43548309e-03, -3.04867420e-03, -6.07505441e-03, -1.34667298e-02},},

  {{ 2.90949009e-02, 1.38193392e-03, -5.27354982e-03, -1.13063436e-02, -1.50994100e-02},
   { 2.80420482e-02, -6.57359720e-04, 6.08167553e-04, -1.79132186e-02, -5.68941236e-03},
   { 1.65894832e-02, -5.47233177e-03, -3.01162247e-03, 1.58198383e-02, -3.21959914e-03},
   { 1.08373724e-02, 1.37896466e-04, -2.42373347e-03, -3.59627442e-03, -2.20777448e-02},
   {-1.28386375e-02, -3.38090654e-03, 2.45885248e-03, 1.53137725e-02, 4.51057604e-05},},

  {{ 1.49934758e-02, 4.55480665e-02, -3.26805655e-03, -1.49290906e-02, 1.89487054e-03},
   {-1.01507939e-02, 3.38335708e-02, -4.43500280e-02, -2.80014481e-02, -2.59960955e-03},
   {-7.28694140e-04, 2.30934929e-05, -4.30030338e-02, -2.73529477e-02, 4.67665319e-04},
   {-2.53522452e-02, 1.19043952e-02, -2.98536923e-02, -5.73966047e-03, -1.67319309e-02},
   {-1.58886276e-02, 2.18699370e-02, -8.14728905e-03, -4.42325836e-03, -1.06299976e-02},},

  {{-2.93414276e-02, 1.63369952e-03, -9.31188557e-03, 9.84316692e-03, -2.03832183e-02},
   {-2.86436221e-03, -3.02336807e-03, -2.88518122e-03, -5.10163466e-03, -4.59905807e-03},
   { 3.63094825e-03, -1.96560984e-04, 4.40313961e-05, -7.52733415e-03, 6.16049860e-03},
   { 3.19158705e-03, -1.68797616e-02, 1.10282348e-02, -1.11606000e-02, -1.20892320e-02},
   { 1.26366485e-02, -2.31696945e-02, 2.10267268e-02, 7.74845434e-03, 9.50113032e-03},},

  {{ 8.82413704e-03, 5.52160013e-03, 1.29597057e-02, 2.78561171e-02, 9.73651092e-03},
   { 1.14123092e-03, -9.83959436e-03, -1.09551270e-02, -4.51052794e-03, 4.29660175e-03},
   { 1.51465088e-02, 7.74589600e-03, -2.75195278e-02, 7.00962171e-03, 2.93525252e-02},
   {-2.12929258e-03, -1.47186569e-03, -3.43086720e-02, 1.73276179e-02, 1.26038240e-02},
   {-1.30888785e-03, -1.02574499e-02, 6.83533074e-03, 6.31978316e-03, -1.58605035e-02},},

  {{-8.57271999e-03, -1.38265388e-02, 8.29358865e-03, 1.96866635e-02, 2.13625329e-03},
   { 1.43148033e-02, -7.27339089e-03, -8.04695953e-03, 2.43450515e-03, 7.81884883e-04},
   {-3.44698760e-03, 1.00689856e-02, 1.19205583e-02, 4.32577170e-02, 1.00515606e-02},
   {-8.76011420e-03, 2.01698132e-02, 5.93533041e-03, 2.87347399e-02, -1.61673815e-05},
   {-3.56303249e-03, 2.18026172e-02, -1.53761916e-02, -9.21958010e-04, -1.45287635e-02},},

  {{ 4.88827238e-03, 2.74569895e-02, 5.74663002e-03, 1.06621161e-02, -6.64240972e-04},
   {-9.17709060e-03, 2.13906374e-02, 1.18296016e-02, 4.21561068e-03, 1.79765671e-02},
   { 7.94160087e-03, -9.00314469e-03, 2.38371524e-03, -6.95034210e-03, 1.60606056e-02},
   { 4.74524498e-03, -1.79487839e-02, 1.05040455e-02, -1.95748713e-02, 4.86940378e-03},
   { 1.61653906e-02, 3.72957380e-04, 3.81215382e-03, -5.39972505e-04, -1.18499985e-02},},

  {{ 1.47169773e-02, 9.27637890e-03, -9.01266001e-04, -5.96083608e-03, -1.47303368e-03},
   { 8.04609898e-03, 9.70036164e-03, -3.57016036e-03, -1.90240499e-02, -6.62528817e-03},
   { 1.36650121e-03, 2.30560042e-02, -3.25252227e-02, 1.47928076e-04, -4.59238328e-03},
   {-9.74505674e-04, 1.23044131e-02, 2.20309990e-03, -1.55873713e-03, 1.10120075e-02},
   { 4.75880411e-03, -1.54335424e-02, 1.96900461e-02, 1.96799412e-02, -3.96595756e-03},},

  {{-1.81354024e-02, -1.61633489e-03, 1.37530314e-02, -5.76672668e-04, -1.33727398e-02},
   {-8.23904574e-03, 1.67710055e-02, -6.03562407e-03, -6.12823619e-03, -6.29976625e-03},
   { 1.51676172e-02, 4.08343822e-02, 2.01311405e-03, -6.35421660e-04, 1.54972477e-02},
   {-7.15405098e-04, -1.42270504e-02, 6.80972356e-03, -1.33133885e-02, -1.33102778e-02},
   {-4.87221900e-04, -1.00585539e-03, -1.74493305e-02, -6.29086047e-03, 9.39704385e-03},},

  {{-1.54387141e-02, 6.24820311e-03, 1.19337877e-02, -8.03385209e-03, -8.41707643e-03},
   { 1.57891475e-02, 3.05742491e-03, 8.27013887e-03, 1.41071621e-02, -1.86887674e-03},
   {-9.86755639e-03, -7.67692132e-03, 1.25211738e-02, -7.72138592e-03, -1.37493368e-02},
   {-7.23329186e-03, 1.40687563e-02, -1.35510452e-02, -9.64769255e-03, -2.01565996e-02},
   { 1.23181203e-02, 2.23595574e-02, -2.23359857e-02, -1.29125221e-02, -4.01698425e-03},},

  {{-2.18572319e-02, 5.01679489e-03, 2.64487490e-02, -1.54417092e-02, -6.71449210e-03},
   { 5.94901103e-05, -1.36246840e-02, 1.64616518e-02, 8.65496520e-04, 1.26213674e-02},
   { 6.76870765e-03, -2.00701202e-03, -5.56387240e-03, -1.63410176e-02, 6.96156174e-03},
   { 2.17945278e-02, 4.78714937e-03, -3.56023498e-02, -1.07096992e-02, -1.05397692e-02},
   { 2.61242054e-02, 5.07847685e-03, -5.81168744e-04, 1.24992384e-02, -6.34151185e-03},},},


 {{{-1.40535543e-02, 4.49981820e-03, 1.34007921e-02, 3.30592468e-02, 1.10479807e-02},
   { 1.00303683e-02, 3.57591826e-03, 7.51763815e-03, 2.58664731e-02, 1.44970091e-02},
   { 5.87126613e-03, -1.94951110e-02, 1.36726201e-02, -1.44583136e-02, 5.34595409e-03},
   { 9.22328420e-03, 2.34601703e-02, -9.32172639e-04, -3.07335332e-03, 9.61082871e-04},
   { 6.17203303e-03, 1.45923253e-02, -2.81293206e-02, 2.75675766e-03, -1.05893686e-02},},

  {{ 2.45893653e-03, -5.85323013e-03, -7.31247151e-03, 6.52522547e-03, 2.56514400e-02},
   { 1.57630332e-02, -2.99554281e-02, -1.45151769e-03, -1.26180639e-02, 2.75797187e-03},
   { 3.21839890e-03, -6.59143040e-03, 1.33859469e-02, -1.64643163e-03, 2.02449597e-02},
   { 4.17879317e-03, 9.04416107e-03, -3.22114024e-03, 9.03731771e-03, 2.59032119e-02},
   { 1.31544573e-02, 3.39991450e-02, -1.63911432e-02, -6.35899417e-03, -1.36456909e-02},},

  {{-1.43949466e-03, -3.03989416e-03, -1.81542281e-02, -3.55521729e-03, -7.54855247e-03},
   {-1.81411710e-02, -8.74268170e-03, 3.45621146e-02, -2.53139455e-02, -1.05368802e-02},
   {-5.39873075e-03, 4.02020570e-03, -7.74279376e-03, -2.91691478e-02, -1.99859776e-02},
   { 1.68361161e-02, -4.35577659e-03, -2.80267354e-02, 3.45701189e-03, -1.26123624e-02},
   { 9.36224777e-03, -9.43163782e-03, -2.76349578e-02, 1.14856809e-02, 9.06345341e-03},},

  {{ 4.43989970e-03, -2.02661264e-03, -9.88254440e-04, 9.90187842e-03, 3.52008850e-03},
   { 1.15817664e-02, 8.03113542e-03, 2.24373601e-02, 7.64068682e-03, 9.30244382e-03},
   { 2.35935469e-04, 1.98117681e-02, 4.11167694e-03, -1.06113479e-02, -9.52752214e-03},
   {-1.14759838e-04, 2.90970895e-02, 2.58244155e-03, 3.96504905e-03, -2.71723792e-02},
   {-2.46723555e-03, 2.78338767e-03, 3.37529182e-03, -4.53581987e-03, -9.12252162e-03},},

  {{ 1.57174189e-02, 5.33044385e-03, -3.00867809e-03, -1.63448062e-02, 6.37218123e-03},
   {-2.10567061e-02, 5.81208384e-03, 3.22383665e-03, -7.09065236e-03, -5.69656771e-03},
   { 2.64582671e-02, -7.49264145e-03, -2.65486557e-02, 1.72876585e-02, 1.88826658e-02},
   { 2.65307222e-02, -1.34464335e-02, -9.07255895e-03, 1.59445200e-02, 1.64313018e-02},
   {-4.17412538e-03, -1.44217890e-02, -1.99472113e-03, 1.76711548e-02, 2.00733319e-02},},

  {{ 6.18452625e-03, -4.94007813e-03, 2.27377079e-02, 1.12962602e-02, -1.43727725e-02},
   { 6.99318200e-03, 9.84230172e-03, -6.98311767e-03, -2.83295964e-03, 9.76844504e-03},
   { 3.46374768e-03, 4.50908625e-03, 1.50318136e-02, -2.83812080e-03, 1.29910493e-02},
   { 1.74454506e-02, 7.21618673e-03, -1.29248993e-02, -4.98620048e-03, -3.06644943e-02},
   {-1.74853031e-03, 1.75071030e-03, 4.14121570e-03, -3.94463865e-03, 5.55820810e-03},},

  {{ 2.36954410e-02, 2.69249338e-03, 6.48009498e-03, 1.18072229e-02, -6.99047977e-03},
   { 1.35509698e-02, -6.62553357e-04, -8.91181640e-03, 4.71129036e-03, 2.93252226e-02},
   { 2.31968844e-03, 3.67429317e-03, -2.74372473e-02, 1.55345099e-02, 1.28781255e-02},
   {-4.16275254e-03, 1.23804696e-02, -1.79110039e-02, 2.21106107e-03, -2.76028481e-03},
   {-1.36718177e-03, 4.92415903e-03, 2.02460438e-02, -2.77302451e-02, -5.00064576e-03},},

  {{ 2.06439476e-02, -1.48255914e-03, 9.98346135e-03, 1.03149442e-02, -1.50236732e-03},
   { 4.14314773e-03, -6.15412649e-03, -1.40280798e-02, -1.97499469e-02, 4.71983710e-03},
   {-9.15594958e-03, 2.21336470e-03, 3.20174508e-02, -3.07243504e-02, 2.77407970e-02},
   {-8.15703068e-03, 4.26693063e-04, 3.56095508e-02, 2.97393766e-03, 8.12120549e-03},
   { 9.88113508e-03, 1.94411892e-02, 6.00839825e-03, -2.04898156e-02, 3.29960976e-03},},

  {{ 1.05496012e-02, -2.04785410e-02, -1.44759305e-02, -2.38363585e-03, 1.48314831e-03},
   { 2.12096400e-03, -1.69775225e-02, 7.06966780e-03, 4.98843100e-03, 5.86395711e-03},
   { 7.48206349e-03, -6.96315011e-03, 1.87532939e-02, 9.30095557e-04, -5.20795677e-03},
   {-7.51141272e-03, -4.27936111e-03, 2.59061381e-02, 1.18178846e-02, -1.83036868e-02},
   {-9.44987033e-03, -1.17070153e-02, -6.10025087e-03, 1.10412517e-03, -8.51500779e-03},},

  {{ 8.04743823e-03, -3.42238275e-03, -1.06425639e-02, 1.16298674e-02, -7.90524110e-03},
   {-6.52235886e-03, 9.47608263e-04, 5.94079308e-03, 3.57248308e-03, 1.04298154e-02},
   {-1.50351934e-02, -4.23513213e-03, -2.59052832e-02, 1.59865506e-02, 3.72880441e-03},
   { 1.67722981e-02, -2.28804024e-03, -1.26220910e-02, -1.07104778e-02, -1.28231272e-02},
   { 2.48720963e-03, 1.08775923e-04, -1.21667776e-02, -1.25917904e-02, -1.08256927e-02},},

  {{-1.77186122e-03, -1.31930169e-02, 1.55669427e-03, -1.53989485e-02, -3.85294645e-03},
   {-7.52137089e-03, 1.06723886e-02, -5.80181554e-03, -1.17043834e-02, 3.41670122e-03},
   { 3.71667114e-03, 1.02582267e-02, -1.18174497e-03, 1.05713937e-03, 1.24686013e-03},
   { 4.31291526e-03, 1.38791837e-02, -2.12138593e-02, 2.05261167e-03, 9.05676186e-03},
   {-6.68177148e-03, -7.93517288e-03, 7.15389941e-03, 1.06698582e-02, -1.26573481e-02},},

  {{-1.10503016e-02, -5.71665075e-03, 1.81765121e-03, 6.28620479e-03, 8.32891185e-03},
   {-9.73539893e-03, 2.17671450e-02, -1.51086533e-02, -1.70450732e-02, -9.54317302e-03},
   {-1.62019059e-02, -3.48156653e-02, -3.23093799e-03, 2.61484347e-02, -6.29492477e-03},
   {-6.40749373e-03, -8.59177019e-03, 1.46074835e-02, 1.06465239e-02, -1.45448977e-02},
   {-1.48085225e-02, -1.46533558e-02, 5.62723866e-03, 1.72537602e-02, 8.45802855e-03},},

  {{-1.58066358e-02, 1.28441548e-03, 1.03107858e-02, -4.93492279e-03, -6.22339686e-03},
   {-8.65368289e-04, 1.53083575e-03, -1.96801145e-02, -2.80869892e-03, -1.05032427e-02},
   {-2.77670790e-02, 1.54956337e-03, -2.36069821e-02, -2.07072180e-02, -5.98658295e-03},
   {-2.29165927e-02, 9.65957344e-03, 2.60272045e-02, -1.63511299e-02, -2.52841637e-02},
   { 1.72707047e-02, 1.16899293e-02, 6.46440452e-03, -2.05265414e-02, -1.72928553e-02},},

  {{-1.42873786e-02, 4.26805951e-03, 2.77538435e-03, 2.26478204e-02, 1.84142060e-04},
   { 8.27527884e-03, 3.85079370e-03, 1.02900052e-02, 7.34141748e-03, -4.05935757e-03},
   { 9.20254551e-03, -2.31521167e-02, 5.06492192e-03, -7.82818813e-03, -9.24288761e-03},
   { 1.02643250e-02, -1.88800581e-02, 3.36025003e-03, 2.13266220e-02, -1.07630659e-02},
   {-7.93301780e-03, 1.72841251e-02, 1.10043855e-02, -2.33024526e-02, -2.79140752e-03},},

  {{ 1.32355811e-02, -3.31435376e-03, 1.21175721e-02, -3.96260899e-03, -6.02653762e-03},
   {-1.05340825e-02, 9.79041914e-04, 1.96654089e-02, -1.66120362e-02, 6.41843583e-03},
   {-1.62768010e-02, -7.31458058e-05, -4.37050439e-05, -8.00230261e-03, -1.16685720e-03},
   { 1.16746975e-02, 1.37264049e-02, -9.66848340e-03, -8.31283070e-03, 1.80382244e-02},
   {-8.47783778e-03, 8.27250129e-04, -1.49753373e-02, -2.64829258e-03, -1.22973137e-03},},

  {{ 7.01135863e-03, -5.16773155e-03, 5.40004752e-04, -6.94871321e-03, -2.58255005e-03},
   {-6.07546140e-03, 7.86006078e-03, 1.03248265e-02, -3.21702659e-03, -3.88489151e-03},
   {-9.95411538e-03, 1.47918341e-04, -9.90788825e-03, -2.77635315e-03, 3.10107339e-02},
   {-2.03730296e-02, 1.66879082e-03, -8.87023192e-03, 8.22433177e-03, 1.42249288e-02},
   { 1.15383752e-02, 4.17829119e-03, -4.69277520e-03, 5.62033849e-03, 5.66176372e-03},},},


 {{{-2.32024980e-03, 1.41640205e-03, 7.94562139e-03, -8.57163966e-03, 1.45252431e-02},
   { 2.03942740e-03, -1.44369211e-02, -1.62374191e-02, -8.11370276e-03, -8.28623958e-03},
   { 2.80922931e-03, -5.47319045e-03, 7.45792594e-03, -1.56212260e-03, -1.14098275e-02},
   { 2.47435141e-02, -2.10769940e-02, 7.53256201e-04, -1.89360915e-04, 1.51351960e-02},
   {-8.29642825e-03, 1.71654187e-02, 9.89380851e-03, -2.88697239e-03, 9.27972980e-03},},

  {{ 6.25500455e-03, 7.55787129e-03, -2.42870371e-03, -2.34919298e-03, 1.16319992e-02},
   {-2.13944539e-03, 7.23753357e-03, -1.61691159e-02, 1.00158183e-02, 3.30045223e-02},
   { 1.58937387e-02, 9.80271120e-03, -1.33632366e-02, -1.00798095e-02, -5.41332504e-03},
   {-6.55333558e-03, -1.67048480e-02, 5.90786384e-03, 1.20716784e-02, -2.99693947e-03},
   { 3.24793346e-03, 9.14956816e-03, -1.48108676e-02, 1.87989585e-02, 2.27557030e-03},},

  {{ 2.86742346e-03, -1.38874799e-02, 1.15860272e-02, 5.30941179e-03, -9.20393877e-03},
   {-1.12560894e-02, 6.43275352e-03, -7.87324179e-03, -1.49574038e-02, 1.57829188e-03},
   { 1.58721034e-03, -6.35717297e-04, -1.08934641e-02, 1.67649321e-03, -1.23179448e-03},
   {-7.47682573e-03, 5.31990780e-03, -5.19389100e-03, 2.45493203e-02, 2.58060498e-03},
   { 1.71546470e-02, -4.34178114e-03, -5.41804777e-03, 1.32694095e-02, 1.11675328e-02},},

  {{-2.97553116e-03, 9.46152117e-03, -1.87618062e-02, 5.08664816e-04, 6.72225747e-03},
   {-3.11402509e-05, -3.89215630e-03, -1.56776365e-02, -6.20975904e-03, 1.27895847e-02},
   { 2.99590756e-03, -5.69519470e-05, -6.64961850e-03, 5.46676014e-03, 1.55217554e-02},
   { 1.32576481e-03, 1.40131945e-02, -1.38991140e-02, -1.09030278e-02, 9.75676253e-03},
   { 1.76744722e-03, -4.73833596e-03, -2.00733915e-03, -8.46879929e-03, -1.10132229e-02},},

  {{ 5.18021733e-03, 1.91421881e-02, 2.02557747e-03, 3.33192982e-02, 5.51138830e-04},
   {-1.59135461e-02, -6.32994808e-03, 6.63894834e-03, 4.24411008e-03, 3.10074305e-04},
   {-2.69539654e-03, 4.72337985e-03, 5.37023833e-03, -9.83020198e-03, 1.19099412e-02},
   {-1.27612567e-02, -7.47759407e-03, 1.14949478e-03, -7.60941068e-03, -1.82790440e-02},
   {-1.36858560e-02, 1.83038618e-02, -6.73734723e-03, 5.46810916e-03, -2.76392084e-02},},

  {{ 4.68411203e-03, -9.86770634e-03, -1.97143294e-02, -2.14880402e-03, 1.31617598e-02},
   { 1.01701627e-02, -1.73060354e-02, -1.87012479e-02, -6.07125554e-03, -2.36106738e-02},
   {-6.17624959e-03, -1.25158662e-02, 8.12661182e-03, 5.06171444e-03, -2.87325354e-03},
   { 1.30119631e-02, -7.09173735e-03, 4.13183263e-03, -2.91139679e-03, 1.15751745e-02},
   { 7.71637354e-03, 1.85744390e-02, -7.03157531e-03, 2.47526750e-05, -1.17503228e-02},},

  {{-1.34398304e-02, 1.01924175e-02, -2.33937465e-02, -1.01465378e-02, 1.50132168e-03},
   {-3.28209158e-03, 2.62977853e-02, 4.12056409e-03, 2.55838456e-03, -9.99864307e-04},
   {-1.70449959e-03, 3.38781392e-03, -1.15817320e-02, -2.65860837e-03, -6.25680992e-03},
   {-8.01440794e-03, -1.04956720e-02, -1.20127428e-04, 4.36879601e-03, 1.17690796e-02},
   {-5.56652807e-03, 3.12552927e-03, 5.25379274e-03, 2.07851268e-02, -3.50718386e-04},},

  {{-4.28908691e-03, -1.30098239e-02, 1.29534844e-02, -1.52552815e-03, -1.44145945e-02},
   { 1.39501197e-02, -8.29487387e-03, 3.25421942e-03, -3.12151434e-03, 3.24424380e-03},
   {-6.71811728e-03, -1.08643062e-02, -6.79604569e-03, -1.41654452e-02, 1.65903475e-02},
   {-4.44869604e-03, -1.08139282e-02, 1.59426294e-02, -7.52550550e-03, 1.76396109e-02},
   {-1.24834667e-04, -2.05858052e-02, -9.65599716e-03, -1.36433346e-02, 3.22512770e-03},},

  {{ 2.72745104e-03, -1.26935802e-02, -1.26751987e-02, 1.51217455e-05, 2.18195859e-02},
   {-1.72151439e-02, -1.50421774e-02, -5.73495682e-03, -1.49205851e-03, 7.14758586e-04},
   {-7.73264188e-03, -1.62623711e-02, -6.40422571e-03, -1.29773924e-02, -9.66933370e-03},
   {-1.35037573e-02, 1.08806342e-02, -7.79558765e-03, -1.21668261e-03, -3.32337292e-03},
   { 2.54736794e-03, 5.00120269e-03, -5.91516076e-03, -7.34459748e-03, -1.18196849e-02},},

  {{ 1.60890259e-02, -2.19409866e-03, 1.23434626e-02, -1.48192979e-03, -4.78357775e-03},
   {-1.14194518e-02, -7.00228708e-03, 2.23471341e-03, 2.57795453e-02, 2.30316110e-02},
   { 5.01916371e-03, -6.59648795e-03, 4.15144372e-04, 1.13268467e-02, -2.14547105e-02},
   { 7.83639587e-03, -1.76195358e-03, -3.22137756e-04, 1.97272748e-02, 5.05469448e-04},
   { 1.28922453e-02, 9.04967892e-04, 8.40710755e-03, -4.41782316e-03, -4.09518927e-03},},

  {{-1.82559397e-02, 4.76180250e-03, 7.54829822e-03, 5.46059664e-03, 8.37962888e-03},
   { 3.37325362e-03, -4.04905155e-03, 4.83637769e-03, 8.96863732e-03, 1.30274286e-03},
   {-3.99783766e-03, -5.73382247e-04, 9.71224252e-03, -2.45813462e-05, -9.63412342e-04},
   {-1.16786500e-02, -9.95398406e-03, -5.60107641e-04, -1.15774311e-02, -1.47967953e-02},
   {-1.49805835e-02, -1.37872007e-02, 9.85227339e-03, 5.65600465e-04, 1.62240844e-02},},

  {{ 8.98106396e-03, -1.25399632e-02, 2.50477111e-03, 3.99759556e-05, 1.13946376e-02},
   {-7.57534755e-04, -1.11699896e-02, 6.92243269e-03, -1.83032677e-02, 7.16546550e-03},
   {-8.85393657e-03, 6.40566833e-03, 8.57355259e-03, -5.56631386e-03, 1.37579022e-03},
   { 1.56361877e-03, 4.80574975e-03, 1.03529263e-02, -1.94335030e-03, 6.62971614e-03},
   { 1.05153946e-02, 7.37121271e-04, -1.51865827e-02, 8.25029332e-03, 5.70118520e-03},},

  {{-1.26835220e-02, 2.25702510e-03, 7.03396602e-03, -1.06453653e-02, -1.29741905e-02},
   { 2.62779137e-03, -6.55919919e-03, -1.00183357e-02, -1.38939172e-02, 6.37606112e-03},
   { 7.82426167e-03, -6.45874627e-03, -4.45630169e-03, 1.12351924e-02, 3.80260795e-02},
   { 1.17616048e-02, -2.14189035e-03, 2.37853918e-03, -9.88878528e-05, -4.42115590e-03},
   { 6.71167567e-04, 8.06208700e-03, -1.19848968e-02, -4.40928107e-03, -1.05379652e-02},},

  {{ 9.07375710e-04, 9.61434096e-03, -1.25761190e-02, 4.24608542e-03, -1.62536111e-02},
   { 2.21333187e-03, -1.78773869e-02, 5.98716200e-04, -4.55788150e-03, -5.84520167e-03},
   {-1.25858735e-03, -3.92907439e-03, -1.15741361e-02, 7.37436349e-04, 2.15829420e-03},
   {-1.10635161e-02, -1.35706933e-02, -1.03525864e-02, -1.60061121e-02, 3.46961175e-03},
   { 2.07381236e-04, 6.58565387e-03, 3.32994550e-03, -8.35242681e-03, 6.14587311e-03},},

  {{-8.80830828e-03, 2.19071563e-02, -1.29209347e-02, 3.93050397e-03, -1.05322273e-02},
   {-3.05385869e-02, 3.81887401e-03, -1.66307110e-02, -3.21751664e-04, 3.18372133e-03},
   {-2.61768233e-03, -1.13173323e-02, -5.84308570e-03, -5.40587935e-04, 1.32053364e-02},
   {-8.20838753e-03, 6.39060629e-04, -5.71294362e-03, 1.33038340e-02, -7.47743156e-03},
   { 5.02987392e-03, -1.92243848e-02, 1.53634744e-03, 1.59579385e-02, 1.30864826e-03},},

  {{ 1.03475191e-02, -6.56341622e-03, 1.21764354e-02, 3.87750473e-03, 1.02898967e-03},
   {-1.89634622e-03, 1.40603557e-02, 3.06923897e-03, 7.33355701e-05, 2.38227658e-03},
   { 1.90089142e-03, -9.92305297e-03, -2.85895308e-03, -6.38215616e-03, 9.38748382e-03},
   {-6.56772079e-03, -7.96529930e-03, -1.09775746e-02, -2.59406818e-03, 1.32353650e-03},
   {-5.57680009e-03, 4.03971178e-03, 6.03648694e-03, 1.11825196e-02, 6.70123706e-03},},},


 {{{ 1.34981908e-02, -6.21243333e-03, 4.74932510e-03, 5.58223901e-03, 1.93025526e-02},
   { 8.08082987e-03, -3.05449567e-03, 1.31117254e-02, -6.72253268e-03, 9.56001319e-03},
   { 1.11522079e-02, -1.64611712e-02, -4.96295188e-03, 3.84488665e-02, 2.42337165e-03},
   { 1.67968567e-03, -2.66835256e-03, -1.53745003e-02, 1.86780430e-02, 1.11740278e-02},
   { 2.28243638e-02, -1.70431926e-03, -6.08948199e-03, -2.74619460e-03, 1.66093446e-02},},

  {{ 5.29753463e-03, 1.24383122e-02, 5.96193876e-03, -1.37081072e-02, 1.02745369e-02},
   { 1.69966789e-03, -9.91949579e-04, 1.47099728e-02, -6.28938340e-03, -4.23430419e-03},
   {-9.69788153e-03, 1.29336119e-02, 2.81538791e-03, -1.22281788e-02, -6.33556163e-03},
   { 2.96676587e-02, 4.39505512e-03, -1.69392955e-02, 7.80791556e-03, 7.44022196e-03},
   { 3.38143148e-02, 3.51090096e-02, -1.78727973e-02, 3.64347594e-03, 5.06138848e-03},},

  {{ 2.38243528e-02, 1.49536030e-02, 1.77445298e-04, -3.35879512e-02, -1.32328663e-02},
   { 1.63391512e-02, 1.68511514e-02, -2.80107409e-02, -2.12126300e-02, -1.78743824e-02},
   { 1.67237781e-02, 7.96545856e-03, 3.64580355e-03, 6.59971032e-03, 8.28069355e-03},
   { 3.10219247e-02, -1.10869529e-02, -3.08599398e-02, 1.85569189e-02, 4.07856610e-03},
   { 1.16707971e-02, -2.31430661e-02, -2.40890719e-02, -4.09235340e-03, 6.98061101e-03},},

  {{-9.65405925e-05, 1.41971279e-03, 1.26135191e-02, -1.05363887e-03, 4.85523138e-03},
   { 3.38215125e-03, -3.83796659e-03, -1.65597443e-02, -1.43596614e-02, -5.06088091e-03},
   {-3.05421860e-03, 3.04847187e-03, -7.33151799e-03, 5.70434553e-04, -8.70480388e-03},
   {-1.16935745e-02, -1.11756921e-02, 4.46041953e-03, 3.77778360e-03, -4.32816742e-04},
   { 2.13034470e-02, -8.03294126e-03, -8.70991405e-03, 2.36837403e-03, 9.58162546e-03},},

  {{-1.80232283e-02, -1.36576500e-02, 5.39154396e-04, -9.44338739e-03, 8.79600702e-04},
   {-4.95088845e-03, 9.66043444e-04, -1.17526762e-02, 3.87452939e-03, 2.46290118e-03},
   {-3.32199107e-03, 1.31791309e-02, -1.72418915e-03, 5.62158553e-03, 1.43833458e-03},
   {-4.83151386e-03, 3.20254490e-02, -5.36582340e-03, -2.37134960e-03, 1.34626869e-02},
   { 1.32676410e-02, 1.28135104e-02, 1.03747577e-03, -3.64851463e-03, 6.96851825e-03},},

  {{-6.50300458e-03, 1.24983070e-02, 1.56396581e-03, -4.84062219e-03, 6.77428301e-03},
   {-7.77540356e-03, 1.08731920e-02, 1.20889628e-02, -2.06973846e-03, -1.36035662e-02},
   { 6.26203429e-04, -3.84401157e-03, -1.22222835e-02, 2.04202048e-02, -1.78549141e-02},
   { 4.45565162e-03, -7.47216586e-03, 3.51943588e-03, 1.41819781e-02, 2.01367289e-02},
   { 1.86847579e-02, -6.90183789e-03, -7.35188788e-03, 4.45628865e-03, -9.17942543e-03},},

  {{-9.68458410e-03, -2.13061217e-02, 1.36511084e-02, 1.82983913e-02, -6.00728905e-03},
   {-7.76817882e-03, -8.27092270e-04, -3.25494120e-03, 1.48453191e-02, 7.39629660e-03},
   {-2.24713963e-02, 4.55171708e-03, 4.40634415e-03, 6.51597604e-03, 1.17210241e-03},
   {-2.88210101e-02, 1.67919474e-03, 2.01275814e-02, 7.06363888e-03, 6.60219183e-03},
   {-5.73855732e-03, 2.28302125e-02, 4.61180396e-02, 1.03322752e-02, -9.16222669e-03},},

  {{-2.29771901e-03, -4.76517435e-03, -8.49151611e-03, -3.92319867e-03, -2.41898582e-03},
   {-1.84179307e-03, -1.46635892e-02, 5.05607296e-03, 4.78449417e-03, -6.35288656e-03},
   {-1.64996572e-02, -1.89860351e-02, -1.35729630e-02, 1.43851191e-02, 2.20273435e-03},
   {-1.74496900e-02, -1.53715974e-02, -9.93254408e-03, 1.74210835e-02, -8.51203396e-04},
   { 3.23805772e-02, 1.81507450e-02, -1.41432509e-02, 1.28072547e-02, -2.66503892e-03},},

  {{-9.53306723e-03, 3.84097511e-04, -5.34822047e-03, 9.40034445e-03, -4.47627204e-03},
   {-2.46119965e-03, -1.68434773e-02, 9.85542219e-03, 6.07875315e-03, 1.90854669e-02},
   { 5.43722790e-03, -1.14006568e-02, -9.70591034e-04, 5.18061873e-03, 8.02031159e-03},
   {-9.42499319e-04, 1.17730293e-02, 5.89815946e-03, 7.88006280e-03, 4.78166249e-03},
   { 9.34338570e-03, -9.27583408e-03, -1.36614777e-03, -1.56575534e-02, -7.82476366e-03},},

  {{ 1.58525370e-02, -2.55848910e-03, 1.83289386e-02, 4.43673367e-03, -8.36472586e-03},
   {-3.81575222e-03, -1.12824468e-02, -7.21935043e-03, 1.16724512e-02, 1.14694927e-02},
   {-2.31838413e-02, -4.60922206e-03, 1.09682810e-02, -1.51981888e-02, -1.22792122e-03},
   {-6.62270281e-03, 9.07510146e-03, -3.96597432e-04, -2.38534692e-03, -2.45707692e-03},
   { 2.08665170e-02, 8.97182897e-03, -1.23921456e-02, 6.33885525e-03, 6.11468498e-03},},

  {{-1.14366282e-02, 6.33038627e-03, -1.44827096e-02, -8.36517941e-03, 6.53982069e-03},
   { 1.60522480e-02, 4.78903996e-03, -6.39877608e-03, 1.91820674e-02, -8.18240363e-03},
   {-2.46898714e-03, -2.43300528e-04, -1.90619901e-02, -1.57121010e-02, -6.04314264e-03},
   { 3.10520013e-03, 2.57268013e-03, -2.47050654e-02, -8.32398515e-03, -1.62951630e-02},
   { 3.93921835e-03, -1.15898401e-02, 2.15154067e-02, 1.73232798e-02, 1.82264913e-02},},

  {{ 1.58286467e-02, -1.67967491e-02, -5.45985298e-04, 5.56693471e-04, 8.13368987e-03},
   { 1.20360507e-02, 3.87372682e-03, 1.23732612e-02, -1.38840936e-02, -1.76660828e-02},
   {-6.01351541e-03, -1.16892094e-02, 8.48146807e-03, 1.54014798e-02, -1.30138313e-02},
   {-4.55772551e-03, -8.68097693e-03, 1.82876326e-02, 2.21913215e-02, -1.62531354e-03},
   {-9.37960017e-03, -3.15479077e-02, -9.04783979e-03, 3.25340923e-04, 1.97473867e-03},},

  {{ 2.81874498e-04, -1.65337157e-02, -1.59697849e-02, 1.57935321e-02, -1.16035268e-02},
   { 6.35882095e-03, 4.12838890e-05, 1.80591975e-04, 1.33065321e-02, 2.18299869e-02},
   {-2.47458108e-02, -2.30820547e-03, 2.05906313e-02, 6.48594787e-03, -1.19403540e-03},
   {-3.00424313e-03, -5.35302470e-03, 3.78959738e-02, 1.61171351e-02, 1.99321727e-03},
   {-8.50290339e-03, 1.87265500e-02, 1.44189969e-02, -7.32615404e-03, 4.82491218e-03},},

  {{ 7.66813010e-03, -3.24683194e-03, -2.15330273e-02, -3.28433998e-02, -1.63329747e-02},
   { 6.23851491e-04, 7.37201981e-03, -7.14518782e-03, -2.70306002e-02, 9.49563226e-04},
   {-2.36292947e-02, -7.07209855e-03, 7.36687984e-03, 1.71350352e-02, 2.20213830e-02},
   {-1.16741247e-02, -4.51604836e-02, -1.18023832e-03, -3.51761864e-03, 2.05116924e-02},
   { 1.00880479e-02, -1.19264973e-02, -1.45807676e-02, 6.40485669e-04, 1.18366973e-02},},

  {{-1.77288242e-02, -1.29504164e-03, -1.80215649e-02, -2.09993054e-03, -8.27263109e-03},
   {-1.08903339e-02, 4.44447855e-03, 2.30106916e-02, 1.21475197e-02, -1.07417116e-02},
   { 1.12733571e-02, -7.71918567e-03, 2.03321707e-02, -7.82993902e-03, 2.08975412e-02},
   { 1.30384862e-02, 1.27016418e-02, -2.50223298e-02, -7.68337958e-03, 7.54165044e-03},
   { 3.96128260e-02, 2.82457186e-04, -1.10819070e-02, 6.23882655e-03, 3.82278580e-03},},

  {{-1.09766880e-02, -6.45879051e-03, 6.95909327e-03, 9.91727458e-04, -3.86516005e-03},
   { 4.27771686e-03, -6.72607275e-04, -2.36122403e-03, -2.80521181e-03, 9.31640249e-03},
   { 4.73124301e-03, -7.08053075e-03, 2.23467220e-03, 7.28628784e-03, 1.91035047e-02},
   { 1.28575144e-02, -3.16227856e-03, -1.14464611e-02, 4.93095443e-03, 1.22034769e-04},
   { 2.37323251e-02, -2.84842844e-03, 4.57102573e-03, -1.59160346e-02, 1.22145582e-02},},},


 {{{ 1.85656396e-03, 1.07500814e-02, -8.30967259e-03, -1.01029524e-03, -1.29441451e-03},
   { 2.54229479e-03, 1.78107414e-02, 1.47435237e-02, -1.64481520e-03, -2.03507468e-02},
   {-8.69484711e-03, -9.23312642e-03, 1.40159503e-02, 1.39397364e-02, 1.27683906e-03},
   {-6.41874503e-03, 4.78070835e-03, 1.75049936e-03, 5.63717773e-03, -1.71055160e-02},
   {-4.45037335e-03, 4.67403792e-04, -3.81210702e-03, -4.97993501e-03, 7.74593616e-04},},

  {{-1.59548037e-02, 5.06823091e-03, 9.58212186e-03, -2.19487939e-02, 1.06641091e-03},
   { 3.07726976e-03, -3.15607735e-03, -1.40847908e-02, 7.73086352e-03, 1.47326360e-03},
   { 1.19053172e-02, 7.43775163e-03, 1.03736920e-02, -1.06678167e-02, 7.89523683e-03},
   { 1.20515667e-03, 6.47289635e-05, -6.61921920e-03, -2.31807493e-03, -2.33273171e-02},
   { 2.68752016e-02, -1.77229401e-02, -9.75272059e-03, -1.37746166e-02, -1.26922911e-03},},

  {{-6.18620496e-03, 4.90889279e-03, -1.08898198e-02, -1.61457974e-02, 4.87948942e-04},
   {-1.22902403e-02, -6.97472645e-03, 3.46518122e-03, 8.20243638e-03, 2.54377294e-02},
   { 9.25804023e-03, 1.67456977e-02, -1.22827608e-02, 5.16040437e-03, -4.22367593e-03},
   { 3.85103002e-03, 8.87620170e-03, 8.75214860e-03, -5.46326954e-03, -1.48417167e-02},
   { 9.32211522e-04, 2.05047475e-03, -8.30600911e-04, 4.81658801e-03, -9.13283601e-03},},

  {{ 2.94109713e-03, 1.16043771e-02, -4.58671944e-03, -2.33662408e-03, -1.00655071e-02},
   { 2.38280930e-02, -6.93104987e-04, -6.33202866e-03, 9.11834091e-03, -1.79757439e-02},
   { 1.34654464e-02, 1.47962673e-02, 3.67750903e-03, 3.69676785e-03, -2.48325407e-03},
   {-2.87850969e-03, -3.67954286e-04, -5.62806474e-03, -2.32643937e-03, -4.75831935e-03},
   {-3.15462938e-04, -5.56581328e-03, -4.78349766e-03, -1.38360134e-03, 2.24942830e-03},},

  {{-3.55916243e-04, -5.11092134e-03, -1.00635411e-02, 3.30341584e-03, 2.04518046e-02},
   {-1.96849904e-03, 8.50014295e-03, -1.26085607e-02, 5.53096971e-03, 3.60597740e-03},
   { 1.02662342e-02, 1.02116615e-02, 2.86000525e-03, -9.88020562e-04, -1.65389257e-03},
   { 8.72831370e-05, -2.12832051e-03, 4.08301177e-03, -8.27705208e-03, 7.50730233e-03},
   { 1.99524350e-02, 2.94167316e-03, -2.53114663e-03, -5.15752099e-03, 1.23893404e-02},},

  {{ 7.73031358e-03, 3.29294300e-04, -1.94483029e-03, 5.33694960e-03, 4.74559562e-03},
   { 4.06812178e-04, 4.25167009e-03, -3.61368596e-03, -3.93218175e-03, 8.86164606e-03},
   {-2.77681858e-03, 1.25693707e-02, -2.44623376e-03, 8.13755672e-03, -8.05363711e-03},
   {-1.54256809e-03, -1.50994156e-02, 8.11882596e-03, 3.99212725e-03, 1.24217542e-02},
   { 6.93033123e-03, -1.89929698e-02, 3.04367417e-03, 1.26616855e-03, -1.56959891e-02},},

  {{ 6.24820497e-03, -1.26991989e-04, -7.38889724e-03, -2.29293155e-03, -1.02307694e-02},
   {-1.28120696e-02, 4.28345241e-03, 6.44544838e-03, -5.94169833e-03, 4.52377461e-03},
   {-1.23469988e-02, 6.21448446e-04, 7.47978315e-03, -1.36977609e-03, -6.03868533e-03},
   { 2.15402283e-02, 2.99593364e-03, -1.77411884e-02, -3.60768725e-04, 1.91273564e-03},
   {-6.77845022e-03, 8.79647490e-03, -1.13614951e-03, 2.20142319e-04, 2.41860654e-03},},

  {{ 1.42614008e-03, 5.49367303e-03, -9.88938753e-03, -3.97984032e-03, -6.91682054e-03},
   {-4.09260532e-03, -3.79037345e-03, 2.22712080e-03, 4.50132601e-03, -7.32832728e-03},
   {-1.85923895e-03, -1.44677879e-02, -8.77121277e-03, -7.55939327e-05, 6.01523602e-03},
   {-1.29937399e-02, 5.41793508e-03, 8.34562257e-03, -2.31339247e-03, 2.74426071e-03},
   { 2.97340495e-03, 4.91298875e-03, 1.12093776e-03, 8.43885727e-03, -8.15017987e-03},},

  {{ 2.74209715e-02, 1.28110487e-03, -8.83451942e-03, -6.69357320e-03, 1.17697343e-02},
   { 9.90835577e-03, 4.01713280e-03, -4.79056558e-04, -1.20787602e-02, 9.66432784e-03},
   {-1.55681430e-03, -1.34224724e-02, 5.67307230e-03, -5.61934290e-03, 9.55034513e-03},
   { 7.98247475e-03, 3.04130884e-03, 1.15219662e-02, 8.64582509e-03, 2.45180260e-03},
   { 2.40474008e-02, 1.12715142e-03, -5.07955067e-03, 7.52928434e-03, 6.95443898e-03},},

  {{-5.66523196e-03, 4.49228770e-04, 1.44525943e-02, 2.09267158e-03, 3.16744926e-03},
   {-4.65315394e-03, -4.86990809e-03, -1.41438181e-02, -1.18883410e-02, 2.88331672e-03},
   {-3.85783776e-03, -3.50508909e-03, -5.90939401e-03, 1.12129364e-03, -1.13895722e-02},
   {-2.15313099e-02, 1.75647605e-02, -1.51039893e-03, 4.45343507e-03, -1.61065198e-02},
   {-6.02437824e-04, 6.44628610e-03, 2.34176754e-03, 9.60836932e-03, -1.82409510e-02},},

  {{ 1.00185471e-02, 2.76650973e-02, -1.39380926e-02, -6.71478861e-04, -3.40645318e-03},
   { 1.83952954e-02, -9.83274356e-03, -1.02491817e-02, -7.69823557e-03, 1.41085470e-02},
   {-3.73882730e-03, -2.11440492e-02, -7.74594024e-03, -1.84293557e-02, 1.19130528e-02},
   { 2.83717364e-02, -7.77821057e-04, 1.47599475e-02, 3.31068994e-03, 4.78196982e-03},
   {-1.19425450e-03, 4.13447944e-03, -4.08881548e-04, -2.13382561e-02, -5.85439708e-03},},

  {{ 7.25392997e-03, 7.69119186e-04, 5.36860665e-03, 2.89940764e-03, 2.11581774e-03},
   { 3.59239429e-03, -3.47282784e-03, 1.39992479e-02, 1.51440753e-02, 1.38754956e-02},
   {-1.11994091e-02, 7.39856018e-03, -7.17143854e-03, -4.26741270e-03, -5.87450759e-03},
   { 5.84652694e-03, 1.65476706e-02, 7.42091984e-03, -1.15531413e-02, 1.24628060e-02},
   { 6.66688953e-04, 3.07975337e-03, 4.40243544e-04, -5.04337344e-03, 2.55894219e-03},},

  {{-1.90261789e-02, -1.88845266e-02, 9.56246164e-04, -1.20189469e-02, 5.47370873e-03},
   { 8.75379890e-03, -1.27234971e-02, 1.12161227e-02, -6.75148657e-03, -1.72101874e-02},
   { 1.43440114e-02, 9.40454006e-03, 8.52000248e-03, 1.05074877e-02, -8.62641167e-03},
   { 5.58782043e-03, -2.80656898e-03, -2.44735274e-02, -6.20561326e-03, -1.49555202e-03},
   {-1.16603952e-02, 7.17801042e-03, 7.56217400e-03, -1.12798894e-02, 2.02389620e-05},},

  {{ 1.57622658e-02, 4.22559120e-03, 3.57073057e-03, 8.87765922e-03, 9.25941020e-03},
   { 1.34393747e-03, 2.75061605e-03, 1.36179915e-02, 2.14241751e-04, -1.91005562e-02},
   {-6.88387174e-03, 3.44054977e-04, 9.07047372e-03, 1.77218448e-04, 1.71614438e-02},
   { 1.03513375e-02, 9.01009887e-04, -5.50336624e-03, -2.08845246e-03, 5.64447662e-04},
   {-8.32403172e-03, -3.60932061e-03, -1.75627936e-02, -1.45072760e-02, -2.74776923e-03},},

  {{ 7.07916915e-03, -2.01303978e-02, 2.79460638e-03, -5.94687043e-03, -6.03351416e-03},
   { 2.41433992e-03, 1.23247635e-02, 1.27094453e-02, 1.12049831e-02, -3.17883934e-03},
   {-1.81706492e-02, -3.47757689e-03, -7.54518807e-03, 7.40710227e-03, -2.62000482e-04},
   {-1.19708013e-02, 3.22735822e-03, 4.04366571e-03, 1.46483500e-02, -1.38361435e-02},
   {-3.49982865e-02, 1.87808881e-03, -2.45396253e-02, 2.01802887e-03, 6.83808001e-04},},

  {{ 3.03659285e-03, -2.01182021e-03, -1.50471581e-02, -6.16401387e-03, 2.17144471e-02},
   {-3.46216955e-03, -4.56021959e-03, -5.06090524e-04, -2.15469510e-03, -1.16184261e-03},
   {-2.42138393e-02, 1.07663556e-03, 5.79288136e-03, 1.49512751e-04, -6.10953989e-03},
   { 4.56116442e-03, -1.45909553e-02, -3.21745686e-02, -1.86725594e-02, -8.02173838e-03},
   {-2.08460470e-03, -6.09675748e-03, -1.36845745e-03, 1.87321119e-02, 1.85377132e-02},},},


 {{{-2.45590438e-03, -1.09397303e-02, 7.94444792e-03, 3.15323323e-02, 9.82020516e-03},
   {-5.78140141e-03, 1.09941037e-02, 2.30534989e-02, 1.87057555e-02, -6.92320662e-03},
   {-6.21481193e-03, 2.40237289e-03, 1.77601464e-02, 8.12492275e-04, -5.03024794e-02},
   {-1.15512349e-02, -8.33210349e-03, 4.43521887e-03, -1.74169820e-02, -4.05856781e-02},
   {-2.53790300e-02, -8.45696311e-03, -6.91894302e-03, -1.65313333e-02, -7.27293035e-03},},

  {{-1.96239538e-03, -1.90280247e-02, 1.87378086e-03, -3.51366471e-03, -3.62739083e-03},
   {-6.05773320e-03, -2.77023809e-03, 1.87226385e-02, 1.99859235e-02, 5.63563686e-03},
   {-9.00842156e-03, -2.79631205e-02, 3.51302214e-02, 1.53048281e-02, -1.79428551e-02},
   { 1.39042118e-03, 6.00938173e-03, -4.80706338e-03, -8.98140576e-03, -1.20796673e-02},
   {-3.01524042e-03, -1.51661951e-02, -1.73601490e-02, -1.62958987e-02, -1.23825176e-02},},

  {{ 3.22035421e-03, 1.96467992e-02, -1.35034425e-02, -3.74019183e-02, -3.52376699e-03},
   {-3.25507106e-04, -1.39731448e-02, -2.10341047e-02, 9.24523920e-03, 2.26762164e-02},
   { 6.93502370e-03, -2.20416492e-04, 1.34184975e-02, 3.23032285e-03, 2.54963455e-03},
   {-1.24286236e-02, 6.80010009e-04, -3.01985685e-02, 1.95748471e-02, 1.32835284e-02},
   {-2.93792617e-02, -2.11050995e-02, 1.22747170e-02, 6.42763870e-03, 1.27574243e-02},},

  {{-9.40753613e-03, -1.26641449e-02, 1.67456232e-02, -1.77233964e-02, -2.31705792e-02},
   {-9.71671427e-04, 1.69119611e-02, 2.29718369e-02, 5.16951899e-04, -1.06127458e-02},
   {-7.35436380e-03, 2.72497740e-02, -5.72413963e-04, -8.83372501e-03, -2.06583291e-02},
   {-1.80978589e-02, 1.10584460e-02, 6.78128190e-03, 1.63462590e-02, -1.56970117e-02},
   { 9.03532433e-04, -3.38897086e-03, -1.75167285e-02, 7.72548933e-03, -4.08927025e-03},},

  {{-5.43401018e-03, -6.66156411e-03, -5.96976653e-02, 1.75791625e-02, 2.32423730e-02},
   { 1.54536199e-02, -6.69045746e-03, -6.59236731e-03, 2.80212034e-02, 1.46038570e-02},
   {-6.12410810e-03, 2.08077468e-02, 3.61705548e-03, 2.09846273e-02, 1.71783995e-02},
   { 4.92154481e-03, -1.62864327e-02, -1.46239130e-02, 1.00359358e-02, 2.03545541e-02},
   {-2.14102436e-02, 1.69014800e-02, 6.06858032e-03, -5.06345509e-03, -4.54951450e-03},},

  {{-1.67567690e-03, 1.57093015e-02, 1.38466042e-02, 1.42673485e-03, -1.28741590e-02},
   {-3.48173943e-03, 1.02668796e-02, 2.26691905e-02, 2.19515916e-02, -7.52647128e-03},
   {-2.50271205e-02, 4.84981760e-03, 2.28759404e-02, -4.35508741e-03, -3.48752402e-02},
   { 1.10582504e-02, -2.16621254e-03, -2.45255674e-03, 7.79374177e-03, -3.49792116e-03},
   {-3.50907352e-03, 3.62625089e-03, 3.90660344e-03, -2.85702897e-03, 9.56326723e-03},},

  {{ 9.12750233e-03, -1.28195668e-02, -9.75269638e-03, 1.84298512e-02, 1.53051661e-02},
   {-1.69212334e-02, -3.64803150e-02, -8.01060069e-03, 3.07818502e-02, 5.88076562e-03},
   {-9.62776039e-03, -7.33549241e-03, -2.24713460e-02, -4.42937529e-03, 4.38395096e-03},
   { 9.18531884e-03, 1.54135544e-02, -4.38775402e-03, -1.35586988e-02, 2.60237511e-03},
   {-1.43173186e-03, 1.57065932e-02, 1.10238008e-02, 8.74212477e-03, 1.42225679e-02},},

  {{-3.73925157e-02, -3.72462673e-03, -6.73126336e-03, 3.16434614e-02, -9.37638339e-03},
   {-1.04945032e-02, -1.11006256e-02, 5.15348138e-03, 1.20119425e-02, -9.20583494e-03},
   {-8.08553677e-03, 1.08501874e-02, 2.06227861e-02, 1.70516931e-02, -1.77289788e-02},
   { 5.15766907e-03, 1.62104014e-02, -5.16261999e-03, -3.20104696e-03, -3.90598108e-03},
   { 2.12861411e-03, 6.93403301e-04, -4.79976274e-02, -3.69088091e-02, -9.96492617e-03},},

  {{-9.40545835e-03, -1.93659216e-02, -3.33168101e-03, 1.99060496e-02, 1.48728667e-02},
   {-7.32041011e-03, -3.19598638e-03, 1.15191902e-03, -2.54544732e-03, 8.00657552e-03},
   {-6.09090971e-03, -1.22864582e-02, 9.13701393e-03, -8.15636571e-03, 8.94982740e-03},
   { 1.73046021e-03, -6.40112581e-03, 3.30908661e-04, 7.45191565e-03, 1.49299530e-03},
   {-2.32291664e-03, 8.47484393e-04, 4.93095396e-03, -5.86346118e-03, -1.48710050e-03},},

  {{ 1.44964717e-02, 1.58026777e-02, -8.62785242e-03, -5.11722872e-03, 2.08581332e-02},
   { 6.93897391e-03, 8.71545170e-03, 1.01913163e-03, 1.01012206e-02, 2.35892422e-02},
   { 2.50634342e-03, -5.93328709e-03, 1.57154333e-02, -9.57267359e-03, 4.93089668e-03},
   { 3.14117904e-04, -1.41550079e-02, 8.54723621e-03, -1.50327189e-02, -1.50396237e-02},
   { 1.02015371e-02, -1.41960811e-02, -9.81128775e-03, -1.23974960e-02, 1.57395676e-02},},

  {{ 2.60469737e-03, 1.35394754e-02, 3.55778192e-03, 7.78456451e-03, 1.82713270e-02},
   { 8.50941334e-03, 1.35373150e-04, 1.11255134e-02, -1.85634103e-02, -5.55063877e-03},
   {-1.59314834e-02, -2.06682291e-02, -1.26226442e-02, -1.68434270e-02, 2.17212662e-02},
   { 2.64225202e-03, -7.30102044e-03, 9.27915890e-03, -1.03248805e-02, 4.11706930e-03},
   { 5.07645588e-03, 8.60496890e-03, 1.04838852e-02, 1.46784587e-02, -1.56979021e-02},},

  {{-2.86738551e-03, 6.39598491e-03, 8.55639949e-03, -5.71100645e-06, 6.30314276e-03},
   { 8.53230711e-03, -1.98014621e-02, -7.30985170e-03, -1.38860717e-02, 1.46791514e-03},
   { 1.23342033e-02, 3.96563970e-02, 1.30714327e-02, -1.19767934e-02, -2.03382634e-02},
   {-5.80814667e-03, 2.26009283e-02, 7.24345818e-03, -1.47596616e-02, -3.20076756e-02},
   {-2.11566575e-02, -6.73429202e-03, -8.21406674e-03, 9.31884337e-04, -1.91164960e-03},},

  {{-1.43761886e-02, 6.22658664e-03, -1.21222585e-02, -1.58561096e-02, 3.30153778e-02},
   {-7.40253367e-03, -4.72909864e-03, -3.08570862e-02, 1.38843767e-02, 2.63784602e-02},
   { 3.12367524e-03, -8.87423567e-03, -4.23258782e-04, 1.51071735e-02, 8.03990383e-03},
   { 1.22285243e-02, -5.22110332e-03, 3.45365400e-03, -1.91289876e-02, -1.70971826e-03},
   { 3.34194978e-03, -7.44694378e-03, -1.33397765e-02, -2.47269813e-02, -6.18404523e-03},},

  {{ 7.26069557e-03, 7.13392766e-03, 7.60088209e-03, 1.30479177e-03, -1.58605278e-02},
   { 5.08063938e-03, 2.96046981e-03, 1.79524161e-02, 1.09461797e-02, -4.48104460e-03},
   {-3.16379912e-04, -1.03170741e-02, 1.24371974e-02, 3.15806456e-02, -2.68461853e-02},
   {-2.35523805e-02, 2.29716692e-02, 1.70972086e-02, 8.36589839e-03, -6.28152455e-04},
   { 4.44918824e-03, -4.59288573e-03, -9.48370807e-03, -5.63322287e-03, 9.46245436e-03},},

  {{ 1.11425724e-02, -3.04114004e-03, -1.06937001e-02, 4.30867821e-03, -1.38239767e-02},
   { 1.21055543e-02, 5.31081157e-03, -8.12103041e-03, -4.77489177e-03, 2.96774544e-02},
   {-1.64489057e-02, 1.56744067e-02, -1.85910948e-02, 1.34794312e-02, 6.73874887e-03},
   {-1.21786892e-02, -6.11065049e-03, 2.59979684e-02, 5.06191654e-03, -6.12827623e-03},
   {-8.05538093e-06, 7.47101801e-03, 3.76546965e-03, -2.57593603e-03, -1.31796617e-02},},

  {{ 5.92739042e-03, 1.34471292e-02, -2.18239930e-02, -2.94313207e-02, -5.52006718e-03},
   { 7.38800736e-03, 1.28123083e-03, -3.05935014e-02, 4.80278954e-03, -6.91572903e-03},
   { 4.23105247e-03, 3.74700385e-03, 2.02448349e-02, -9.66075051e-04, -1.07284868e-03},
   { 5.75827900e-03, -1.03980093e-03, 1.74305290e-02, -8.07911623e-03, -9.75668337e-03},
   { 1.38594890e-02, -8.79251398e-03, 1.88001376e-02, -1.77511834e-02, -3.29491124e-03},},},


 {{{ 3.82902590e-03, 8.96316487e-03, 2.03387365e-02, 1.04143796e-02, -1.60314387e-03},
   {-1.91118252e-02, 3.98760289e-03, 3.10017914e-02, 3.69557063e-03, -2.78729387e-02},
   {-1.26116341e-02, 2.89808307e-03, 1.80128198e-02, 9.50322486e-03, -7.73666846e-03},
   { 6.34254143e-03, -1.09693725e-02, 4.06604586e-03, -1.67203625e-03, -1.61797479e-02},
   { 3.14066070e-03, 1.78684164e-02, -4.08851635e-03, 4.44562611e-04, 1.53928800e-02},},

  {{-1.07233543e-02, 2.19450947e-02, 4.78422362e-03, 2.57089064e-02, -1.19258635e-04},
   {-1.28937594e-03, -6.41153613e-03, 2.08481541e-03, -6.57169905e-04, -1.56445394e-03},
   { 1.21104065e-02, -1.64494179e-02, -7.63103133e-03, 1.20097678e-02, 1.74692977e-04},
