float weightsFC2[120][84] = {{ 9.98448115e-03, -9.08405427e-03, 1.84271298e-02, 2.53088935e-03,
   1.48707405e-02, -4.58384911e-03, -1.28907803e-02, 1.46198422e-02,
   5.22994623e-03, -5.77988382e-03, -9.41899698e-03, 1.55535489e-02,
  -1.66617297e-02, -5.80488145e-03, 2.24975101e-03, -9.22599994e-03,
   1.00776646e-02, -2.91133896e-02, 1.25265112e-02, 1.46753830e-03,
   8.15708656e-03, -3.06313089e-03, -3.91454203e-03, 4.44216840e-03,
   5.12989191e-03, -7.74472160e-03, -1.04399212e-03, -1.58274788e-02,
  -1.11260395e-02, 1.84867643e-02, -1.18735069e-02, -8.25030915e-03,
  -1.26180798e-02, 5.91763295e-03, 9.19098593e-03, -3.11219017e-03,
   6.74371608e-03, 7.90232513e-03, 1.34365642e-02, -3.43906088e-03,
   1.07865008e-02, -3.39128985e-03, -5.31213358e-03, -2.94006802e-03,
   5.83937299e-03, -3.49729741e-03, 8.90194066e-03, 2.18654759e-02,
   1.68352835e-02, -1.09300837e-02, -2.41776253e-03, 1.67274773e-02,
  -2.72047985e-03, 2.17750818e-02, -4.93347086e-03, 2.18056180e-02,
  -4.60333377e-03, -1.19861085e-02, -5.70016773e-03, -5.97968930e-04,
   1.84058547e-02, 8.79148301e-03, 1.43556893e-02, 2.51839757e-02,
   1.78187545e-02, -9.04849079e-03, 1.32781425e-02, -1.10171633e-02,
  -1.83874294e-02, -3.36020961e-02, -7.85436016e-03, 6.81592198e-03,
  -5.24824113e-03, -1.09184086e-02, 7.34610623e-03, 1.01765348e-02,
  -2.75460444e-03, -1.29982168e-02, -2.10286081e-02, -1.07028205e-02,
  -2.00148132e-02, 4.58296807e-03, 9.01375257e-04, -1.35727003e-02},
 {-3.18409060e-03, -1.49316546e-02, -2.07665656e-02, 2.67270370e-03,
   5.75884071e-04, -8.26228596e-03, -7.93719385e-03, -1.17359152e-02,
  -2.44159997e-03, 1.49983373e-02, -2.85977237e-02, 1.52692944e-02,
   5.54520916e-03, -2.90075014e-03, 1.83013361e-02, -1.05088642e-02,
  -6.76233380e-04, -2.28531798e-03, 9.24442615e-03, 1.04568871e-02,
  -2.94931087e-05, -2.06641015e-03, -6.87721325e-03, 5.69029059e-03,
   7.26460014e-03, 2.39356258e-03, 8.82449932e-03, -3.09828222e-02,
   1.62156653e-02, -3.85879166e-03, 4.33082273e-03, 1.90761220e-02,
   1.66652706e-02, -3.49280890e-03, 1.34212933e-02, 5.27144922e-03,
  -1.54187682e-03, 4.03983257e-04, 1.10405060e-02, -6.27867272e-03,
   1.41302834e-03, 6.25851215e-04, 7.85871875e-03, -6.42994931e-03,
  -7.98544195e-03, -1.03268039e-03, 3.46818153e-04, -7.96520151e-03,
   1.79442359e-04, -8.40709917e-03, -1.97603833e-03, -5.97526180e-03,
   6.38555689e-03, -1.04748039e-02, -2.56729987e-03, 1.14008449e-02,
   2.80335043e-02, -4.20524227e-03, 7.82718416e-03, -5.78493997e-03,
  -1.12430211e-02, -1.28512178e-02, 1.01772137e-02, -4.19696979e-03,
   4.21943422e-03, -2.34347750e-02, -3.52863632e-02, 3.62625066e-03,
  -2.08894797e-02, -2.39863744e-04, -8.70291702e-03, -2.39692489e-03,
  -1.30665675e-02, 6.70181774e-03, -2.21924875e-02, 2.23956574e-02,
   1.23283518e-02, 2.17206180e-02, 9.63892601e-03, -1.74229518e-02,
   1.00137843e-02, 9.83475242e-04, -2.38289218e-02, -2.43285317e-02},
 {-1.73760243e-02, 9.67405271e-03, 1.44419167e-02, 1.27735250e-02,
   3.71853113e-02, 3.54035050e-02, -2.62434147e-02, -2.84996219e-02,
   1.85122900e-02, -5.10373991e-03, -4.19050967e-03, 4.67003174e-02,
  -2.43535340e-02, -2.36268584e-02, 1.63474027e-02, 3.52611355e-02,
   1.18241329e-02, 8.62447079e-03, 3.49410474e-02, 1.41041186e-02,
   2.29221191e-02, -3.04825534e-03, -6.83976710e-02, 1.99994771e-03,
  -1.85831413e-02, -3.38842697e-03, -4.13082428e-02, -1.11521070e-03,
  -6.97377231e-03, -8.75241403e-03, 3.48063894e-02, 2.95404773e-02,
  -3.68574378e-03, 9.67366155e-03, 1.89066790e-02, 3.32116685e-03,
   4.01815260e-03, 2.91441120e-02, 1.55952270e-03, -3.35626155e-02,
  -1.60527378e-02, 1.59844104e-02, -2.80367909e-03, 3.14959809e-02,
   1.51293827e-02, -2.17921827e-02, -9.52109974e-03, 1.87368151e-02,
  -2.31537013e-03, -4.38686553e-03, -2.63864435e-02, -1.52929751e-02,
   4.10791337e-02, 8.36904626e-03, 2.72281934e-02, -5.93070919e-03,
  -2.65901126e-02, 9.49638523e-03, 1.70185301e-03, 3.84882055e-02,
   1.00753391e-02, -2.50407550e-02, 1.51748322e-02, 2.52995994e-02,
  -3.68708000e-02, -1.23493401e-02, 1.97317288e-03, -3.13691399e-03,
   2.94136032e-02, 1.18754348e-02, 1.80455241e-02, -2.64952965e-02,
  -1.19656185e-02, 6.52915463e-02, -4.33459925e-03, 1.69816166e-02,
   2.88562942e-03, -5.91736566e-03, 7.15565926e-04, 2.02864390e-02,
   7.62127945e-03, -2.53699925e-02, -1.51205184e-02, 4.45419513e-02},
 { 1.35510592e-02, -3.71462968e-03, 1.66629609e-02, -1.95201095e-02,
   3.66052473e-03, 4.92969435e-03, -4.14919946e-03, 4.15891828e-03,
   6.06664643e-03, -1.83880404e-02, -2.43555731e-03, 3.14612663e-03,
  -5.17843431e-03, 1.14097651e-02, -2.58930903e-02, 1.37789957e-02,
   1.48251550e-02, -4.82379645e-03, -2.11277120e-02, 3.10986179e-05,
  -3.43548576e-03, 5.75469388e-03, 1.47027289e-02, 5.87927084e-03,
   2.02486801e-04, -4.22022352e-03, -1.67152975e-02, -4.98681469e-03,
  -1.33784823e-02, -9.30260227e-04, -1.23567516e-02, -1.62621532e-02,
  -3.17831226e-02, -1.07276281e-02, -7.55497208e-03, -2.11447850e-02,
  -3.59318336e-03, -6.92571513e-03, -3.37141305e-02, -8.42108112e-03,
  -2.48695514e-03, 3.73664265e-03, -6.17065094e-03, 6.22514077e-03,
  -7.99122732e-03, 1.37415845e-02, -8.05122871e-03, -4.66013467e-03,
  -6.91933837e-03, 1.14856623e-02, 1.41688278e-02, 6.22399675e-04,
  -5.91343094e-04, -1.66239645e-02, -1.63798442e-03, -1.24595491e-02,
  -8.22372676e-04, 9.38082021e-03, -1.90488063e-02, -1.00482311e-02,
  -3.17602977e-03, 8.12951196e-03, 3.90342611e-04, 1.08018508e-02,
   1.71515234e-02, 1.18917115e-02, -2.32519978e-03, -1.29944773e-03,
  -1.04611777e-02, -1.17428659e-03, -6.63542375e-03, 8.74966476e-03,
  -5.64263016e-03, 2.92524640e-02, -1.60316080e-02, -5.39643550e-03,
  -1.84371285e-02, -1.42200543e-02, 7.99113046e-03, -3.94726451e-03,
   3.71457706e-03, -2.09475821e-03, -7.77443917e-03, -1.00576337e-02},
 { 8.47742055e-03, -1.86002105e-02, -2.76696589e-02, 1.65036749e-02,
   1.82871539e-02, -9.15449392e-03, 1.01169432e-02, -9.02892742e-03,
  -1.80645641e-02, 3.16385776e-02, 7.81536475e-03, 6.62961463e-03,
  -8.21400806e-03, 8.36353502e-05, 1.03283217e-02, -1.45109668e-02,
  -3.07028368e-02, -2.44928878e-02, -3.82230943e-03, 5.92319714e-03,
  -2.94954777e-02, 3.64444032e-02, 1.19235087e-02, -6.79966854e-03,
  -1.07733048e-02, -6.10635290e-03, -9.05968528e-03, -4.53045359e-03,
  -9.83135682e-03, -2.58907601e-02, -2.44415738e-03, -7.71074090e-03,
   2.30992780e-04, 6.53490564e-03, -6.54181279e-03, 1.41837467e-02,
  -9.30023380e-04, -2.98858527e-02, 7.07356259e-03, 5.50811691e-03,
   5.01817092e-03, 1.60389785e-02, -3.04970481e-02, 9.56606399e-03,
  -1.55660184e-02, -1.30348876e-02, 5.19632315e-03, -1.32040092e-04,
   2.12138370e-02, 2.24415623e-02, 6.09420100e-03, -9.51506570e-03,
   1.03623630e-03, 1.31517872e-02, -7.22582405e-03, -1.88033506e-02,
   7.19426246e-03, -9.70490370e-03, -7.42938602e-04, 8.95313174e-03,
  -2.71792840e-02, -2.30576992e-02, 1.32871177e-02, -9.64900944e-03,
   1.59450173e-02, -2.14100406e-02, -2.53693536e-02, -2.26553176e-02,
  -2.28733495e-02, -8.04896280e-03, -1.25323404e-02, 7.48171285e-03,
   1.43383760e-02, -8.58051516e-03, 1.39661748e-02, -4.08631377e-03,
  -3.48448358e-03, 1.16693536e-02, 2.40559035e-04, -1.34918531e-02,
   1.71585307e-02, 6.91313948e-03, 1.82002212e-03, -3.73709045e-04},
 {-5.73742343e-03, -7.40334671e-03, 6.21068664e-03, -5.11710159e-03,
   7.21283769e-03, -9.36826691e-03, 2.10431758e-02, 2.90021859e-02,
  -1.05220508e-02, 2.54336535e-03, 1.90408081e-02, -2.70399265e-02,
   2.58987863e-02, -1.33922379e-02, -9.83882975e-03, -8.99830088e-03,
   1.46315256e-02, 5.68410149e-03, -6.79271901e-03, -2.16079946e-03,
   7.70448381e-03, -5.50276646e-03, 6.77855685e-03, -1.04114832e-03,
   2.94547528e-03, 3.62024317e-03, 9.04679764e-03, 1.40824206e-02,
   1.47420587e-02, 1.98110528e-02, 8.60158980e-05, -2.40377467e-02,
   1.32439740e-03, 8.87198083e-04, -1.83023345e-02, 2.13566399e-03,
   9.12683271e-03, 8.19742028e-03, 3.16942111e-03, 2.75656208e-02,
  -1.81219187e-02, 2.18134606e-03, 1.06604779e-02, -6.77476265e-03,
   2.95125563e-02, -3.90671799e-03, -2.07754858e-02, -2.87686661e-02,
   1.00859944e-02, -9.56420228e-03, 3.39612924e-02, 1.20333815e-02,
  -2.70597562e-02, -1.17753362e-02, -1.32934749e-02, -4.13565943e-03,
  -2.03461107e-02, 8.44636094e-03, 1.97207313e-02, -7.78312609e-03,
  -1.34729948e-02, 4.21057083e-03, 7.93755800e-03, -7.77201913e-03,
   7.39421602e-03, 1.18803699e-03, 3.04727238e-02, 1.86450314e-03,
   4.97243600e-03, 1.68716423e-02, 7.86875747e-03, 7.26172561e-03,
  -2.98783975e-03, -2.97729466e-02, 2.23878492e-02, -1.46140270e-02,
   7.34907156e-03, 1.66329499e-02, -8.53117276e-03, 1.44320289e-02,
   1.14736129e-02, -1.56834647e-02, 2.08573733e-02, -2.11469810e-02},
 {-4.22424544e-03, 5.08751813e-03, 1.99739765e-02, -2.33800728e-02,
   1.47311240e-02, -1.35905109e-02, -1.10797705e-02, 2.30292100e-02,
   1.07207289e-02, 5.26509900e-03, -2.64238734e-02, 1.35309510e-02,
  -4.89650527e-03, -9.49011184e-03, -5.37990942e-04, 1.50653301e-02,
   3.20464093e-03, 2.08180491e-02, 1.96279325e-02, -1.72206853e-03,
   2.01274604e-02, -1.66179966e-02, -1.40276235e-02, -1.32215451e-02,
  -1.02435211e-02, -5.72700892e-03, 1.32622179e-02, -8.84191878e-03,
   6.60172012e-03, 4.63138707e-03, -5.88746415e-03, -4.33004089e-03,
   1.94552783e-02, 8.60074256e-03, -2.04829518e-02, 6.52978057e-03,
  -1.53082958e-03, 2.01011524e-02, -6.22725347e-03, 1.75331272e-02,
   3.10809794e-03, -5.38156740e-03, 2.07228982e-03, -2.56791315e-03,
   1.55040715e-03, 1.62854046e-02, 1.08465264e-02, -2.82064546e-02,
   1.83809653e-03, -2.10171267e-02, 9.02330037e-03, -4.57152538e-03,
  -1.10361911e-02, -2.03996040e-02, 2.23607253e-02, 2.20205824e-04,
   1.83533481e-03, 1.25402650e-02, -1.88458748e-02, 2.88469028e-02,
  -8.90989788e-03, 2.59406719e-04, -2.60059461e-02, 1.82890669e-02,
  -4.52958606e-03, -1.06096454e-03, 9.39192809e-03, 6.01215661e-03,
  -2.29598749e-02, -8.33216589e-03, 2.77604931e-03, 1.21431425e-02,
  -5.84063400e-03, -9.83257126e-03, -7.68319611e-03, 1.35908453e-02,
   1.06345322e-02, -1.96902473e-02, -1.51940901e-02, 3.45285796e-03,
   1.35020977e-02, -7.07983552e-03, 2.44842283e-03, -2.96202395e-02},
 { 9.29040834e-03, -6.53185137e-03, -1.90791879e-02, -3.03544849e-03,
   6.20041136e-03, 4.06620232e-03, 8.19506776e-03, 2.99868872e-03,
  -1.08573949e-02, 1.26999151e-02, 2.60370155e-03, 1.49376513e-02,
  -1.89270370e-03, 4.07215487e-03, -2.16199774e-02, -1.02099162e-02,
  -1.33119314e-03, -9.20115039e-03, 8.57681595e-03, -9.07601975e-03,
   1.19812908e-02, -1.49913155e-03, -1.29777007e-02, 2.91806320e-03,
  -7.12715741e-03, -1.98306646e-02, -1.18161123e-02, 6.75602071e-03,
  -4.95890854e-03, 1.46420323e-03, 1.35133229e-02, -4.44872584e-03,
  -9.41935054e-04, 2.75075305e-02, -4.49320190e-02, 2.22646501e-02,
  -1.18184034e-02, -2.60997587e-03, 2.48021632e-02, 2.85978662e-04,
  -3.38377394e-02, 8.45709071e-03, 5.17409854e-03, -6.97865558e-04,
   2.40516893e-04, -1.50557784e-02, 8.91987875e-04, -1.76661704e-02,
   6.23819372e-03, -1.57457571e-02, -2.42821407e-03, -1.50258234e-02,
  -1.47265708e-03, 1.73514131e-02, -2.54624579e-02, -6.88796816e-03,
  -1.14236008e-02, -1.33149661e-02, 2.33390257e-02, 1.73249207e-02,
  -1.25565194e-02, 7.51404004e-05, -5.00408700e-03, -1.13831612e-03,
  -1.85351949e-02, 3.68083529e-02, 2.75431871e-02, 7.54821394e-03,
   8.29583872e-03, 1.59210227e-02, -2.56506191e-03, 6.69178274e-03,
  -3.86847486e-03, 8.27907305e-03, 7.57766003e-03, -2.20595449e-02,
   8.90396070e-03, 1.54853780e-02, -5.38179930e-03, -8.19631480e-03,
   3.60836498e-02, 5.30129997e-03, -1.56337172e-02, 1.00128166e-02},
 {-8.26654211e-03, 1.26413573e-02, 5.67264063e-03, 8.13754369e-03,
  -2.69875918e-02, 4.37914431e-02, -2.17854977e-02, -1.09704630e-03,
   2.08895896e-02, -3.40587720e-02, 9.75674111e-03, 1.21739144e-02,
   7.85999000e-03, -5.26341330e-03, -1.24786925e-02, 7.73880910e-03,
   3.98587156e-03, 1.78978164e-02, 1.67844314e-02, 3.75293754e-02,
  -3.35652003e-04, -3.20384130e-02, -1.52404234e-02, -1.70538612e-02,
  -2.01822743e-02, -1.08563555e-02, -4.27743308e-02, 1.13967936e-02,
  -1.41334636e-02, 9.32040811e-03, 3.57875116e-02, 7.62892282e-03,
   2.22388897e-02, 6.30143890e-03, -9.65159107e-03, 3.56395170e-02,
   1.76675674e-02, 2.39688829e-02, 6.56493381e-03, -2.50369054e-03,
  -4.73669097e-02, 1.66482776e-02, 1.98100060e-02, 2.23543756e-02,
   8.55707284e-03, -1.11753466e-02, -2.18889341e-02, 1.45065552e-02,
   1.41414336e-03, -2.00837329e-02, 6.18565734e-03, 1.09909326e-02,
  -1.35423010e-03, -1.69061311e-02, 2.46392190e-02, -1.20001137e-02,
   1.18523929e-02, -1.18997153e-02, -5.99819214e-05, 2.03702096e-02,
   3.01939100e-02, -4.81982110e-03, 2.30741333e-02, 3.24710086e-02,
  -4.96490374e-02, 1.36406738e-02, 2.44091786e-02, 2.82442886e-02,
   2.74291541e-02, 3.24467644e-02, -1.36682605e-02, -1.30590098e-02,
  -2.95562502e-02, 2.85506919e-02, -4.77598369e-04, -8.13069846e-03,
   3.95613164e-03, 2.78661493e-03, 1.14046624e-02, 3.28974612e-02,
   2.44231261e-02, -4.48947446e-03, -3.03255357e-02, 4.04981710e-03},
 {-7.64540303e-03, 1.33272493e-02, 8.54568928e-03, 6.33430993e-03,
  -3.45912715e-03, -1.20500708e-03, 8.98027606e-03, 1.74615663e-02,
  -2.87269638e-03, -6.63408427e-04, -9.66128521e-03, -1.30740041e-02,
   4.84894542e-03, 3.49773705e-04, -1.23958406e-03, 8.19272269e-03,
   2.09624730e-02, 1.49604371e-02, 8.61838087e-03, -1.17250225e-02,
   3.13150510e-02, -8.72360077e-03, 2.39913277e-02, -4.95729689e-03,
  -1.38687091e-02, -2.63068825e-02, -1.73873696e-02, 2.81045213e-02,
  -1.17255431e-02, 7.64801819e-03, -4.85550193e-03, -1.21716466e-02,
   9.53348819e-03, -2.54143272e-02, -7.96603318e-03, -2.00816747e-02,
   1.18407048e-03, -1.66034158e-02, 1.50338570e-02, -2.35717259e-02,
   8.40420183e-03, 1.06491370e-03, -2.19004173e-02, -4.58184490e-03,
   7.56421592e-04, 1.23110944e-02, -1.59720033e-02, -5.75598795e-03,
  -2.96659023e-02, 7.59730861e-03, 1.32897319e-02, -5.05908625e-03,
   6.48905337e-03, -1.21477970e-04, -4.98254737e-03, -1.35293398e-02,
  -1.79242715e-02, 7.91153777e-03, -6.11721911e-03, -4.38459143e-02,
   2.01804582e-02, 2.22892351e-02, -7.42368633e-04, -3.22551765e-02,
   1.88797992e-02, -1.22317299e-02, 1.41629474e-02, 6.12825947e-03,
  -2.25383136e-02, -1.46936662e-02, -1.15428856e-02, -6.42959122e-03,
   1.19340392e-02, -2.09248215e-02, 2.24451143e-02, -1.33438837e-02,
   3.51160951e-03, -1.12388674e-02, -2.47985683e-02, 1.65583077e-03,
   3.30861285e-03, -3.71656567e-02, 5.47416992e-02, -2.51741335e-02},
 { 2.06306037e-02, -1.09754428e-02, 1.16422754e-02, 1.18064322e-02,
  -5.54903934e-04, 2.11716775e-04, 1.09392731e-02, 1.06058931e-02,
  -1.44014815e-02, 4.73662373e-03, -9.13569611e-03, 9.33615025e-03,
  -3.58235766e-03, 1.06863054e-02, 7.79463386e-04, -2.11576354e-02,
   8.94724298e-03, -4.70682699e-03, -1.29408380e-02, -1.60726090e-03,
  -9.35287244e-05, -2.56826961e-03, -2.70827324e-03, 6.01541810e-03,
   2.96323393e-02, 2.39721593e-03, -2.27180566e-03, 1.09032365e-02,
  -2.76012986e-04, 1.65689774e-02, 7.30416877e-03, -1.23024816e-02,
  -2.74193753e-03, 1.93007849e-03, 1.88784376e-02, 8.25175829e-03,
   5.67007624e-03, 6.53919159e-03, -9.82167013e-03, 5.07360836e-03,
   1.53633766e-02, 2.27341317e-02, -3.23363463e-04, -8.53358302e-03,
  -4.65985527e-03, -6.92932634e-03, 8.77032243e-03, 1.80349573e-02,
   3.48905544e-03, -1.31439371e-02, 7.47768674e-03, -1.26327900e-02,
  -5.20392461e-03, -1.29351043e-03, 5.85322408e-03, 1.52860733e-03,
   3.87583883e-03, 4.78300219e-03, -3.92876798e-03, -8.60231370e-03,
  -6.17283455e-04, 1.03868041e-02, -6.74013048e-04, 2.07353252e-04,
   1.60153629e-03, 9.73813981e-03, -7.97978882e-03, 2.07689833e-02,
  -1.58476993e-04, -2.08193194e-02, 7.44888850e-04, 4.93456936e-03,
  -9.50100459e-03, 1.38404442e-03, -2.29447726e-02, -5.25133638e-03,
   6.63006958e-03, -6.51911087e-03, -1.34486135e-03, -6.50403555e-03,
  -2.53808610e-02, -4.22330992e-03, -1.02611594e-02, -9.62983177e-04},
 {-2.91934144e-02, -3.17513174e-03, -5.95537061e-03, 2.24053301e-03,
   1.92528591e-02, -2.10087951e-02, 1.94706973e-02, 2.49821246e-02,
   1.10361371e-02, -9.70701873e-03, -9.09153931e-03, -2.05206349e-02,
   6.31776731e-03, -7.31848087e-03, -9.72503051e-03, -1.93981477e-03,
   1.76445376e-02, 1.76599342e-03, -1.51282987e-02, -4.17461991e-02,
   9.54869017e-03, 6.51261723e-03, 9.43704043e-03, 4.16242704e-02,
  -2.98966048e-03, -1.65096077e-03, 2.33818106e-02, -1.86371356e-02,
   6.71716128e-03, 3.28078307e-02, 2.37910524e-02, 7.13247294e-03,
  -1.79875437e-02, 2.00934540e-02, -1.05506333e-03, -2.42562825e-03,
  -3.79533204e-03, 1.77060608e-02, -2.59201764e-03, 4.91223997e-03,
  -6.72057411e-03, -2.85402946e-02, -9.39396117e-03, -1.59179624e-02,
  -6.85906131e-03, -5.24610560e-03, 3.14466059e-02, -2.36567971e-03,
   1.31759383e-02, -2.99593918e-02, -2.15882342e-02, -1.21037588e-02,
  -1.73552632e-02, -2.15901397e-02, -1.20306099e-02, -2.54618097e-03,
  -2.97379494e-02, 7.27268867e-03, 1.74273625e-02, 1.37377577e-02,
   2.04391778e-03, -2.94842059e-03, -2.21653152e-02, -4.47881408e-03,
  -8.77352897e-03, 2.93692239e-02, 1.22345332e-02, 1.84661280e-02,
   3.43566574e-02, 3.01528741e-02, -1.45626012e-02, 7.02292891e-03,
  -1.13323258e-04, -1.97450444e-03, 1.19902771e-02, -1.47300595e-02,
   4.27679997e-03, 2.59332871e-03, -1.47454394e-02, -8.82236939e-03,
  -9.17277299e-03, 2.58360840e-02, 1.35628844e-03, -2.04795077e-02},
 { 1.63848102e-02, -1.94429681e-02, 3.26284615e-04, 3.23049398e-03,
  -6.62729703e-03, -2.46275123e-03, 1.27032101e-02, 7.46794231e-03,
  -9.18278284e-03, 7.41247088e-03, -1.00506460e-02, 6.98065246e-03,
   1.12744402e-02, 2.86952071e-02, 2.41911301e-04, 1.65966470e-02,
   3.85191408e-03, -8.28494877e-03, 2.05955599e-02, -1.32039599e-02,
  -8.86251684e-03, -1.88449281e-03, 9.78950644e-04, 1.78820603e-02,
  -9.84041207e-03, -3.78660229e-03, 1.21310940e-02, -8.39847140e-03,
   1.23766251e-02, -6.13584463e-03, -1.64763420e-03, 1.17164925e-02,
  -3.70320602e-04, 1.45415589e-02, -1.39102172e-02, -1.56793778e-03,
  -2.07108669e-02, -9.12641641e-04, 1.97257437e-02, -1.92434452e-02,
   7.59537285e-03, 1.95137342e-03, 6.26967102e-03, 1.64636876e-02,
  -2.83586849e-02, 3.39419115e-03, 2.13882215e-02, 1.99149223e-03,
  -7.71427248e-03, 1.04002142e-02, -4.71165171e-03, 2.71628634e-03,
   1.14163803e-02, 1.01267025e-02, -1.43507300e-02, 8.23661312e-03,
  -4.44893911e-03, -2.88226362e-03, 2.99005117e-03, 1.40670771e-02,
  -6.77357195e-03, 3.24918143e-03, -7.63508677e-03, 1.86841318e-03,
  -1.64130516e-02, -4.97537106e-03, 5.55631006e-03, -2.11433806e-02,
   1.31263034e-02, -2.49056518e-03, -7.02483533e-03, 6.21942990e-03,
   2.28800736e-02, 9.28662426e-04, -6.31824555e-03, -5.39116608e-03,
   8.77082522e-04, -2.23750565e-02, -1.39129935e-02, 9.22678132e-03,
  -8.30161292e-03, -1.77948549e-02, -7.20600272e-03, 1.39061380e-02},
 { 1.92925951e-03, 1.04318410e-02, 7.07152393e-03, -2.52923165e-02,
   2.35997308e-02, -1.68076474e-02, -8.17271788e-03, -2.08712853e-02,
   1.73816774e-02, 4.16691266e-02, 2.65011541e-03, -1.74411424e-02,
  -1.23788416e-02, 2.63643526e-02, 9.28835012e-03, -1.60646182e-03,
   2.62652570e-03, -2.20380183e-02, 8.51766951e-03, -2.50727702e-02,
   7.83347338e-03, 1.01603372e-02, 1.52883716e-02, 7.21252942e-03,
  -2.49655731e-03, 5.35363751e-03, 3.61259915e-02, 1.50706545e-02,
   3.51097435e-02, -3.64881405e-03, -3.58122364e-02, -2.72044465e-02,
   9.60435160e-03, -6.39891578e-03, 1.28450235e-02, -1.84737835e-02,
   2.22532768e-02, -2.42892373e-02, 9.50694364e-03, -6.95944438e-03,
   1.84677560e-02, 3.87941697e-03, 9.26336180e-03, -8.43746401e-03,
  -2.65412182e-02, -2.28774380e-02, 1.65302157e-02, -3.83416004e-02,
  -1.22891692e-02, 5.36371022e-03, 2.54411232e-02, -8.04606173e-03,
   7.61850318e-03, 2.69114152e-02, -5.24845906e-03, 4.32975730e-03,
   2.48104986e-03, -2.92056203e-02, -1.34561211e-03, 3.58849065e-03,
  -2.99107600e-02, -2.11768728e-02, -1.85389612e-02, -1.14343930e-02,
   2.61669066e-02, -7.05102971e-03, -8.10645055e-03, -3.65558565e-02,
  -4.68053259e-02, -2.09170338e-02, -2.92135086e-02, 1.83651298e-02,
   1.62660778e-02, -5.14554046e-02, 9.07147210e-03, -2.65683644e-02,
  -2.08269022e-02, -1.18313422e-02, -3.49470042e-02, 1.48674762e-02,
  -1.95955839e-02, -2.03458089e-02, 4.53214124e-02, 6.61612069e-03},
 {-1.45513518e-03, 2.47170404e-03, -1.19179571e-02, -2.07313932e-02,
  -6.88755466e-03, 1.20376889e-02, -2.01512575e-02, -1.04271071e-02,
   7.24473875e-03, -8.06304347e-03, 1.53610529e-02, 1.48133570e-02,
  -5.59225865e-03, -9.52488044e-04, 2.16464535e-03, 9.19460226e-03,
   4.98981867e-03, 1.78180970e-02, -2.91236700e-03, 1.04884105e-02,
  -1.32220355e-03, 1.61126088e-02, -2.19028536e-02, -2.57641766e-02,
  -2.31924690e-02, -1.36620051e-03, -3.43108512e-02, 1.08496174e-02,
   5.05394582e-03, -1.60197460e-03, 5.15355915e-03, 6.30146218e-03,
  -2.39588358e-02, -3.80623317e-03, -9.30851325e-03, -2.44799559e-03,
  -1.36389174e-02, -4.76368843e-03, 1.08958799e-02, -5.27384598e-03,
  -2.59745605e-02, -3.37955193e-03, 5.52281912e-04, 1.52845331e-03,
   1.48780504e-02, -1.26823923e-03, -4.52463934e-03, -3.26904235e-03,
   1.40086710e-02, 8.56507104e-03, -1.36907035e-02, 1.76711660e-02,
   1.98934618e-02, 1.03811258e-02, 3.41162924e-03, 3.41616338e-03,
   5.13615971e-03, -7.46387662e-03, 4.84486623e-03, 1.07990624e-02,
   8.26944970e-03, -1.74992029e-02, 9.09306668e-03, -6.13062084e-03,
  -4.95952228e-03, 1.71631563e-03, -1.94931112e-03, -4.39037476e-03,
  -7.65081402e-03, 9.54113808e-03, 8.67524557e-03, -1.43783875e-02,
  -2.20101024e-03, 3.36600468e-03, 2.73473794e-03, -3.56359147e-02,
  -1.27937819e-03, -1.42521635e-02, 1.48695922e-02, 1.78333488e-03,
  -4.74294135e-03, -1.26817292e-02, 1.02753309e-03, 2.89014610e-03},
 { 9.57486127e-03, -3.04298475e-02, -2.45374385e-02, 3.09717897e-02,
  -3.85604240e-02, -1.51646808e-02, 2.15959689e-03, 1.46969361e-02,
   5.05135767e-03, 1.22250617e-02, -3.52905430e-02, 1.38862133e-02,
  -4.36812220e-03, -2.18399912e-02, -2.34684628e-02, -8.62515997e-03,
   1.22529303e-03, 9.17909760e-03, 3.47098261e-02, -9.91067663e-03,
   5.76175516e-03, 4.09608101e-03, 1.45405931e-02, 1.28278555e-02,
   9.93519928e-03, -1.94870550e-02, -1.56207317e-02, 3.21255851e-04,
  -1.79133052e-03, 1.61830336e-02, 3.62584330e-02, 1.88510716e-02,
  -3.54368426e-02, 1.21344263e-02, 2.40559243e-02, 7.78906420e-03,
  -1.61427744e-02, -1.54030928e-02, 3.24606523e-02, -2.21585277e-02,
  -2.64151469e-02, -2.60165744e-02, 1.09017296e-02, -1.20361913e-02,
   6.32313360e-03, -1.82982963e-02, 2.46682158e-03, 3.74297723e-02,
   2.12280788e-02, 9.69708897e-03, -1.06102927e-02, -1.90999899e-02,
  -6.86228974e-03, -1.81485191e-02, -1.17007736e-02, -1.57704689e-02,
  -9.27472487e-03, 1.33623760e-02, -6.82413159e-03, 1.13264993e-02,
  -1.28751202e-02, 2.47831922e-03, -3.51037038e-03, 3.04562300e-02,
  -3.09036169e-02, 1.11703165e-02, -5.29255718e-03, 3.12702022e-02,
   2.88826320e-02, 6.63455995e-03, -2.44805198e-02, -2.29871944e-02,
   5.06145763e-04, 1.44056110e-02, -1.79193784e-02, -7.46479910e-03,
   1.65191833e-02, 1.39853067e-03, 1.92832318e-03, -1.12360120e-02,
  -3.26858796e-02, 1.04638617e-02, -2.85068266e-02, -6.09087246e-03},
 {-9.13941301e-03, 1.65938400e-02, 1.79685149e-02, -1.55769400e-02,
   6.70169154e-03, -2.83924546e-02, -1.52170798e-03, 2.27227621e-02,
   9.40943137e-03, -4.43929899e-03, -1.88306272e-02, 3.87886702e-03,
  -2.29768585e-02, -7.58882891e-03, 1.40256798e-02, 4.36949078e-03,
   1.52168260e-03, -2.28316821e-02, -1.47795177e-03, 1.95009387e-04,
   1.54142994e-02, 8.51993042e-04, 2.42817979e-02, 3.39057110e-03,
   1.47030074e-02, 1.26896994e-02, 2.23942362e-02, -3.29688541e-03,
  -6.50023716e-03, 1.09339887e-02, -1.00344606e-02, -8.48742377e-04,
  -1.61893177e-03, -3.93360993e-03, 8.18188861e-03, -1.44040259e-02,
  -1.55950990e-02, 2.76234616e-02, -1.56990979e-02, 5.26007777e-03,
  -8.22128169e-03, -2.38811504e-02, 3.58641334e-03, -1.58814862e-02,
   1.02881361e-02, 1.58623513e-02, 2.43060347e-02, 2.45708018e-03,
  -2.16493662e-02, 2.84146052e-03, -7.39287352e-04, 1.34492787e-02,
  -2.36404575e-02, -1.25238821e-02, 5.61421597e-03, -8.67869239e-03,
   1.08750118e-02, 1.94162689e-02, 1.15925977e-02, -2.72359001e-03,
   4.42140549e-03, 1.86310038e-02, -1.12189846e-02, 7.11998530e-03,
  -5.65734832e-03, 2.31151562e-02, -2.76566809e-03, 2.47542430e-02,
  -7.12011708e-03, -1.59574002e-02, 1.81315772e-04, 8.38689506e-03,
  -1.72280672e-03, -1.32964812e-02, 4.64927917e-03, 1.39819328e-02,
   2.53917696e-03, 6.30351389e-03, -4.16831337e-02, -2.41159298e-03,
  -3.53505500e-02, -9.11874883e-03, 1.76499896e-02, -2.55785324e-02},
 {-6.39458699e-03, -1.16186989e-02, -7.64178811e-03, -2.42396165e-02,
   1.75473969e-02, 3.49985831e-03, -7.59852491e-03, -1.86514799e-02,
   1.33400096e-03, 1.63727216e-02, 3.81381214e-02, -1.86200403e-02,
   1.22957239e-02, 6.43197214e-03, 1.25091290e-02, 1.14235189e-02,
  -6.60684146e-03, -6.00430835e-03, -2.08273660e-02, 4.61554667e-03,
   1.24825425e-02, 3.92342173e-03, -2.08225145e-04, -1.37286475e-02,
   8.08364432e-03, 1.55893201e-02, 5.03207929e-03, 1.91274215e-03,
   5.69984503e-03, 4.61970968e-03, -3.54384184e-02, -9.55855381e-03,
   2.44150516e-02, -2.01995000e-02, 2.49176193e-02, 2.42010690e-02,
   1.32845994e-02, 1.92988403e-02, -9.43788793e-03, 7.74238911e-03,
   6.94094179e-03, -8.32616538e-03, 1.61200091e-02, -3.61586269e-03,
   2.30800956e-02, -5.89424977e-03, -6.85598818e-04, 1.79702265e-03,
  -9.22694709e-03, -4.71057510e-03, -4.04532766e-03, -5.73423831e-03,
   1.11783762e-02, -1.02860492e-03, 2.85094348e-03, 1.65244378e-02,
   3.89447273e-03, -6.05085306e-03, -1.26796048e-02, 1.87769793e-02,
  -1.77465230e-02, -8.86223000e-03, 1.70358308e-02, 3.79926502e-03,
   1.29839242e-03, 9.40289162e-03, -3.78048571e-04, 1.37336897e-02,
   3.79503844e-03, 8.84534384e-04, 1.32989390e-02, 2.04640590e-02,
   1.56447361e-03, 6.86023012e-03, 4.87503159e-04, 9.66859702e-03,
  -2.65526422e-03, 9.86300438e-06, -8.60044453e-03, -8.78165010e-03,
   1.86893903e-03, -7.43375020e-03, -3.97539046e-03, -1.77316312e-02},
 {-2.86282203e-03, -4.53860732e-03, 1.10512590e-02, -1.89514980e-02,
  -2.85925288e-02, 2.79447362e-02, -8.48655589e-03, -8.70609377e-03,
  -5.09819249e-03, -8.08216818e-03, 5.22336178e-03, 1.35188280e-02,
   1.62347686e-02, 1.06357140e-02, 1.38592836e-03, 1.59330445e-03,
   1.44019574e-02, 2.84767691e-02, -1.51789850e-02, -2.35751877e-03,
   7.34763802e-04, 1.34620676e-03, -3.07762064e-03, 6.48499513e-03,
  -1.83288567e-02, 9.29562375e-03, -7.24570034e-03, 9.85587575e-03,
   6.01886353e-03, -1.66385863e-02, 2.17691585e-02, 1.78845190e-02,
  -8.87950789e-03, 2.26731766e-02, 5.36396820e-03, -1.67390204e-03,
  -1.45442272e-03, -6.17362699e-03, 1.30833527e-02, -4.79376828e-03,
   5.13249915e-03, -1.50074679e-02, -1.07813058e-02, -1.14820767e-02,
   2.08046287e-03, -3.68004106e-03, -1.61571279e-02, -2.26748525e-03,
   1.23055931e-02, -7.35531654e-03, -1.87131055e-02, -9.03243897e-04,
   3.75812617e-03, -4.72279324e-04, -2.86305207e-03, 6.97426358e-03,
  -1.20560965e-02, 2.34357291e-03, 6.65327348e-03, -4.67014033e-03,
  -7.41100218e-03, 4.41718474e-03, 1.56947970e-03, -1.08987959e-02,
   2.09831651e-02, -7.14211632e-03, 1.11754285e-02, 3.82544356e-03,
   2.90537328e-02, 1.31958420e-03, 2.73136003e-03, -3.67556396e-03,
  -1.67915337e-02, -1.98768103e-03, -3.90989415e-04, 1.65203698e-02,
   4.97949263e-03, -1.60297677e-02, 2.51472723e-02, -7.34115392e-03,
  -5.74724423e-03, 2.23324485e-02, 7.74058886e-03, 1.07154297e-02},
 {-1.25031336e-03, 2.03833394e-02, 2.16909815e-02, -1.14654033e-02,
  -2.73868162e-02, -2.62365647e-04, 1.55890259e-04, -1.37203773e-02,
   3.15956734e-02, -6.73173508e-03, -1.89025123e-02, 1.47354761e-02,
  -1.24426768e-03, 6.00090437e-03, -2.58803344e-03, -5.33466274e-03,
  -2.03872398e-02, -2.84733642e-02, 1.92447528e-02, 1.39345527e-02,
   1.78615917e-02, 1.50697045e-02, 2.80213207e-02, -2.09639072e-02,
   9.21491534e-03, -2.73216050e-03, -1.37906494e-02, 9.00959969e-03,
   1.66570265e-02, -1.07791964e-02, -2.80994065e-02, -3.99459992e-03,
   7.10081495e-03, -7.35459710e-03, 6.83033932e-03, -1.29793575e-02,
  -5.83761255e-04, -3.19379877e-04, 5.88957081e-03, 1.38827495e-03,
   2.22938415e-02, 5.22331567e-03, -9.11217369e-03, 2.48902719e-02,
  -6.06026733e-03, 5.29728504e-03, -5.29070618e-04, 9.66296624e-03,
  -3.63966660e-03, 2.76490673e-02, -8.25393293e-03, 1.15583593e-03,
   1.92747973e-02, 9.78816766e-03, 2.37680674e-02, 1.47938030e-02,
   8.18562880e-03, -1.77908745e-02, -1.31109143e-02, -1.60652604e-02,
   8.69854819e-03, -1.54417939e-02, 2.17517707e-02, 1.07278228e-02,
   1.08103836e-02, 5.89146046e-03, -2.15542819e-02, -6.95527764e-03,
  -2.72452272e-02, -1.55886123e-02, -2.74284314e-02, -1.14082582e-02,
  -1.37602529e-02, -4.81627742e-03, 3.44713964e-03, 3.90589871e-02,
  -5.69619285e-03, 1.48544153e-02, 5.55540260e-04, -3.72201251e-03,
  -4.10017669e-02, -1.75932851e-02, 8.23750813e-03, 6.19795127e-03},
 {-3.60275595e-03, -6.68194750e-03, 3.76954512e-03, -2.68714819e-02,
  -2.10331031e-03, -6.26165513e-03, -4.55339346e-03, -3.34090088e-04,
   1.23495292e-02, -1.22847082e-02, 6.14143396e-03, 1.80434654e-05,
  -9.53788683e-03, 2.39156391e-02, 1.62934675e-03, -8.42885114e-03,
   7.18040252e-03, -1.86944683e-03, -6.59709657e-03, 1.40259846e-03,
   2.07564980e-03, 5.19915344e-03, -8.67187046e-04, -8.49886332e-03,
   1.16920024e-02, 2.34608701e-03, -4.92055900e-03, -3.42693459e-03,
   1.87575398e-03, -3.43577564e-03, 8.06075614e-03, 3.45474407e-02,
  -4.78930632e-03, -1.10466937e-02, -2.85713724e-03, 7.24015199e-03,
  -3.98474419e-03, 4.31125576e-04, 7.64556788e-03, -3.17389215e-03,
  -6.46816799e-04, -7.79613620e-03, -1.05697783e-02, 9.33707505e-03,
   9.54240467e-03, 4.13689809e-03, -2.46341759e-03, 9.21720359e-03,
  -1.58204383e-03, -1.86771061e-03, 9.89202783e-03, -7.00473133e-03,
   1.45093817e-02, -2.41671526e-03, -1.05292285e-02, 1.70970820e-02,
  -6.99301995e-03, 2.11495883e-03, -1.23113832e-02, -3.70914210e-03,
  -6.32333010e-03, 8.88825860e-03, 2.08532065e-02, -1.32291252e-02,
  -8.68295319e-03, 5.25909103e-03, -9.06199962e-03, 7.95831997e-03,
   8.40356341e-04, -4.75376099e-03, -1.03309937e-03, -1.15061337e-02,
   1.14505319e-02, 1.47408620e-02, -3.51692492e-04, 9.77192260e-03,
  -1.04613900e-02, 1.29434271e-02, 1.17653119e-03, 3.91344121e-03,
  -1.84676126e-02, 9.99101158e-03, -9.26179811e-03, -1.52445899e-03},
 {-3.15148458e-02, 1.36196604e-02, 3.52909639e-02, 4.05997690e-03,
  -2.66154259e-02, 1.75035316e-02, -1.57511681e-02, 2.88456883e-02,
  -4.38133487e-03, -3.19255330e-02, 3.85408998e-02, -2.77607813e-02,
   1.56538300e-02, 1.00827087e-02, -1.92357991e-02, -1.25053874e-03,
  -1.70058180e-02, 4.65107709e-02, -2.32056491e-02, -3.16777565e-02,
   3.38922516e-02, -2.01042779e-02, -4.85461424e-05, 2.00556405e-03,
  -2.27469355e-02, -1.90248340e-02, -4.50798050e-02, 2.35297941e-02,
  -1.66882575e-02, -7.24698743e-03, 5.23322336e-02, -7.31248409e-03,
  -2.07604300e-02, 2.31948067e-02, -2.01818179e-02, 1.96898058e-02,
   1.10735297e-02, -2.55593807e-02, 4.36151884e-02, -2.20326353e-02,
  -4.81771491e-03, 7.12123234e-03, -5.23116998e-02, 3.84783372e-03,
   3.08649726e-02, -8.35984573e-03, -2.81852018e-02, 7.22633023e-03,
  -2.38183681e-02, 3.00517399e-03, 7.43531529e-03, -3.42067666e-02,
  -2.30611465e-03, -8.98168713e-04, 3.33898072e-03, -3.98681685e-02,
  -1.82648022e-02, 2.26854496e-02, 2.28000432e-02, -2.38262229e-02,
   4.34776992e-02, -6.87617983e-04, 1.70380641e-02, -2.11218186e-02,
  -1.13287549e-02, 6.64403150e-03, 5.48067056e-02, 1.57743953e-02,
   3.56052890e-02, -2.98641436e-03, -4.47651790e-03, 5.81105752e-03,
  -3.74012772e-04, 3.09624951e-02, -2.72935769e-03, -2.98054852e-02,
   9.48823523e-04, -4.41214330e-02, 6.24561915e-03, 3.78527120e-02,
   1.51664531e-02, -2.31356150e-03, 4.80212159e-02, 5.18396264e-03},
 {-1.87998787e-02, -6.16102247e-03, -1.11617623e-02, 1.05227996e-03,
   4.18717302e-02, -4.09304090e-02, 1.92945357e-02, 5.65719744e-03,
   1.31090414e-02, 2.28616968e-02, -2.16520447e-02, 1.32605676e-02,
  -4.15301174e-02, -1.74890626e-02, -8.12968239e-03, -2.31459718e-02,
   1.06616504e-02, 1.69092487e-03, 2.31359191e-02, -5.33501431e-03,
  -5.64047601e-03, 5.46695478e-03, -2.61994693e-02, 1.80050097e-02,
  -5.53033827e-03, -1.06021781e-02, -6.46700431e-03, 2.74430728e-03,
  -9.73462593e-03, 2.13677250e-02, -1.03656584e-02, -1.12742130e-02,
   8.95020552e-03, 2.18756963e-02, -9.12466366e-03, -1.10128550e-02,
   1.28053466e-03, 6.47256291e-03, -2.52551981e-03, 2.57845502e-02,
  -1.17921978e-02, 1.13959815e-02, 1.93011053e-02, 9.01437737e-03,
   2.65132952e-02, 2.71564326e-03, 3.71533521e-02, -3.36372778e-02,
   3.47642158e-03, -2.08995715e-02, 2.93440148e-02, 1.10133858e-02,
  -2.53779441e-02, 2.76791072e-03, 3.46422568e-02, -7.58352317e-03,
   5.68611780e-03, 3.95731181e-02, 3.19107482e-03, 3.49418372e-02,
  -1.44395409e-02, -9.45210084e-03, -1.34534726e-03, 2.43648682e-02,
  -2.06658989e-02, -1.29241506e-02, 8.81359447e-04, -2.50174734e-03,
  -3.06903366e-02, 4.31128964e-03, 2.96742357e-02, 1.94859169e-02,
   5.48074441e-03, -1.85450315e-02, 9.97684896e-03, -1.86169539e-02,
   1.61060337e-02, 9.44956578e-03, -3.59392166e-02, 2.41992474e-02,
   2.33115703e-02, -9.26567428e-03, -5.91535587e-03, -1.01063065e-02},
 {-2.02957285e-03, -1.32919126e-03, -1.74292978e-02, -1.74219941e-03,
  -2.41314736e-03, -7.04539800e-03, 4.50889900e-04, 1.53836235e-02,
   9.28256568e-03, 2.51091109e-03, 4.27958556e-03, 8.71977489e-03,
  -7.03038275e-03, -1.11732085e-03, 1.59089155e-02, 5.35994628e-03,
  -2.01900653e-03, -1.05550792e-02, 1.10556427e-02, -1.13528911e-02,
  -2.92733102e-03, 1.12103415e-03, -1.51258931e-02, 9.93924448e-04,
  -4.17627022e-03, -1.46502128e-03, 1.86297316e-02, 4.41231392e-03,
   4.25173296e-03, -8.53067823e-03, -1.95203861e-03, -9.87267587e-03,
  -1.39320362e-02, 8.14840104e-03, -1.47908684e-02, 8.43441952e-03,
   1.15740094e-02, -6.70319330e-03, -5.37948031e-03, -9.14786011e-03,
   1.65227726e-02, 1.69626495e-03, -1.15521774e-02, 8.19982309e-03,
   6.39309175e-03, 2.09263712e-03, -5.67793380e-03, 3.26626725e-03,
   1.02314521e-02, 1.42695997e-02, -4.92575206e-03, 1.39424682e-03,
   8.42070300e-03, 2.76519898e-02, 1.33345462e-03, -1.35404579e-02,
   1.50667923e-02, -1.41234100e-02, 1.85846479e-03, -8.64425953e-03,
   7.82395992e-03, -3.59853799e-03, -1.93353575e-02, -6.03033602e-03,
  -1.26844449e-02, -1.24585824e-02, 4.23194002e-03, -1.15925511e-02,
   9.34047438e-03, 3.66145559e-03, -1.44940161e-03, -1.08356066e-02,
   1.91005203e-03, -2.89603719e-03, 1.02545060e-02, -8.42464902e-03,
  -3.16164660e-04, -2.95914593e-03, -3.00568790e-04, -1.27322255e-02,
  -1.92293301e-02, -2.80778110e-03, -9.85770579e-03, -2.44522281e-03},
 {-1.07315974e-02, -1.54046447e-03, 1.43487314e-02, 1.27982395e-02,
   1.32276453e-02, -2.49649072e-03, 3.59186321e-03, -2.34837309e-04,
  -6.83979783e-03, 1.05988411e-02, -5.64401830e-03, -1.39372721e-02,
  -9.67625342e-03, -5.50681585e-03, 4.55049053e-03, 2.08136719e-02,
   3.05067915e-02, 2.98767388e-02, 2.88284421e-02, 4.02773777e-03,
   1.63700397e-03, -2.59104837e-03, 1.97071396e-03, 2.09004581e-02,
  -1.49648152e-02, -2.73437556e-02, -2.28834338e-02, 1.03433393e-02,
   4.91242623e-03, 8.91637150e-03, 2.74410583e-02, -2.85583381e-02,
   8.37980583e-03, 3.88748222e-03, -1.38279926e-02, 6.76489482e-03,
   1.53750870e-02, -3.02146102e-04, 3.56790274e-02, -1.53380604e-02,
  -1.27687035e-02, -5.75522287e-03, 1.38787611e-03, -1.29102208e-02,
   2.38302327e-03, 3.56665201e-04, 5.57338586e-03, -1.39773907e-02,
  -2.16522273e-02, 8.39850493e-03, 2.12321747e-02, -1.18938275e-02,
  -1.82479955e-02, 2.17577815e-02, 1.07511003e-02, -1.72064081e-02,
  -7.39643583e-03, 8.64813570e-03, -1.06664076e-02, 1.08224805e-02,
  -1.02646155e-02, -1.03371944e-02, 2.01762770e-03, 7.46296206e-03,
   4.38284420e-04, 1.16767560e-03, 2.88281459e-02, -4.46363632e-03,
   8.09376827e-04, 1.09439408e-02, -9.14725568e-03, 5.05870674e-03,
   1.25271380e-02, -7.25268619e-03, 1.55227883e-02, -1.42671485e-02,
   7.13678682e-03, -2.31014211e-02, -7.98392855e-03, 2.78918184e-02,
   2.85970848e-02, -1.18228626e-02, 3.07832733e-02, 2.24942551e-03},
 {-7.94670836e-04, 6.36292482e-03, 1.41347544e-02, -5.68766519e-03,
  -5.05852047e-03, -3.15382611e-03, 2.72413995e-03, -2.14997889e-03,
   1.83687136e-02, -1.18609881e-02, 1.93160813e-04, 1.61106735e-02,
  -1.15433047e-02, -1.27862850e-02, 1.27775723e-03, 1.59306813e-03,
  -1.88120268e-02, -9.77803022e-03, -1.39970407e-02, 3.99917178e-03,
  -2.25048559e-03, -1.37202107e-04, -1.57464482e-02, 2.02802941e-04,
  -8.56969692e-03, -7.99101498e-03, -8.53282493e-03, 8.80165899e-04,
  -9.87689104e-03, -9.88051295e-03, -1.28015957e-03, 4.59926669e-03,
   9.58282035e-04, -4.89169825e-03, 5.47286170e-03, 6.26836950e-03,
  -6.25220407e-03, 1.30037395e-02, 1.73803966e-03, 2.05030222e-03,
   2.95363483e-03, 1.55074168e-02, 1.35774026e-02, -8.85331724e-03,
  -6.35198597e-03, -9.00557451e-03, 1.06370542e-02, -5.68964751e-03,
   7.10970350e-03, -4.64878278e-03, 9.32204444e-03, 4.15358320e-03,
  -1.42873777e-02, 9.01256595e-03, 6.36662077e-03, -1.45879481e-02,
   5.01856254e-03, 1.89814530e-03, 1.08787678e-02, -5.43976948e-03,
  -9.51159373e-03, 2.16432903e-02, -7.38613028e-03, 1.66221391e-02,
   1.90064427e-03, 1.95591319e-02, -8.02739616e-03, -2.14264002e-02,
  -9.40585323e-03, -4.12665494e-03, 9.45152715e-03, -3.72725236e-03,
  -2.16246322e-02, 1.01896108e-03, -1.54545791e-02, -4.17700969e-03,
  -1.18985241e-02, 3.33400839e-03, 1.52913174e-02, -1.10501685e-04,
   6.00265991e-03, -2.66899052e-03, -8.46920442e-03, 1.80696091e-03},
 { 1.55955534e-02, 1.81120634e-02, 2.10832153e-02, 2.49869730e-02,
   3.62270586e-02, 9.86640807e-03, -4.73451056e-03, -1.79813746e-02,
   1.41773969e-02, 7.95068499e-03, 7.25410972e-03, 1.88068002e-02,
  -1.88316219e-02, -5.41710760e-03, 1.33816749e-02, -3.25964484e-03,
  -1.77058938e-03, -2.45474260e-02, 1.64731704e-02, 2.47160736e-02,
   6.05574856e-03, 1.87418167e-03, -6.07516989e-03, -2.30213199e-02,
  -7.91369705e-04, -2.09275371e-04, -3.27483611e-03, -2.60389596e-02,
   7.70291500e-03, 2.17358553e-04, -2.42061652e-02, -2.37366837e-02,
   2.46497728e-02, -2.31044088e-02, 3.04693561e-02, -1.57520063e-02,
   5.23245335e-03, -1.10016239e-03, -1.35451844e-02, 2.07856931e-02,
   2.38391217e-02, 1.32966470e-02, -7.95487780e-03, 1.48596866e-02,
   6.51102513e-03, 5.12353238e-03, 2.66886819e-02, -1.04606068e-02,
  -4.85936850e-02, 1.28479293e-02, 1.84186473e-02, 2.71310564e-04,
   9.03698243e-03, 4.96141473e-03, 2.33257059e-02, 1.96073148e-02,
   1.49089415e-02, 6.38945680e-03, -2.56566564e-03, -5.46674477e-03,
  -2.08550841e-02, -8.52067117e-03, 1.81056950e-02, 1.96326263e-02,
   2.67288228e-03, -3.10733207e-02, -1.08379843e-02, -1.36873228e-02,
  -5.16925603e-02, -1.79512389e-02, 2.85873041e-02, 1.12077706e-02,
   2.54262029e-03, -1.16629377e-02, -1.18068047e-02, 1.96885448e-02,
  -6.58984203e-03, 1.23725347e-02, -1.41258556e-02, -8.28899350e-03,
   6.58255769e-03, -2.54661567e-03, 9.67780966e-03, -1.09297307e-02},
 {-6.26748521e-03, 1.23853255e-02, 7.31437816e-04, -1.30693596e-02,
  -7.45736342e-03, -2.32405290e-02, 7.89932627e-03, 1.08552240e-02,
   8.02767754e-04, -1.20014958e-02, -1.12943593e-02, -1.25432014e-02,
   1.07848337e-02, -1.64097920e-02, -2.98946281e-03, 6.00873725e-03,
  -8.52581020e-03, -2.53517665e-02, -1.11936936e-02, 1.97431799e-02,
  -2.35198606e-02, -2.60801171e-03, 1.12697261e-03, -1.93866473e-02,
   2.46686805e-02, 2.50799507e-02, 1.36145754e-02, -1.85172763e-02,
  -8.28823820e-03, 8.95315129e-03, -4.56226524e-03, -1.92324095e-03,
   9.39137489e-03, 2.22346582e-03, -5.88454714e-04, -1.45438255e-03,
  -2.10977197e-02, -4.41096490e-03, -2.31451560e-02, 3.28798145e-02,
   1.44644538e-02, -7.36523047e-03, 1.20496321e-02, 8.16723891e-03,
   1.89621206e-02, -1.34688970e-02, 1.54840515e-03, 5.95703442e-03,
   1.02547668e-02, -5.76664833e-03, 3.14021483e-02, 2.17577461e-02,
  -2.62777582e-02, -5.38348593e-03, 1.25435484e-03, -9.23425425e-03,
   1.92802791e-02, 1.90264999e-03, -1.60283260e-02, 2.17444729e-03,
  -5.26720285e-03, 9.36206803e-03, -2.50573605e-02, -4.36401198e-04,
   5.78926178e-03, -7.34123308e-03, 2.04349458e-02, 5.88968862e-03,
   1.35203893e-03, -3.95394443e-03, -4.11734032e-03, -1.23680476e-02,
  -1.94755513e-02, -8.13289359e-03, -1.36666307e-02, 2.49003153e-02,
   1.81350037e-02, 1.50143839e-02, 2.68538594e-02, -1.70311723e-02,
   1.28646111e-02, 1.13397697e-02, -7.22229388e-03, -5.64306625e-04},
 {-9.04838927e-03, 1.96174551e-02, -1.62390079e-02, -1.34046515e-02,
  -1.87139623e-02, 4.13103178e-02, -3.43978964e-03, -1.18766343e-02,
  -1.16758887e-02, -1.78890731e-02, 3.00602359e-03, 1.16376420e-02,
   3.43998410e-02, -1.07026631e-02, 3.45435139e-04, 1.34708676e-02,
  -4.92076809e-03, 1.93556361e-02, -1.54783232e-02, -2.04088148e-02,
  -7.84254400e-04, 2.60388042e-04, -1.22033563e-02, -2.28530983e-03,
  -1.91185214e-02, -1.13179814e-02, -1.51257496e-02, -2.25164602e-03,
  -1.57871023e-02, -1.26304142e-02, 1.51570421e-02, 4.15852368e-02,
  -1.48295760e-02, 5.82260895e-04, -2.67833908e-04, 1.30507136e-02,
  -1.68674218e-03, 1.06983464e-02, 9.44858324e-03, 9.77493450e-03,
  -2.30722986e-02, -1.71909332e-02, -2.56520100e-02, 8.68361094e-04,
   5.26595721e-03, -1.21772932e-02, -4.74519841e-03, 3.30540836e-02,
   8.63709301e-03, -2.10228562e-02, -2.87774988e-02, -1.13506280e-02,
   1.04450826e-02, -5.30739548e-03, -3.23363282e-02, 8.22827592e-03,
  -3.35177630e-02, 1.62898451e-02, 2.65906975e-02, -4.47770813e-04,
   1.56118572e-02, -8.02005816e-05, 1.11984638e-02, -3.33327858e-04,
  -4.72046016e-03, 4.54490026e-03, 4.36118431e-03, 4.07343777e-03,
   4.46516164e-02, 1.52874151e-02, -7.97850732e-03, 3.61410948e-03,
  -4.13166126e-03, 2.41219848e-02, -6.73565897e-04, 1.54911913e-02,
  -1.13958959e-02, -1.49584759e-03, 2.64693573e-02, -1.81564130e-02,
   1.18869245e-02, 1.05563714e-03, -1.17675299e-02, 1.95336100e-02},
 { 1.02943797e-02, -1.33724660e-02, -1.63152372e-03, -1.94585677e-02,
  -1.20354434e-02, 1.68621652e-02, -1.79731101e-02, -9.86833707e-04,
   1.59187708e-02, -2.08123922e-02, -5.42638265e-03, 5.12926839e-03,
   1.67954788e-02, 8.09714198e-03, -9.18552279e-03, 8.65265355e-03,
  -6.24827947e-03, 1.55370506e-02, -6.41131634e-03, -2.88911182e-02,
   6.80790143e-03, -3.23126628e-03, -1.36978943e-02, -1.16905672e-02,
  -2.38699522e-02, -1.21764245e-03, -3.65630537e-03, 1.88385714e-02,
  -6.01443509e-03, -6.52111659e-04, 9.44485236e-03, 6.27908949e-03,
   2.60478705e-02, -2.70416588e-03, -5.19458065e-03, -7.06290593e-04,
  -8.00259225e-03, 1.06759071e-02, 6.48159627e-03, 1.13468338e-02,
  -4.27932031e-02, 1.94737762e-02, -2.66096229e-03, 2.45151948e-02,
  -2.29058298e-03, 5.41548198e-03, 1.12521159e-03, -6.72157062e-03,
  -5.36148390e-03, -2.48640329e-02, -6.39050733e-03, -1.10231119e-03,
   1.28872599e-03, 3.83335561e-03, 9.88502242e-03, -3.21668945e-03,
  -9.41571314e-04, -4.08494426e-03, -8.59031733e-03, 1.79265607e-02,
  -3.59226135e-03, -1.25469668e-02, -1.68482098e-03, -3.52314557e-03,
  -1.09672835e-02, -9.97704826e-03, 1.27960546e-02, 5.52677689e-03,
   1.19699594e-02, 1.01812948e-02, 9.31995921e-03, -6.44394988e-03,
   2.44803578e-02, 1.23650383e-03, 7.46667339e-03, -4.95126424e-03,
  -1.27476593e-02, -4.56415844e-04, 8.19472969e-03, 1.70526132e-02,
   2.87812110e-02, -1.59597991e-03, -2.67185085e-03, 2.38430575e-02},
 {-3.68114077e-02, -3.36562954e-02, 2.16287654e-03, 6.62552833e-04,
   2.87378319e-02, -4.79056383e-04, -1.47043681e-02, 3.20352539e-02,
  -4.40838793e-03, -6.64548390e-03, -3.78008671e-02, -6.22658012e-03,
  -1.50607275e-02, -1.10607138e-02, 1.55220339e-02, 6.82056788e-03,
   3.31997052e-02, 1.59419887e-02, 9.08777304e-03, -8.82850774e-03,
   9.88080748e-04, -7.67686032e-03, -3.98407364e-03, 2.10947227e-02,
   5.33478241e-03, -6.04385789e-03, 1.48277022e-02, 8.10184237e-03,
   1.08609470e-02, 3.20602432e-02, -8.82974546e-03, -4.85738972e-03,
  -3.22274677e-02, 2.33793724e-03, -2.29889825e-02, -1.63079966e-02,
  -1.10670608e-02, 7.07414700e-03, 5.46572916e-03, -1.70830439e-03,
  -1.16869528e-02, -1.46067441e-02, 2.31858678e-02, -2.20400076e-02,
   1.22552654e-02, 4.39035613e-03, 5.99910691e-03, -1.69733837e-02,
   8.08798056e-03, -1.52981328e-02, 8.12950544e-03, 2.26385910e-02,
  -1.14350580e-02, 2.14984152e-03, 2.96129799e-03, 5.95907541e-03,
   6.66067889e-03, 1.92745030e-02, 8.37949757e-03, 3.29979733e-02,
  -1.88808646e-02, 3.22124758e-03, -1.72441006e-02, 2.20448468e-02,
  -1.01325717e-02, -6.83480001e-04, 2.42977981e-02, -2.11641062e-02,
   1.37671325e-02, 1.43189877e-02, 1.55094806e-02, -4.22196975e-03,
   1.37242954e-02, -2.87712347e-02, 1.42297940e-02, -9.23512597e-03,
   2.04365496e-02, -9.18650907e-03, -2.80951504e-02, 1.02797523e-02,
  -1.62979905e-02, -2.20757481e-02, -3.70256649e-03, -1.97813828e-02},
 { 7.27555482e-03, 1.96163096e-02, 1.06772396e-03, 5.19960839e-03,
   1.38422213e-02, -1.34834992e-02, 1.32440347e-02, -1.46848047e-02,
   6.24221226e-04, 7.37797050e-03, -1.01217432e-02, -7.26475101e-03,
   1.97309554e-02, -8.94880202e-03, 2.62782257e-03, -2.31017149e-03,
  -1.04547590e-02, -1.11578126e-02, -1.66778397e-02, 4.43141069e-03,
  -1.73318665e-03, 1.32664330e-02, 9.37487744e-03, 1.62501149e-02,
   1.18009904e-02, 9.16693825e-03, 4.45596827e-03, 6.76377630e-03,
  -6.70118583e-03, -1.64010935e-02, 1.14530055e-02, 9.31479782e-03,
   3.46288271e-03, 1.60369929e-02, 4.93206643e-03, 6.58169622e-03,
   5.98035927e-04, -5.55411400e-03, -1.32616619e-02, -1.53079694e-02,
   2.38646269e-02, 1.73271839e-02, -1.26563516e-02, -8.93555873e-04,
  -3.18864384e-03, 4.84435353e-03, 2.16969196e-02, -1.26985749e-02,
  -1.39602628e-02, 1.39506413e-02, 1.48128904e-02, -9.49063525e-03,
  -1.22936238e-02, -1.49384411e-02, 6.81067351e-03, 2.12728474e-02,
   8.42670444e-03, -1.25249047e-02, -7.15889456e-03, 9.70124826e-03,
   5.59637323e-04, -2.20736489e-03, 2.82748858e-03, -4.46519256e-03,
   3.09426384e-03, -1.46392202e-02, -2.98119639e-03, 3.58587189e-04,
  -1.00571448e-02, -2.75053643e-02, 2.40803603e-03, -2.73159449e-03,
  -1.31248524e-02, 8.41985643e-03, 3.25626787e-03, 6.94423262e-03,
  -2.76818164e-02, -5.67323575e-03, 1.88811049e-02, -2.17324402e-02,
   5.20453509e-03, 2.34981459e-02, 5.65707684e-03, 1.58895645e-02},
 { 1.03989569e-02, -3.08432169e-02, -1.53557435e-02, -2.09629573e-02,
   7.32642540e-04, -1.06237670e-02, 1.71940085e-02, 7.27993948e-03,
   1.16746305e-02, 8.91315099e-03, 1.42581249e-02, -5.05717471e-03,
  -7.00048590e-03, 2.68253428e-03, -1.83165055e-02, -5.57303661e-03,
  -1.67576876e-02, -3.17149563e-03, 1.80376098e-02, -3.08476831e-03,
  -8.41783173e-03, -1.74948666e-02, -1.18140653e-02, 1.87498201e-02,
  -2.08371282e-02, 1.22160362e-02, -1.34510733e-02, 3.37579772e-02,
  -1.35275749e-02, 3.01817153e-03, 9.51521564e-03, -5.29051293e-03,
   3.35629564e-03, 6.32267073e-03, -1.10842148e-02, 2.24448685e-02,
   1.33911185e-02, 2.96372711e-03, 1.77348554e-02, 1.26923108e-02,
  -4.50943485e-02, 1.19541949e-02, 1.89584643e-02, -5.72872022e-03,
  -1.04407175e-02, -1.05207646e-02, -1.35353450e-02, -2.93834750e-02,
   1.98025592e-02, -2.01500356e-02, 3.47506092e-03, -1.25859855e-02,
  -3.47433500e-02, 1.57283992e-03, 8.84595886e-03, -1.54073443e-02,
  -6.60759304e-03, -3.50012556e-02, 1.53258406e-02, 3.28749865e-02,
  -2.06781588e-02, -1.48368720e-02, -1.08784800e-02, 1.96749959e-02,
   2.29318321e-04, 2.76779681e-02, 7.24018598e-03, 1.46522457e-02,
   9.97137185e-03, 2.47337632e-02, 5.18467836e-03, -1.85047202e-02,
   9.52229835e-03, -1.64197553e-02, 1.87865216e-02, -8.92954879e-03,
   3.50792371e-02, 1.04098041e-02, -1.16208550e-02, 1.66035444e-02,
   4.13277186e-03, 1.99887548e-02, -3.39612961e-02, 7.73806730e-03},
 { 1.19435345e-03, -1.67107070e-03, 2.99078738e-03, -1.69532234e-03,
  -1.45894000e-02, 1.77559182e-02, -1.36002814e-02, 4.32567066e-03,
  -5.29429689e-03, -2.64605670e-03, 1.46224024e-03, 1.63416881e-02,
   1.50077371e-02, -2.93792668e-03, -8.45833030e-03, -1.68297626e-02,
  -6.19699433e-03, -9.20028333e-03, 1.44314943e-02, 3.51542421e-03,
  -5.04139625e-03, -1.07740257e-02, -1.16557523e-03, -7.93844368e-03,
   2.71640578e-03, 4.95480839e-03, -1.17099294e-02, -1.56992730e-02,
  -4.23935894e-03, -5.50907978e-04, -7.86555652e-03, 1.14974538e-02,
   1.63891949e-02, 1.59089044e-02, -2.12632511e-02, -1.72366519e-04,
  -1.19783627e-02, -1.26050133e-02, -1.81231666e-02, 2.97438237e-04,
  -1.05814394e-02, -1.79733224e-02, -6.09048270e-03, -5.86302113e-03,
   1.92836728e-02, 5.29748434e-03, -1.04804570e-02, 3.22569497e-02,
   1.91461737e-03, -1.65640004e-03, -2.80077057e-03, -6.41234498e-03,
   1.82161294e-02, 2.36743782e-03, -5.62173035e-03, 2.23723054e-02,
  -6.75207283e-03, 1.29625881e-02, 1.21211316e-02, 1.02737742e-02,
   1.00985030e-02, -2.32135714e-03, -3.48759443e-03, -1.26486085e-03,
  -2.41704434e-02, 1.76672861e-02, 1.76435485e-02, 1.42205982e-02,
   2.80665550e-02, 6.36121957e-03, -1.08096665e-02, -1.48889022e-02,
  -3.15622874e-02, 1.74560386e-03, -2.66831405e-02, 4.78981668e-03,
   6.75776880e-03, 2.56260540e-02, 1.40337627e-02, 8.92852154e-03,
  -8.83077178e-03, 6.84983330e-04, -3.16508561e-02, 4.01773863e-03},
 {-1.57971168e-03, -3.90480682e-02, -2.67914031e-02, 1.11952890e-02,
   1.65621433e-02, -1.05385697e-02, 1.21789901e-02, 9.99875739e-03,
  -2.29888838e-02, 1.77130066e-02, -3.19598876e-02, 4.79861163e-03,
  -3.31880115e-02, 8.84099514e-04, 4.77020815e-03, -9.74009652e-03,
  -1.47625152e-03, -1.16151292e-03, 3.60713266e-02, -1.99367944e-02,
  -1.41519364e-02, 2.25416161e-02, -2.07317285e-02, 2.78171357e-02,
  -1.07658859e-02, -3.57917808e-02, -4.95547662e-04, 1.38163660e-02,
  -1.96329337e-02, 3.34442891e-02, 3.32993455e-02, 6.44238759e-03,
  -2.98517123e-02, 1.75068229e-02, -1.38167366e-02, 9.79304779e-03,
   2.18859036e-02, -3.74118402e-03, 2.14585308e-02, -1.44788008e-02,
  -1.41642047e-02, -8.77770502e-03, 2.50550173e-03, 8.76630936e-03,
  -1.01449490e-02, -2.74505801e-02, 2.70346459e-02, 1.46593712e-02,
   2.52966266e-02, -2.67545972e-02, -8.03322997e-03, -1.64954886e-02,
   1.04862358e-02, 2.54973248e-02, 2.16758568e-02, -1.85897462e-02,
  -1.26941986e-02, 1.16357883e-03, 1.00204954e-02, -3.26216803e-04,
  -3.37653905e-02, -2.96546258e-02, -1.17166843e-02, 3.91803822e-03,
  -1.40379500e-02, 9.63909924e-03, -5.74420067e-03, 1.37538603e-02,
   2.32416689e-02, 3.51328850e-02, -1.20403385e-02, -3.37199867e-03,
   2.42344160e-02, -1.83416810e-02, 1.22439954e-02, -2.45379582e-02,
   2.00483836e-02, -1.52532822e-02, -8.03316757e-03, 9.99555830e-03,
   6.75686356e-03, 1.91144701e-02, -1.21459388e-03, 1.82826910e-03},
 {-2.49421336e-02, -3.20390961e-03, -3.42095998e-04, 9.86436848e-04,
   1.78011023e-02, -4.64488566e-02, 1.20568899e-02, 2.40334906e-02,
  -2.47448392e-04, 3.39812450e-02, -2.57107243e-02, 2.45933887e-02,
  -3.39189284e-02, -1.93219204e-02, -5.30608057e-04, -1.17984507e-02,
  -4.44012973e-03, -3.20844874e-02, 3.54866460e-02, 1.09183379e-02,
   1.34406947e-02, 7.85963144e-04, 2.51498893e-02, 2.91652735e-02,
   1.52713377e-02, -1.63024273e-02, 2.64856163e-02, -1.94625128e-02,
   8.67480598e-03, 3.11400592e-02, -7.17331236e-03, -1.05075324e-02,
  -1.90633330e-02, 1.74203664e-02, 2.42228918e-02, -2.18167398e-02,
  -7.28588691e-03, 3.02897464e-03, 2.28539184e-02, -1.50087820e-02,
  -1.05277132e-02, -4.94483113e-03, 1.96430292e-02, -5.92716038e-03,
  -1.21239421e-03, -8.51221941e-03, 2.98787486e-02, 1.05691943e-02,
  -2.45819241e-03, 3.53524392e-03, -8.86848848e-03, -3.68342828e-03,
  -7.64361070e-03, 1.46402400e-02, 1.03931101e-02, -4.48338361e-03,
   8.34013394e-04, 2.43182108e-02, 1.07742473e-02, -5.10515366e-03,
  -2.07886770e-02, -1.37729980e-02, 1.99331678e-02, 3.80943976e-02,
  -8.29428528e-03, 2.20114384e-02, -1.62833668e-02, 2.48317327e-02,
  -1.49671631e-02, 8.43264535e-03, -4.22829166e-02, 2.42682267e-03,
  -6.56668702e-03, -1.10292267e-02, 7.84138031e-03, 3.42780836e-02,
   7.60945072e-03, 5.47619490e-03, -6.45492077e-02, 7.58128148e-03,
  -4.58430685e-02, -7.15223327e-03, 1.11446343e-02, -1.24569852e-02},
 {-1.79165248e-02, 2.19545085e-02, 2.18725316e-02, -4.42889519e-03,
  -1.44633772e-02, -2.39653438e-02, -5.40246896e-04, 4.85318601e-02,
  -1.85346380e-02, -1.88101083e-02, 5.93510270e-03, -2.72114575e-02,
   1.59475021e-02, 1.47340763e-02, -1.76756997e-02, -1.60636362e-02,
   5.87476825e-04, -4.09599539e-04, 2.22035730e-03, -8.00776575e-03,
   7.92068429e-03, -1.82816405e-02, 3.88042927e-02, 1.05868038e-02,
   1.29517270e-02, -1.88860651e-02, 4.09842748e-03, 2.90291291e-03,
   1.63644440e-02, 3.27633210e-02, -1.21964114e-02, -1.18680308e-02,
  -1.52660459e-02, 9.90350265e-03, 5.65295247e-03, -3.18235941e-02,
   1.23019824e-02, 1.80498976e-02, 2.23193597e-02, 8.84606689e-03,
   7.50143593e-03, 2.67394609e-03, -2.19261367e-02, -1.31451404e-02,
   1.57128405e-02, -8.18694197e-03, -7.24321045e-03, -1.64831325e-03,
   2.66568246e-03, -3.74703668e-04, -1.74870118e-02, -3.59476148e-03,
   2.63881986e-03, -1.19310785e-02, -6.87880255e-03, -9.13343951e-03,
  -2.31890250e-02, 4.38416265e-02, 3.07492632e-02, -4.45069373e-02,
   8.53465963e-03, 1.09242788e-02, 9.94737260e-03, 4.46939201e-04,
   1.96685130e-03, 1.19667156e-02, 4.19065729e-02, 3.16509604e-02,
  -1.40803950e-02, 1.42393066e-02, -1.68220252e-02, -1.22998655e-03,
  -1.40756145e-02, -2.59819850e-02, 1.42902574e-02, 1.33251660e-02,
   1.76443420e-02, -1.15021355e-02, -2.22123414e-02, 4.86382749e-03,
  -5.09805158e-02, -8.30954988e-04, 3.15672494e-02, -3.10794562e-02},
 {-2.58477591e-02, 1.10723944e-02, 3.29793245e-02, -1.88477822e-02,
   4.11154702e-02, -4.22103815e-02, 1.21502001e-02, 6.51145447e-03,
   1.37544693e-02, 4.47438620e-02, 9.48896632e-04, -1.64992791e-02,
   3.78644350e-03, 1.12033868e-03, -2.41683498e-02, -1.36057679e-02,
  -2.62669697e-02, -1.93628687e-02, 1.35606984e-02, 1.26238931e-02,
   6.82924036e-03, 5.36067085e-03, 1.62733663e-02, 1.69368051e-02,
  -4.27907379e-03, 1.40085723e-02, 1.71681065e-02, 2.31305044e-02,
  -1.16266496e-02, -1.27293337e-02, -2.70913560e-02, -4.41801809e-02,
   1.41326468e-02, -9.97561147e-04, 2.49150228e-02, -2.06126031e-02,
   2.43178476e-02, 2.12674104e-02, 1.31232769e-03, 1.59313474e-02,
   2.23646332e-02, 1.79034881e-02, -3.44474688e-02, 6.54300349e-03,
   9.46627371e-03, 6.24625478e-03, 6.65483391e-03, -2.00561415e-02,
  -8.11869558e-03, 7.77315721e-03, 1.23715885e-02, -3.51752597e-03,
  -7.66012073e-03, -7.50088366e-03, 1.57647431e-02, -4.43147309e-03,
   4.62049665e-03, 9.57636442e-03, -3.83790117e-03, -2.31427830e-02,
  -1.57955699e-02, -2.92263236e-02, 1.66440550e-02, 4.01333999e-03,
   1.45730469e-02, 1.20386994e-03, -2.33681314e-02, -1.12394067e-02,
  -5.20077012e-02, -1.30332429e-02, -6.67215325e-03, 2.23467834e-02,
   7.98281189e-03, -5.05159888e-03, 2.93934196e-02, -1.03763528e-02,
  -3.00940988e-03, -1.17085604e-02, -5.02385236e-02, 8.21783394e-03,
  -2.99220847e-04, 1.32710990e-02, 2.75119413e-02, 1.34067871e-02},
 { 4.38138433e-02, -1.35763474e-02, -3.96299735e-02, 6.39792904e-03,
  -3.10692992e-02, 2.72080749e-02, -9.95557941e-03, -3.90262641e-02,
  -2.16347836e-02, -1.53210703e-02, -1.31029990e-02, -4.33656992e-03,
   6.99554657e-05, -1.51852772e-04, -5.93495788e-04, -8.01017415e-03,
  -1.16550466e-02, -2.07253452e-02, 1.99656817e-03, 1.86254047e-02,
  -2.52057295e-02, 3.13361757e-03, 1.11183506e-02, -5.57524292e-03,
   1.23718744e-02, 1.29028102e-02, -1.64215956e-02, -7.83641450e-03,
   2.82874983e-02, -2.11738646e-02, 8.35976284e-03, 1.86090264e-03,
   1.05597787e-02, 1.76610993e-04, 1.28044775e-02, 6.37924392e-03,
  -2.01341286e-02, -4.14752923e-02, 3.17048887e-03, 1.36808702e-03,
   1.66495088e-02, 1.01768714e-03, 1.53652793e-02, -8.28887522e-03,
  -4.90364656e-02, 1.47715223e-03, -3.03424466e-02, 2.38940306e-02,
   1.49508314e-02, 2.91304775e-02, -1.91994617e-03, 1.62129104e-03,
  -2.88143498e-03, 1.20612478e-03, -3.68036553e-02, 2.18539983e-02,
   2.68720947e-02, -5.07108010e-02, -2.07095984e-02, -7.55657093e-04,
  -1.02243731e-02, -3.05060274e-03, -7.59535993e-04, -9.98144597e-03,
   8.11264943e-03, -1.13969864e-02, -3.07957437e-02, -2.32571717e-02,
   2.97246017e-02, -9.16884094e-03, -2.17415057e-02, -3.71939363e-03,
   2.41741911e-02, 6.25571888e-03, -1.60273314e-02, 2.65410691e-02,
  -2.38399431e-02, 1.42523916e-02, 3.55726890e-02, -1.50261109e-03,
  -9.56149865e-03, 8.03570077e-03, -1.82373039e-02, 5.61053213e-03},
 {-4.10489086e-03, 1.39124962e-02, 4.06603375e-03, 2.47832877e-03,
  -2.74609923e-02, -1.80678759e-02, 2.26112884e-02, 3.37070376e-02,
  -3.35535174e-03, -4.65660635e-03, 3.55682671e-02, -1.90533884e-02,
   4.17617597e-02, 1.80613007e-02, -2.27165315e-02, -1.88240933e-03,
  -4.28424869e-03, 2.70744087e-03, -5.15988804e-02, -1.96332973e-03,
  -2.08624955e-02, -4.01104153e-05, 5.45558706e-02, -1.95638444e-02,
   7.19522685e-03, -7.18197844e-04, 1.69218965e-02, 1.44951129e-02,
   1.11879017e-02, -2.55573597e-02, -6.94404403e-03, -3.10928170e-02,
   4.26785322e-03, -1.15267346e-02, 7.56851723e-03, -2.17539654e-03,
   7.58418022e-03, -4.32686061e-02, -5.49694244e-03, -9.54220945e-04,
   2.58447025e-02, -8.94939899e-03, -1.65904015e-02, -1.32816220e-02,
  -1.72958872e-03, 1.40832625e-02, -2.13134717e-02, -3.09361727e-03,
  -2.03949977e-02, 2.75968853e-02, 2.84664948e-02, 1.61555759e-03,
  -9.87086724e-03, -1.57733280e-02, -3.61599699e-02, 6.82505919e-03,
   1.08465292e-02, -1.34428684e-02, 3.06708971e-03, -5.53075597e-02,
  -1.48993498e-02, -1.12215965e-03, 1.44102545e-02, -6.66700378e-02,
   2.05718726e-02, 1.19425319e-02, -1.08030541e-02, 1.59523753e-03,
  -1.04443338e-02, -1.09199332e-02, 1.92634645e-03, 2.61520781e-02,
  -1.27922627e-04, -1.60519350e-02, -5.95683930e-03, -1.67915225e-02,
  -2.54059322e-02, -1.21231135e-02, 5.85692888e-03, -6.93520764e-03,
  -1.04463361e-02, 2.07467210e-02, 2.02716589e-02, -2.05077548e-02},
 {-1.01859594e-04, -5.00088034e-04, 1.96560882e-02, -3.89786474e-02,
   7.31637049e-03, -7.91329704e-03, -6.18014252e-03, 4.75552259e-03,
   1.08089307e-02, 1.94303738e-03, 9.22945049e-03, 3.71760712e-03,
  -1.07146790e-02, 9.00590885e-03, 9.73628950e-04, -3.12869367e-03,
  -1.15483161e-02, 1.00391097e-02, -6.64522825e-03, 1.56077584e-02,
  -2.17978889e-03, -1.46266175e-02, -2.96558496e-02, -7.86319003e-03,
  -8.47561564e-03, 8.91838409e-03, 9.85412952e-03, -8.72884935e-04,
   4.28249454e-03, -4.10941280e-02, -1.05995149e-03, 1.53606525e-02,
  -4.71624965e-03, -2.78866719e-02, 2.41543856e-02, -1.99615071e-03,
   1.52141834e-02, 1.32667506e-02, 1.82183739e-02, 3.86286597e-03,
  -4.33108723e-03, 2.39356048e-03, -5.77847566e-03, 1.82286855e-02,
   2.17758771e-02, -4.90811700e-03, -1.33612193e-03, -2.21575089e-02,
  -1.15983151e-02, 3.60733015e-03, 7.84197473e-05, -1.04966704e-02,
   1.54797053e-02, 1.03564486e-02, 1.11750877e-02, 1.66824423e-02,
   1.00121996e-03, -7.88618531e-03, 5.42310718e-03, -2.97961989e-04,
   1.77567394e-03, -4.20940015e-03, 1.06190154e-02, 7.03834556e-03,
   1.73706375e-02, -1.49916718e-02, 4.35572118e-03, -3.88441898e-04,
  -9.01838765e-03, -2.15968806e-02, -1.60278927e-04, 9.20379441e-03,
   1.00466339e-02, -1.68385438e-03, 5.27741760e-03, 8.88440933e-04,
  -3.30558978e-02, -1.99188106e-02, 5.12111175e-04, 3.12164389e-02,
   5.40627399e-03, 3.44588188e-03, 1.67114269e-02, 1.67086087e-02},
 {-1.70386732e-02, 7.64596416e-03, 1.23032816e-02, -1.55483047e-02,
   5.95229678e-03, 3.33793685e-02, -3.75781138e-03, 1.95588265e-02,
   2.51297317e-02, -1.07404487e-02, 1.84039902e-02, 1.07777705e-02,
  -6.74753822e-03, -5.29906573e-03, 6.78655691e-03, 1.25011718e-02,
   2.50638109e-02, 1.15352450e-02, -7.34712987e-04, 5.18327579e-03,
   2.95812190e-02, -1.62731074e-02, -1.29412292e-02, -1.83506142e-02,
  -2.30674557e-02, -1.97148137e-02, -1.20263053e-02, 1.48319305e-04,
  -7.71329366e-03, 1.62733700e-02, 3.00126546e-03, -1.83537211e-02,
   4.96548018e-04, -4.38468670e-03, 6.76683383e-04, -9.51736979e-03,
   1.00703053e-02, 1.94063541e-02, -9.59931687e-03, 1.81664061e-02,
  -7.70475389e-03, -6.47017639e-03, 1.55154392e-02, 6.49785763e-03,
   2.59653572e-02, 3.48895155e-02, -9.91670229e-03, 2.67456798e-03,
  -8.43356829e-04, 8.08632653e-03, -6.34668535e-03, 9.31539293e-03,
   9.11435205e-03, -2.56970972e-02, 5.00764046e-03, -1.33293299e-02,
  -1.08026629e-02, 3.43016088e-02, 4.78833215e-03, 2.03601513e-02,
   2.16654204e-02, -9.95775452e-04, 3.72832129e-03, -2.01213136e-02,
  -7.31485896e-03, -1.20093683e-02, 2.43925769e-03, 4.15152498e-03,
   1.19136751e-03, -6.86599640e-04, 2.47861147e-02, 2.21189810e-03,
  -1.94866098e-02, 6.75967475e-03, -3.93955270e-04, -2.40322314e-02,
  -7.46780497e-05, -1.94072966e-02, 1.23574464e-02, 1.09427907e-02,
   1.56712364e-02, 1.19604927e-03, -4.63507226e-04, -2.86577223e-03},
 {-1.63707323e-02, -1.63701223e-03, 1.45736476e-02, -1.19904708e-02,
   2.27217693e-02, -1.31518999e-02, 8.87206942e-03, 6.82624104e-03,
   2.05098419e-03, -7.99080636e-03, -9.26488452e-03, -2.05911174e-02,
  -1.16223721e-02, 4.71186591e-03, -3.23468680e-03, 2.10449398e-02,
   1.77817664e-03, 1.02744810e-02, 1.09165697e-03, -1.57310683e-02,
  -2.39779744e-02, -3.93234938e-03, 1.63933653e-02, 2.15130746e-02,
   3.11852694e-02, -6.76545175e-03, 1.32182948e-02, 1.47231687e-02,
  -1.13513889e-02, 1.41442856e-02, -1.08259805e-02, -1.26910638e-02,
   9.87812970e-03, -1.40950531e-02, -1.18804013e-03, -1.40702873e-02,
  -4.82922507e-04, 8.18174426e-03, -1.00571737e-02, -1.61546981e-03,
   7.33408984e-03, -2.46231481e-02, -7.61130219e-03, -1.95403546e-02,
   1.28610237e-02, 6.04236405e-03, 1.76566094e-02, -1.07879536e-02,
   6.81203743e-03, -1.24166319e-02, 7.88175734e-04, 6.66589150e-03,
  -1.06557328e-02, -5.64155169e-03, -1.62680761e-03, 7.23767513e-03,
  -1.09507060e-02, 2.48066634e-02, -7.21727358e-03, -1.11065595e-03,
  -1.21586695e-02, 2.06271410e-02, -2.73511484e-02, -1.95784271e-02,
  -1.29898556e-03, -1.16116111e-03, 2.24021520e-03, 2.71565234e-03,
  -7.75762601e-03, 1.39856236e-02, 1.70071125e-02, 1.14354659e-02,
   1.30808977e-02, -8.28009285e-03, 1.36708189e-02, -1.36792883e-02,
  -5.67609817e-03, -1.06801959e-02, -2.80004218e-02, 6.72867056e-03,
  -1.16768451e-02, -3.08516528e-02, 1.75133534e-02, -2.89483322e-03},
 {-3.97337377e-02, 2.79797092e-02, 2.05018744e-02, -1.36016151e-02,
   3.88046689e-02, -1.74795296e-02, -1.78678278e-02, -5.84177021e-03,
   1.27749629e-02, -6.14834856e-03, 3.40885459e-03, 1.24296118e-02,
  -1.05645787e-02, -7.39928102e-03, 1.32771078e-02, 9.94924642e-03,
   2.85061095e-02, 1.20083289e-03, 1.57866795e-02, 3.42497900e-02,
   4.69325483e-03, -1.15588671e-02, -1.84710044e-02, -2.17020139e-03,
  -6.20158762e-03, -1.42506361e-02, 1.29743861e-02, -2.05212384e-02,
  -3.34723364e-03, 1.93369482e-03, -4.45548594e-02, -1.09343778e-03,
   1.75105955e-03, -8.22363142e-03, 2.03262578e-04, -2.44714506e-02,
  -3.79679096e-03, 4.89591956e-02, -3.13106291e-02, 2.85427924e-02,
   2.05215383e-02, -1.65910125e-02, 7.05366954e-03, 2.55081020e-02,
   3.28496993e-02, 1.03110094e-02, 1.61479190e-02, 3.48106166e-03,
  -1.93018075e-02, -1.26674501e-02, -3.66259716e-04, 7.92500470e-03,
  -8.59577022e-03, -1.27036721e-02, 6.50054170e-03, -9.20173060e-03,
   1.42498882e-02, 3.31496634e-02, -2.83437106e-03, 1.72855072e-02,
   2.02945732e-02, 1.01934923e-02, -1.29733998e-02, 2.02154135e-03,
   9.53500916e-04, -3.77172674e-03, -1.18609117e-02, -2.15744469e-02,
  -1.59802511e-02, -2.00645849e-02, 3.24307866e-02, 9.35479626e-03,
   6.92914659e-03, 1.38348388e-02, -1.44504812e-02, -4.37674671e-03,
  -4.29256586e-03, 2.15828586e-02, -2.39325617e-03, 3.57024604e-03,
   4.38482780e-03, -3.06504872e-02, 1.99035667e-02, -2.20740717e-02},
 { 1.61843728e-02, -1.14898849e-02, 3.65218427e-03, -1.27530675e-02,
   2.49417331e-02, -1.57693084e-02, -1.08522484e-02, -3.94861065e-02,
   2.36204788e-02, 1.58365890e-02, -3.60718346e-03, 2.05485374e-02,
  -3.55238840e-02, 7.15695135e-03, -6.69451430e-03, -4.16995864e-03,
  -7.65416538e-03, -3.65219861e-02, 1.62792560e-02, 1.65269747e-02,
   1.07054757e-02, 2.07718578e-03, 9.61587997e-04, 8.01802147e-03,
  -5.62001904e-03, 2.89191939e-02, 8.57301429e-03, -1.99624989e-02,
  -9.24369693e-03, 2.62879091e-03, -1.29934121e-02, 3.38470377e-03,
   1.05242059e-02, 5.83354337e-03, 3.38154361e-02, -6.17391488e-04,
  -7.65509903e-04, 2.20280886e-02, -2.69821957e-02, 1.25138657e-02,
   1.28579726e-02, 1.23933228e-02, 1.61093520e-03, 2.74576526e-02,
  -1.05038425e-02, -2.30730604e-03, 1.14208525e-02, -9.00013000e-03,
   8.08503386e-03, 8.37958790e-03, 5.96293155e-03, 1.36891110e-02,
  -1.40859587e-02, 4.57088463e-03, 1.42293505e-03, 3.85469687e-03,
   3.67165767e-02, -2.03013700e-02, 1.66851301e-02, 2.57582739e-02,
  -1.30241532e-02, -1.11248496e-03, 9.46663227e-03, 2.55216528e-02,
  -1.28971199e-02, 1.12698390e-03, -3.00012920e-02, -4.60466510e-03,
  -1.84689853e-02, -1.29126711e-02, -1.82297430e-03, 9.37034562e-03,
  -5.66169096e-04, -3.84193240e-03, -1.84712112e-02, 1.15956916e-02,
  -1.70635916e-02, -4.51210234e-03, -2.83947140e-02, -6.41583512e-03,
   1.18781882e-03, 2.76819547e-03, -2.10733302e-02, 1.18452413e-02},
 { 1.03502395e-02, -6.14495995e-03, 5.57620125e-03, 1.10701739e-03,
  -6.92108413e-03, 2.63708867e-02, -1.63017046e-02, -3.36191840e-02,
  -3.41238710e-03, -1.32842772e-02, -6.97025680e-04, 3.18162404e-02,
   1.32273696e-02, -2.41682795e-03, 1.35579873e-02, 1.57721117e-02,
   2.44655041e-03, -1.31288068e-02, 1.03437277e-02, 1.92211140e-02,
  -5.80543512e-03, 8.11457075e-03, -4.55801329e-03, -9.35306400e-03,
  -1.04935393e-02, 2.26165541e-02, -2.61713732e-02, -1.16053997e-02,
  -2.76817498e-03, -2.88071241e-02, -1.42848992e-03, 2.27208138e-02,
   1.37731740e-02, -3.81928012e-02, 3.01650185e-02, 1.43016661e-02,
  -6.37475494e-03, -5.22329006e-03, 2.99987639e-03, -8.86959955e-03,
  -2.35069282e-02, 3.70404832e-02, 2.42417920e-02, 2.13053282e-02,
  -2.97891884e-03, 1.19883521e-02, -1.87008977e-02, 4.78768116e-03,
  -1.21787814e-02, -1.13480920e-02, -2.19094586e-02, -9.03870445e-03,
   4.46747094e-02, 2.17072517e-02, -4.38232673e-03, 1.41258491e-02,
   2.01611035e-02, -8.92771780e-03, 4.74435510e-03, 1.47969704e-02,
   2.13225540e-02, -7.47461617e-03, 3.07831466e-02, 1.97825115e-02,
  -1.44621786e-02, -3.48315691e-03, -1.21141179e-02, -1.15483934e-02,
  -6.84958324e-03, -9.49578732e-03, -1.65662821e-03, -2.32106820e-02,
   2.18231115e-03, 1.26674473e-02, 6.71773124e-03, 3.89631838e-02,
  -1.33208102e-02, -3.03563545e-03, 4.37811129e-02, -9.91609506e-03,
  -1.15340892e-02, -1.95854940e-02, -2.89697032e-02, 1.28345937e-02},
 {-4.03274130e-03, 1.17545901e-02, -1.92868151e-02, -5.72031649e-06,
  -1.30146649e-02, 2.47930316e-03, 8.49492475e-03, -1.65885873e-02,
  -9.16177314e-03, 1.46296611e-02, -2.65369890e-03, 1.19530885e-02,
   3.07374145e-03, -2.19450872e-02, -4.02832497e-03, -1.41011961e-02,
  -6.35594362e-03, -1.38309225e-02, 2.06662212e-02, 1.14860409e-03,
  -1.57863945e-02, -1.22675998e-02, -7.18158437e-03, -1.13617470e-02,
   1.39106414e-03, 1.03317788e-02, 6.75250590e-03, 2.53256713e-03,
  -1.30712185e-02, -3.37785948e-03, -4.46106447e-03, -4.25010920e-04,
   1.42474901e-02, -2.80784816e-02, -8.46484676e-03, -6.07172353e-03,
  -2.95001804e-03, -7.14591471e-03, -1.86551753e-02, 1.67431813e-02,
   3.61517118e-03, -1.20139134e-03, 7.20341573e-04, 1.77195400e-03,
   1.78410544e-03, -7.55497580e-03, 3.57530313e-03, -6.43916288e-03,
   5.88476937e-03, 5.22134965e-03, 7.25315837e-03, 5.27281826e-03,
  -8.41188070e-04, 7.76984170e-03, -2.68600392e-03, -5.83159504e-03,
  -5.88326529e-03, 7.63098651e-04, -7.11518154e-03, -3.54295771e-04,
   6.22822065e-03, 6.99361041e-03, -5.51615236e-03, 8.46990291e-03,
  -3.63958627e-03, -2.32127495e-02, 5.40418550e-03, 7.04703387e-03,
   1.70910265e-03, 2.20646034e-03, -1.40772266e-02, 2.73145991e-03,
  -2.98549724e-03, 2.09546206e-03, 1.01158703e-02, 4.47323173e-03,
   2.43487693e-02, 1.64904504e-03, -9.69723705e-03, 5.72056370e-03,
  -2.61105801e-04, 3.00127344e-04, 4.88863094e-03, 3.48405563e-03},
 {-4.85824980e-03, 3.19994465e-02, 1.09193623e-02, 7.51427095e-03,
  -3.56306881e-03, -2.67710891e-02, 1.57249868e-02, 1.83420666e-02,
  -1.88382789e-02, 7.76260626e-03, 1.55071048e-02, -2.15078071e-02,
   2.15805806e-02, 2.23546382e-02, -5.46356943e-03, -1.17072519e-02,
  -4.52460684e-02, -1.11015299e-02, -3.55337225e-02, 1.27130197e-02,
   5.08656213e-03, 3.33560966e-02, 3.59552354e-02, 1.76978428e-02,
   2.44581420e-03, 5.12764789e-03, 7.19676213e-03, -2.42152112e-03,
   2.57277256e-03, -4.00712900e-03, 2.15072394e-03, -2.06718687e-02,
   3.25070284e-02, 2.84730195e-04, 1.73361860e-02, 7.65836565e-03,
   1.95471663e-02, -4.44410555e-02, 2.34346595e-02, -1.93870906e-02,
   5.73199242e-03, 4.40187706e-03, -1.59681570e-02, -2.04343293e-02,
  -6.22231932e-03, 3.76240024e-03, -1.59976594e-02, 5.04721701e-03,
  -9.28467233e-03, 1.93684772e-02, 2.73711644e-02, -2.67443322e-02,
  -2.69016214e-02, 3.23583465e-03, -1.04342755e-02, -2.70362459e-02,
  -7.31547503e-03, -4.80528083e-03, -4.21894481e-03, -3.69360112e-02,
   1.96014885e-02, -8.14985670e-03, 1.28646651e-02, -1.03925290e-02,
  -1.55228209e-02, 7.50385784e-03, 8.19957815e-03, 2.98637506e-02,
  -3.74385081e-02, -1.89040359e-02, -3.26981321e-02, 1.77490171e-02,
  -2.27738302e-02, -1.50503237e-02, 1.52572421e-02, 2.09414735e-02,
  -1.27906622e-02, 4.05528257e-03, -1.63145401e-02, -9.53830872e-03,
  -1.71433613e-02, 7.01946625e-03, 1.44897047e-02, -4.19083051e-03},
 {-1.63620096e-02, 3.34874564e-03, 1.48552982e-02, -1.20404204e-02,
   1.99121260e-03, -1.92688461e-02, -3.94735835e-04, 2.52696797e-02,
  -2.07314398e-02, -2.64036972e-02, -5.14499983e-03, -1.14609571e-02,
   1.39277587e-02, -5.15514100e-03, -5.52775385e-03, 1.33250058e-02,
   2.45775897e-02, 3.45108509e-02, -2.25475281e-02, -1.06198275e-02,
  -8.07460397e-03, -1.99625152e-03, -3.71509530e-02, -3.25775123e-03,
  -1.99401900e-02, -2.37134993e-02, 2.96596475e-02, 2.08764244e-03,
  -4.98077646e-03, 3.49640213e-02, 1.92877091e-02, -9.89847071e-03,
   8.45097296e-04, 2.00783387e-02, -1.20642632e-02, -1.19482828e-02,
   1.01856086e-02, 8.92506074e-03, -1.80321727e-02, 1.57482661e-02,
   3.06764129e-03, -2.83902958e-02, 9.51912068e-03, -2.36797743e-02,
  -4.67410963e-03, -2.83286977e-03, 2.66651297e-03, -1.71924233e-02,
   1.04239490e-02, -8.68160743e-03, 4.07964131e-03, 1.57021340e-02,
  -2.15741266e-02, -1.39011731e-02, 1.73652067e-03, -8.22812412e-03,
  -2.09460407e-02, 2.80135535e-02, -3.47754732e-03, -1.49226636e-02,
   8.82758014e-03, 2.59608794e-02, -2.53642835e-02, -2.35985294e-02,
   1.71572715e-02, 2.52452283e-03, 1.01141073e-02, 2.96938163e-03,
   7.95150176e-03, -1.11690098e-02, 1.64525844e-02, 8.27450212e-03,
   3.70760961e-03, 1.66603699e-02, -1.89282782e-02, -1.78671330e-02,
   1.45211127e-02, -1.88317355e-02, 1.98150463e-02, -3.35919554e-03,
   1.74169149e-02, 1.06141381e-02, 1.21218078e-02, -1.72022579e-03},
 { 1.83233712e-02, 1.91570707e-02, -2.53320243e-02, 1.38234273e-02,
  -4.03089300e-02, -8.27406440e-03, 1.19230617e-02, 1.51741668e-03,
  -6.91330992e-03, 7.23880948e-03, -2.79177185e-02, 4.79441276e-03,
   6.75231731e-03, -2.14847289e-02, -1.28791323e-02, -9.09311976e-03,
  -3.46180946e-02, -2.20323540e-02, -1.74031220e-02, 1.64142624e-02,
  -3.02437898e-02, -4.44373814e-03, 1.57244559e-02, -2.31621750e-02,
  -2.87286914e-03, 3.69695276e-02, -1.43056894e-02, -4.74559404e-02,
  -2.30206326e-02, -2.81723663e-02, -6.76823966e-03, 1.69183277e-02,
  -3.09347152e-03, 4.00829837e-02, 2.93427636e-03, 1.04834232e-02,
  -9.56852455e-03, -5.96349174e-03, -3.18856277e-02, 2.13056616e-02,
   1.59477517e-02, -2.48790951e-04, 6.79997494e-03, -1.10610370e-02,
   1.35239381e-02, -1.40037492e-03, 1.53449206e-02, 3.05006187e-02,
  -3.66607285e-03, 1.54953729e-02, 2.25445908e-02, 1.69402286e-02,
  -1.87168662e-02, -2.40156567e-03, -1.13657294e-02, -2.17239615e-02,
   3.08467932e-02, -2.18502828e-03, 1.62573718e-02, 1.00106895e-02,
   2.88515701e-03, -8.25321302e-03, -5.49644884e-03, -1.04109895e-04,
   7.62272114e-03, 1.72739867e-02, -1.85566600e-02, 9.95644741e-03,
   1.58876870e-02, 1.18020345e-02, -4.64075804e-03, 3.56424786e-03,
  -6.68586325e-03, 1.94480661e-02, -2.76140422e-02, 1.18430704e-02,
   1.06961802e-02, 4.40002345e-02, 2.18200218e-02, -5.78127466e-02,
   1.99058820e-02, 2.75181830e-02, -3.67594920e-02, -1.16437888e-02},
 { 1.49699580e-02, -1.83971860e-02, 3.94482957e-03, -2.68794820e-02,
  -1.48568898e-02, 8.21178593e-03, -3.75718027e-02, -3.24378125e-02,
   3.39370742e-02, 1.27824005e-02, 1.46087473e-02, 4.15000645e-03,
   1.05217788e-02, 1.61596835e-02, -5.72810089e-03, 1.10243075e-02,
   1.57957207e-02, 2.97322427e-03, 5.61285205e-03, -1.50402552e-02,
   2.57429183e-02, 3.37998848e-03, -3.02003650e-03, -2.16201320e-02,
  -1.59308035e-02, -2.26586945e-02, -1.54449027e-02, 1.81162730e-02,
   1.50429364e-02, -1.87930893e-02, 1.96510442e-02, 2.09115986e-02,
   3.17195542e-02, -3.04528568e-02, 3.52996401e-02, 1.28308525e-02,
  -3.35878204e-03, 3.66806760e-02, 1.37595767e-02, -1.74733554e-03,
  -1.36907976e-02, 1.05267689e-02, -2.51454860e-03, 2.27854438e-02,
  -4.74280864e-03, -3.60733904e-02, -2.25936398e-02, 1.07351337e-02,
   1.50286607e-04, -8.77116155e-03, -2.03835350e-02, -1.03819473e-02,
   2.63037607e-02, 2.64935289e-02, -2.68254452e-03, 1.19007807e-02,
   6.06203824e-03, -9.55449324e-03, 1.84700787e-02, 2.85626277e-02,
   1.57258473e-02, 1.07977516e-03, 2.81433444e-02, 5.60438400e-03,
   1.03385618e-03, -1.75698828e-02, 9.00288578e-03, 2.32878122e-02,
   1.27419634e-02, 1.05182528e-02, -9.63068509e-04, -1.01318471e-02,
  -6.51087519e-03, 4.41492014e-02, 4.72491281e-03, -1.73304474e-03,
  -3.19307181e-03, 4.34656302e-03, 2.18719821e-02, -9.70680034e-04,
   1.15706250e-02, -3.84379155e-03, -8.47255904e-03, 3.32289636e-02},
 {-3.68696521e-03, 1.11632664e-02, 9.40249395e-03, 1.09618809e-03,
  -4.52155201e-03, 2.55710969e-04, -1.16861844e-03, 2.09924225e-02,
   3.74062546e-03, -1.51613727e-02, 3.52735794e-03, 1.00144688e-02,
   2.00953055e-02, -7.62228062e-03, -1.08716739e-02, -4.62408038e-03,
   3.66728730e-03, 1.91048011e-02, 4.90573002e-03, 1.18107023e-03,
   7.80715607e-03, -1.39566290e-03, 2.33605504e-04, 4.37098119e-04,
  -1.85155813e-02, 8.01239163e-04, -9.15378425e-03, -1.15688406e-02,
   4.77127545e-03, -5.07407309e-03, -8.13083444e-03, 1.08184805e-02,
   1.08687254e-02, -1.04397610e-02, -8.96966364e-03, -1.03505410e-03,
  -1.82231944e-02, 3.62643693e-03, -1.44161861e-02, -2.02659499e-02,
  -1.47345783e-02, 7.58439535e-04, -1.45400455e-02, 1.10776871e-02,
   1.06162969e-02, -1.63344406e-02, 1.82478316e-03, -1.55145628e-03,
   2.63737421e-03, 1.24635426e-02, 2.37685465e-03, 1.82501674e-02,
   4.24015941e-03, -2.00487468e-02, 1.00310501e-02, 2.82666530e-03,
   3.27693974e-03, -3.37210274e-03, 7.75732147e-03, 1.11526074e-02,
  -1.93480756e-02, -1.80643355e-03, 8.84459354e-03, 4.06098459e-03,
  -1.34689854e-02, -1.60300231e-03, -3.58197186e-03, -1.97686907e-03,
   1.31198792e-02, -1.58935192e-03, 6.06147060e-03, -9.57515649e-03,
  -1.78187888e-03, 3.21013741e-02, -1.03648733e-02, 9.78165679e-03,
  -4.31265868e-03, 1.60818148e-04, 2.09405627e-02, 9.91621427e-03,
   7.80332880e-03, -4.14519385e-03, -1.31154191e-02, -6.82657817e-03},
 { 1.61066409e-02, -1.49324471e-02, 9.14559420e-03, 2.16810107e-02,
   2.10855110e-03, 2.69425660e-02, -1.67767014e-02, -1.27627933e-02,
   6.54452527e-03, -1.47757698e-02, 2.49959268e-02, 1.27906669e-02,
  -1.11558856e-02, -2.34902417e-03, 6.41062448e-04, 6.55633351e-03,
  -9.77303018e-04, 2.51592379e-02, 3.62540851e-03, -6.86440105e-03,
  -6.92026736e-03, -1.08859884e-02, -1.67857781e-02, -9.34485253e-03,
  -2.66803638e-03, -2.23804843e-02, -2.50939988e-02, 5.84839545e-05,
  -4.73886449e-03, -9.32324864e-03, 1.97541583e-02, 1.10368058e-02,
  -4.90019284e-03, 3.09878169e-03, -9.28997342e-03, 2.76095257e-03,
  -3.09638679e-03, -1.66157645e-03, 2.26060115e-03, -2.24461183e-02,
  -7.67067960e-03, 1.98761187e-03, 7.36806821e-03, -5.63403778e-03,
  -2.16937996e-02, -4.83351946e-03, -1.64813607e-03, 1.18756536e-02,
  -1.03864204e-02, 1.00814300e-02, -4.94389038e-04, -1.20038213e-02,
   1.14976875e-02, -7.54581066e-03, 9.94178653e-03, -1.43021932e-02,
  -1.86505856e-03, 2.59188004e-03, -2.05264743e-02, 2.33158246e-02,
   4.10620682e-03, -3.52273602e-03, 5.20022912e-03, -7.56778009e-03,
  -1.67618562e-02, -2.45088572e-03, 1.20603014e-02, -4.70515201e-03,
   2.61522792e-02, 3.43261962e-03, 1.33434925e-02, -1.09946309e-02,
   1.30388897e-03, 1.75183397e-02, 6.52096933e-03, -2.12171650e-03,
   1.10263401e-03, -8.84183333e-04, 5.47758490e-03, 2.27527414e-02,
   1.82514004e-02, -8.95979907e-03, -8.54763296e-03, -4.38708952e-03},
 {-1.50458077e-02, -1.92692876e-02, 1.04566747e-02, -1.02031687e-02,
   2.06189528e-02, -5.38232271e-03, -5.61288046e-03, 5.42023545e-03,
   1.55389225e-02, 2.38211099e-02, 2.53459881e-03, 9.39484686e-03,
  -3.18291225e-02, 4.15667659e-03, 1.62344594e-02, -2.10284628e-02,
   1.62168983e-02, 7.21730583e-04, 4.54813130e-02, -2.38332674e-02,
   7.97027722e-03, 1.22964140e-02, -1.54183162e-02, 1.69515866e-03,
  -2.56614648e-02, -2.10471246e-02, -1.17351254e-02, 8.98520462e-03,
   1.22838169e-02, 2.04077680e-02, 1.97166149e-02, -7.29205599e-03,
   1.48539841e-02, 5.04850689e-03, 1.70815866e-02, -1.01692313e-02,
   3.19361426e-02, 2.53623445e-02, 3.05720232e-02, -1.69089939e-02,
  -1.28418012e-02, 9.80145019e-03, -4.45519248e-03, -7.04034232e-03,
  -3.43462564e-02, -2.79806014e-02, 2.89012701e-03, -3.64412600e-03,
  -2.03460408e-03, -1.80995092e-02, -1.18585397e-02, -2.43717916e-02,
   1.37758926e-02, 1.89223234e-02, 3.43246758e-03, 1.55647509e-02,
  -1.98711604e-02, -2.24608667e-02, 5.32525359e-04, 2.68668048e-02,
  -2.01569311e-02, -2.18400490e-02, 6.13845093e-03, 2.50651743e-02,
  -1.75811853e-02, -1.60397356e-03, -5.80657460e-03, 1.05011743e-02,
   1.52379377e-02, 2.95691565e-02, 2.62375339e-03, 5.75029105e-03,
   1.49392132e-02, -3.95394117e-03, 1.97707955e-02, -8.43077339e-03,
  -2.73183826e-03, -4.81234398e-03, -5.18082082e-02, 3.57417054e-02,
  -1.35782026e-02, -1.44503945e-02, 8.05753656e-03, 2.63802577e-02},
 {-1.31287274e-03, -8.31492245e-03, 5.38343447e-04, -1.00801550e-02,
  -4.74086311e-03, -6.24238048e-03, -1.45542063e-02, 2.39913166e-03,
   2.26214547e-02, 1.46375922e-02, -7.05872104e-03, -1.02008749e-02,
  -1.60470009e-02, -3.05135874e-03, 5.99057507e-03, 3.06918472e-03,
  -1.54202792e-03, 5.71729057e-03, -6.73479342e-04, -1.10644381e-02,
  -2.58170837e-03, 1.73669327e-02, -9.66494530e-03, -2.53537204e-03,
  -8.74029938e-03, 1.17024942e-03, -1.41042266e-02, -1.59861371e-02,
   1.98026486e-02, -2.62190681e-03, -3.39730782e-03, 8.67744815e-03,
   3.73644405e-03, 2.27817819e-02, -7.73704844e-03, -9.35447216e-03,
  -1.58050954e-02, 1.35065038e-02, 1.00231674e-02, 1.00684620e-03,
   9.71587934e-03, 7.58651504e-03, -7.15933274e-03, 5.69133367e-03,
  -2.99842679e-03, 1.45490915e-02, 5.18132374e-03, -6.47731009e-04,
   1.08521823e-02, 1.45656813e-03, 3.64555791e-03, -9.28424206e-03,
  -9.33237281e-03, 3.96045856e-03, 3.00273742e-03, 1.68794184e-03,
  -8.95595271e-03, -1.53388607e-03, -5.31366235e-03, 1.27258236e-02,
  -5.17127896e-03, -5.06790308e-03, 1.47849869e-03, 5.67413261e-03,
   1.73528690e-03, 2.58622807e-03, 9.73908510e-03, 1.17410943e-02,
   5.57155535e-03, 1.02003422e-02, -7.95962196e-03, -1.30487410e-02,
   2.48694257e-03, -7.78013747e-03, -2.53433688e-03, 4.13219305e-03,
  -1.31881190e-02, -8.07650015e-03, 2.59358436e-03, -1.74028166e-02,
  -1.03246421e-03, 1.05112996e-02, -7.16227945e-03, -2.78854053e-02},
 { 1.61367208e-02, -1.45030972e-02, -8.73944536e-03, -8.22545495e-03,
  -4.25488409e-03, 6.52784808e-03, 9.87887662e-03, -3.02144140e-02,
   1.08708791e-03, 1.78242959e-02, -2.60186871e-03, 1.39454640e-02,
   1.22079058e-02, -6.46916730e-03, -2.31782068e-03, 8.90356768e-03,
  -9.91015229e-03, -1.44080929e-02, -1.60059519e-02, 2.90102363e-02,
  -1.48943914e-02, -3.85106890e-03, -2.47525219e-02, -2.61728317e-02,
   5.57405595e-03, 3.18195969e-02, -2.04278585e-02, -6.24034833e-03,
  -1.34961857e-02, 2.51792168e-04, -1.42296534e-02, 1.21308696e-02,
   9.70652443e-04, -4.99633979e-03, -3.49025545e-03, 4.33082739e-03,
   1.56512801e-02, -3.50331818e-03, -3.02001759e-02, 2.33968478e-02,
   1.35272155e-02, 9.24591254e-03, -1.44983351e-03, 2.45158281e-02,
   2.71713780e-03, -7.68443197e-03, 3.19055049e-03, -1.47636496e-02,
   1.59738846e-02, -5.57992421e-03, 1.40612563e-02, -1.76116955e-02,
   3.45133292e-03, 1.40269252e-03, -1.53662078e-03, 3.43541871e-03,
   2.40667816e-03, -2.87698698e-03, 9.90486424e-03, 3.97714041e-02,
   3.19074909e-03, 1.64822652e-03, 1.34537220e-02, 8.63793213e-03,
   1.91795304e-02, 6.32324582e-03, 5.32432599e-03, -1.44577166e-02,
   3.12020257e-03, -5.08878706e-03, 1.00824656e-02, -1.28904404e-03,
  -1.03253564e-02, 1.45753818e-02, -2.60442123e-02, 3.14512774e-02,
  -2.58828718e-02, 2.12550033e-02, 3.99851315e-02, -8.13225098e-03,
   2.74123475e-02, 1.94601901e-02, -3.73878852e-02, 3.11264675e-02},
 { 6.62999286e-04, -1.13673909e-02, -8.68341327e-03, 2.53581461e-02,
  -3.96588352e-03, 6.83473423e-03, 1.19976385e-03, 1.17549598e-02,
   4.70383652e-03, 4.67690174e-03, -1.87786017e-02, 1.40093658e-02,
  -9.21756495e-03, -1.32670561e-02, 1.20765809e-02, -7.21893553e-03,
   1.61306970e-02, -1.08038320e-03, 6.95774797e-03, -1.84567517e-03,
   6.03447203e-03, 4.96182998e-04, 8.34027212e-03, 3.22082713e-02,
  -9.52791888e-03, 4.50113788e-03, -9.06276144e-03, 4.07000072e-04,
  -7.95649923e-03, 1.95661578e-02, 1.30617153e-02, 2.10254993e-02,
  -8.52598529e-03, 2.54729390e-02, -1.60282114e-04, 5.00195473e-03,
  -1.73153840e-02, 2.41114944e-03, 1.52626876e-02, -8.27784371e-03,
  -1.83313619e-02, 1.64628949e-03, 2.22360753e-02, -1.47771956e-02,
  -7.30702514e-03, -1.03033744e-02, 2.00062408e-03, 2.54035462e-02,
   2.02337466e-02, 4.22630314e-04, -1.76564604e-02, 1.57603566e-02,
  -5.19205490e-03, -1.80352069e-02, 4.12532920e-03, 9.14975815e-03,
  -5.50362701e-03, 7.74158072e-03, -5.67635335e-03, -3.26471427e-03,
   8.66189320e-03, 1.20900469e-02, -5.13255363e-03, 1.52578903e-02,
  -1.36392331e-02, 1.85056683e-02, -4.46288427e-03, 5.54638216e-03,
   1.29521629e-02, -4.37770592e-04, -1.23222405e-02, -1.19950054e-02,
   1.23972269e-02, -3.91960191e-03, 1.79350860e-02, -9.27744713e-03,
   2.38191485e-02, 2.16885190e-02, -1.78296622e-02, 1.05013680e-02,
  -2.02380046e-02, 2.10787961e-03, -1.69980638e-02, -1.43022444e-02},
 {-4.12288262e-03, 2.58315336e-02, -2.20504254e-02, 4.21037292e-03,
  -1.07841222e-02, -3.87532823e-03, 4.32176841e-03, -6.39352622e-03,
  -1.93016324e-02, 1.92306004e-02, -1.66305210e-02, 1.07689677e-02,
  -9.84869339e-03, -2.95368209e-02, -8.94979108e-03, -1.14234677e-02,
  -4.38137539e-02, -2.98599321e-02, 1.95618980e-02, 3.33227701e-02,
   1.25727453e-03, 1.83072295e-02, 1.75862350e-02, -1.14242844e-02,
  -2.95068268e-02, 3.22573334e-02, -2.71237120e-02, -9.84634645e-03,
  -2.42927782e-02, -1.03266984e-02, -2.05126312e-02, 1.56459529e-02,
   3.27533018e-03, 2.41180863e-02, 3.37556489e-02, 2.30350252e-02,
   3.94485705e-03, -1.47623522e-02, -2.48181988e-02, 5.35054319e-03,
   1.40440473e-02, 1.05462829e-02, -5.29830251e-03, 4.30028886e-03,
   3.54175176e-03, -1.50217693e-02, -1.09691499e-02, 1.90831590e-02,
   2.70418066e-04, -1.62768073e-03, -1.49356863e-02, -1.60182808e-02,
  -2.18586251e-03, 3.03615676e-03, 3.65814869e-03, -1.77337322e-02,
   2.36868020e-02, -6.83290837e-03, 1.89652741e-02, -2.67718583e-02,
   2.45001204e-02, 1.06921839e-02, 3.31359636e-03, 1.88001189e-02,
  -6.07028371e-03, 1.99744888e-02, -2.71864105e-02, 3.81025933e-02,
  -3.67627176e-03, -9.33562499e-03, -5.32702263e-03, -3.49628972e-03,
  -1.40421381e-02, 1.03386613e-02, -2.55813207e-02, 2.53690649e-02,
  -4.82334197e-03, 2.38484535e-02, 1.91184855e-03, -1.86022110e-02,
  -1.81416702e-02, 2.67435517e-03, -6.86330721e-03, 4.83752787e-03},
 { 7.81902857e-03, -3.64697399e-03, 1.49576515e-02, 1.82627607e-02,
   2.18005246e-03, 1.54217882e-02, 3.61951161e-03, -2.43484415e-03,
   1.81486942e-02, 1.85156744e-02, 9.15829372e-03, 1.65898334e-02,
   8.40643607e-03, -2.36581080e-02, 4.71783010e-03, 8.39169137e-03,
  -2.46077627e-02, 2.26345770e-02, 2.55316142e-02, 1.80748645e-02,
   1.54680549e-03, -5.32419933e-03, -3.41847651e-02, -1.57348276e-03,
  -2.64159217e-02, -8.35979357e-03, -5.33347465e-02, 1.64892096e-02,
  -1.13862660e-02, -3.24974395e-02, 3.92981246e-02, 1.60141997e-02,
   3.89440358e-02, 2.42874566e-02, -1.17477281e-02, 1.44201517e-02,
   2.07411014e-02, -5.86009864e-03, -2.73962884e-04, 8.31662910e-04,
  -8.42198357e-03, 2.30484512e-02, -2.32557487e-02, 4.21957858e-02,
   1.89497434e-02, -1.64669491e-02, -1.25093730e-02, -2.38136277e-02,
  -1.42761581e-02, -3.63292806e-02, 7.00976280e-03, -2.15792023e-02,
   2.41732430e-02, 9.38844215e-03, 2.19259169e-02, -5.69536090e-02,
  -9.14391875e-03, -2.44950429e-02, 1.07819550e-02, 2.71407552e-02,
   3.35495882e-02, -3.00428476e-02, 4.57836948e-02, 4.25368696e-02,
  -2.03041872e-03, -1.60990097e-02, 2.01018397e-02, 2.36606151e-02,
  -1.59367360e-02, -7.70058483e-04, -1.32795400e-03, 3.34278401e-03,
  -1.51200313e-02, 2.76947580e-02, 1.94949154e-02, -7.71196978e-03,
   1.50164040e-02, -2.19461136e-03, 8.49617459e-03, 1.77119020e-02,
   4.36842740e-02, -4.76016058e-03, 7.90153537e-03, 1.16669852e-02},
 {-6.35248423e-03, -2.20746156e-02, -5.26811136e-03, 1.45252887e-02,
  -5.07143908e-04, 1.47775300e-02, -4.12280252e-03, 1.96771156e-02,
   9.98002011e-03, 1.26348878e-03, -1.25402696e-02, 1.65084805e-02,
   2.44201045e-03, -2.02396344e-02, -3.03004490e-04, 7.90071674e-03,
   1.86356017e-03, 3.59383412e-03, 5.02086291e-03, 5.22617623e-03,
   5.46802161e-03, 2.48658136e-02, -2.06534541e-03, 7.58268358e-03,
   4.33142966e-04, -1.59946606e-02, 3.90681060e-04, 1.46402372e-02,
  -7.52810575e-03, -7.90897012e-03, 1.40311103e-02, -3.00534419e-03,
  -5.90866525e-03, -6.57325611e-03, -2.41219508e-03, 1.68316662e-02,
  -3.30552342e-03, -1.60968192e-02, 1.52375074e-02, -1.44567550e-03,
   1.58820320e-02, -2.26583704e-02, -9.07101389e-03, -8.10907129e-03,
   4.25164681e-03, -9.88737913e-04, -7.21463747e-03, 6.21371577e-03,
   1.27735846e-02, -4.84948233e-03, -1.72700311e-04, -1.51872151e-02,
   9.01051890e-03, 9.38703492e-03, 9.46503505e-03, 1.12551509e-03,
   9.88763850e-03, 9.32767335e-03, 6.42221235e-03, -1.23151962e-03,
  -2.95438315e-03, -5.70284901e-03, 8.62208754e-03, -2.70961523e-02,
  -1.54811586e-03, 1.41050154e-02, -8.75886343e-03, -5.96868433e-03,
  -1.90672781e-02, -6.99585956e-03, 9.68848635e-03, -8.27553123e-03,
   1.84818339e-02, 6.30824734e-03, -2.50385259e-03, -1.93705596e-03,
   7.57458899e-03, 1.55520327e-02, 1.30654045e-03, 1.04840910e-04,
   1.12541160e-03, 1.43025843e-02, 4.33753198e-03, 1.46654863e-02},
 {-3.49279982e-03, -1.89689994e-02, 2.25532940e-03, 1.83541572e-03,
  -1.21990331e-02, 1.19817691e-04, 1.25643024e-02, 1.96000077e-02,
  -3.89543432e-03, 7.10881082e-03, -1.35780580e-03, 6.23313012e-03,
  -1.55893229e-02, 1.67371807e-04, 9.72366147e-03, -1.06859449e-02,
   5.42196399e-03, -1.13391252e-02, 9.79663711e-03, -6.36312598e-03,
   9.93531197e-03, -1.47139095e-02, -1.29768727e-02, 2.94326950e-04,
  -1.62466150e-02, -4.34385380e-04, 5.91831747e-03, 1.06902458e-04,
   4.17089742e-03, 1.88684855e-02, -3.45894136e-03, 1.47169409e-02,
   4.49526007e-04, 1.59856342e-02, -1.47165293e-02, -5.72055764e-03,
  -1.80916004e-02, 9.57646500e-03, 2.77615641e-03, -2.07811873e-03,
  -2.01563817e-02, -4.37736092e-03, 1.06301848e-02, 5.82099520e-03,
   2.60484242e-03, 2.27983971e-03, -4.95389430e-03, 2.01827530e-02,
   5.86763164e-03, -1.94551609e-02, 6.72581082e-05, 1.04080490e-03,
   1.25608603e-02, 9.57716547e-04, 8.44432693e-03, -2.29840633e-03,
  -3.30593393e-05, 2.89240163e-02, 3.04017100e-03, 2.17355881e-03,
  -3.89431650e-03, 8.91029648e-03, -1.26495659e-02, 3.12121436e-02,
  -1.69671401e-02, 3.70316813e-03, -1.63907954e-03, 1.22353099e-02,
   2.98972358e-04, -1.19874801e-03, -4.22610017e-03, -4.86065540e-03,
  -4.83939704e-03, -1.34355463e-02, -8.59955885e-03, -1.55476741e-02,
   2.16054134e-02, -1.71960369e-02, -2.21647508e-03, 7.63318781e-03,
  -2.11341288e-02, 1.97836757e-03, -2.82274056e-02, -3.94767290e-03},
 { 3.04737384e-03, 6.77820668e-03, 4.58195014e-03, -3.03374585e-02,
  -3.19217853e-02, -8.71288683e-03, -2.12050211e-02, -9.75866243e-03,
  -5.84198115e-03, 2.98434123e-02, 4.73648030e-03, 2.64882157e-03,
  -1.59177445e-02, 1.60172675e-02, -5.76530490e-03, -1.85408164e-02,
  -2.96812132e-02, -1.89385377e-02, 8.27667397e-03, 5.62576624e-03,
  -6.39757654e-03, 1.04322443e-02, 6.51495298e-03, 2.13485397e-03,
   4.42565943e-04, -6.55415514e-03, -2.30554072e-03, 1.75693235e-03,
   2.26720516e-02, -6.23535551e-03, -1.64154414e-02, 1.04362993e-02,
   1.72668118e-02, -5.49119478e-03, 2.96167582e-02, 1.25819631e-02,
  -1.15371337e-02, 4.34131641e-03, -1.04787806e-02, -1.12569137e-02,
   3.00427643e-03, 2.59646382e-02, -9.05860681e-03, 1.23609165e-02,
  -1.51083991e-02, -1.55866183e-02, -1.42167397e-02, 6.24267152e-03,
   1.67122558e-02, -1.12634618e-02, -3.26635456e-03, -2.34283339e-02,
   1.90694667e-02, 2.22424660e-02, -2.57790810e-03, 1.06178150e-02,
   6.89333631e-03, -3.29227522e-02, -5.24305971e-03, -1.97503176e-02,
  -9.45059489e-03, -1.55619597e-02, 3.62510011e-02, 2.97859795e-02,
   4.16052574e-03, 1.26717379e-02, -1.95081085e-02, -8.87399912e-03,
  -1.72710735e-02, -8.81386362e-03, -3.28948088e-02, -6.22581551e-03,
  -1.20368339e-02, 2.86185154e-04, 7.38904160e-03, 1.87544897e-02,
  -2.15705149e-02, 1.19106192e-02, -1.65602062e-02, -2.13971059e-03,
  -3.06972973e-02, -3.83606297e-03, -1.26559315e-02, 1.59582701e-02},
 {-8.35458655e-03, 3.59845767e-03, -1.36482026e-02, -5.15866512e-03,
  -2.16301007e-04, 1.27465965e-03, -5.27620642e-03, -2.17846781e-02,
   7.00788107e-03, 5.13836322e-03, 1.61896478e-02, -1.37361530e-02,
   7.63768330e-03, 9.41288285e-03, -6.77242642e-03, -1.51645113e-02,
  -1.42739275e-02, -1.04263835e-02, -1.70987844e-02, 1.64153185e-02,
  -1.16070807e-02, -2.05497853e-02, -1.79040916e-02, 4.45799949e-03,
  -3.42673785e-03, 1.11569744e-02, -8.03229492e-03, 2.17358116e-03,
   2.36743293e-03, -1.36377634e-02, -8.45782366e-03, 5.24279289e-03,
   2.04721261e-02, 1.00436890e-02, -2.08411813e-02, -8.66355468e-03,
  -1.20544303e-02, 2.49142875e-03, 2.71690823e-03, 1.37420902e-02,
   3.06787924e-03, 2.48169783e-03, -5.63802756e-03, -7.17732077e-03,
   4.82843397e-03, 4.65407902e-06, -5.90093341e-03, -9.17356089e-03,
  -1.08092455e-02, 9.93791316e-03, 3.47430818e-02, 2.40450855e-02,
  -2.69787270e-03, 2.58202176e-03, -1.73065048e-02, 1.90802058e-03,
  -2.07076501e-03, 1.62348561e-02, 4.26207716e-03, -2.02675480e-02,
  -8.71014036e-03, 6.80870563e-03, -4.72429907e-03, 1.58589277e-02,
  -1.04006743e-02, 7.74346944e-03, -1.06520029e-02, 1.13344677e-02,
  -1.58143863e-02, 6.07146369e-03, 1.24549316e-02, 1.49267316e-02,
  -7.62480404e-03, -1.45035418e-04, 1.46361412e-02, 1.15590757e-02,
  -2.54054880e-03, 4.83084749e-03, 1.06945233e-02, 2.06106417e-02,
   2.64129955e-02, -9.44495294e-03, -1.26716541e-02, -5.14256069e-03},
 {-1.96306221e-02, 8.25650117e-04, 8.64636526e-03, -2.14846265e-02,
  -1.54314665e-02, -2.46081930e-02, -1.24378316e-02, -1.27614923e-02,
   4.72837500e-03, 3.07642901e-03, -6.23654574e-04, 4.31365706e-03,
   1.05605135e-03, 6.61545666e-04, 1.00515792e-02, 1.54688554e-02,
  -7.16396049e-03, -2.07332782e-02, 1.70471042e-03, 8.73757992e-03,
   1.37534747e-02, 9.77873616e-03, 4.02815361e-03, -1.14684994e-03,
  -5.14238200e-05, 3.28609645e-02, 2.94512883e-02, -1.37398439e-02,
   2.03036480e-02, 4.42888960e-03, -1.82606075e-02, 1.80852078e-02,
   4.87866206e-03, 8.52873921e-03, 9.27187316e-03, -1.79207213e-02,
  -5.89245558e-03, 4.54754243e-03, -2.76197810e-02, 2.00242121e-02,
  -1.17013576e-02, -1.16613163e-02, -7.13943364e-03, 2.44940817e-03,
   2.90684905e-02, 1.10040307e-02, -5.20904409e-03, 1.44930650e-02,
  -1.06017403e-02, -3.11776903e-03, -1.10606244e-02, 3.24761532e-02,
   1.92832283e-03, -1.85616370e-02, 1.70851350e-02, 7.65711011e-04,
   6.28555007e-03, 4.94405720e-03, 8.01833719e-03, 3.04161315e-03,
   1.49523336e-02, 3.78554617e-03, -2.87732878e-03, 8.11503921e-03,
  -1.02734435e-02, 2.72714887e-02, -7.06991693e-03, 8.38905293e-03,
   1.36694917e-02, -1.70354787e-02, 1.17459390e-02, -6.71926048e-03,
  -2.34035291e-02, 1.27965899e-03, -2.21456420e-02, 1.48702078e-02,
  -1.08918659e-02, 6.53431611e-03, 6.66646287e-03, -7.32032536e-03,
  -1.22839911e-02, -7.49331200e-03, -8.99233110e-03, -5.73970703e-03},
 { 1.35103497e-03, 3.54999937e-02, 2.19731852e-02, 7.44347833e-03,
   4.09257365e-03, 2.82666925e-03, 3.72811919e-03, 3.48519720e-03,
  -3.66815529e-03, 1.96215324e-02, 2.37505343e-02, -9.69671179e-03,
   1.10876765e-02, 2.15792237e-03, -5.66898007e-03, 1.42413722e-02,
  -2.53741574e-02, 5.95707819e-03, -7.04012020e-03, 6.19881600e-03,
   3.75791779e-03, 1.08678956e-02, -2.76433158e-04, -8.44098348e-03,
  -3.45052220e-03, 2.94496864e-03, -9.00267623e-03, -6.72731688e-03,
  -7.67282955e-03, -2.39931084e-02, -3.93048767e-03, -1.20601291e-03,
   8.10558908e-03, -1.57762468e-02, -8.07954278e-03, 4.04319959e-03,
   1.42720211e-02, -1.98416002e-02, 6.41815877e-03, -1.63471438e-02,
   2.29916032e-02, 6.41437713e-03, -1.82716697e-02, 1.61582716e-02,
   6.39047660e-03, -6.94034947e-03, -3.39739583e-03, -7.41487462e-03,
  -1.30428020e-02, 9.52229649e-03, 8.92277434e-03, 5.94779896e-03,
   1.47286663e-02, 7.18244177e-04, 4.13388200e-03, -9.27443989e-03,
   8.49694200e-03, -8.35035404e-04, 5.05091390e-03, -2.11427687e-03,
   1.95457097e-02, -9.79901478e-03, 2.19133981e-02, 2.52660792e-02,
   5.92233567e-03, -2.13155616e-02, -3.77749442e-03, 2.98168068e-03,
  -3.23141254e-02, -5.99408848e-03, -1.32863978e-02, 5.80568658e-03,
   1.47331704e-03, 5.27015515e-03, 2.73697521e-03, -7.43349222e-03,
  -6.29345002e-03, -2.43253652e-02, -4.30938788e-03, 3.22621837e-02,
  -9.88001563e-03, 8.56423099e-03, 3.64558771e-02, -9.91808949e-04},
 { 3.47056706e-03, -3.92571004e-04, 1.01585327e-04, 4.19985456e-03,
   8.58461671e-03, -1.69663541e-02, 7.04125967e-03, 2.06747241e-02,
  -3.59082501e-03, 8.20865016e-03, 2.95481179e-03, -3.18296929e-03,
   4.38818149e-03, -9.77866468e-04, -1.04499795e-02, 1.37304235e-02,
   1.02587405e-03, -2.70755379e-03, 1.09565295e-02, 1.20246420e-02,
   1.64406691e-02, -3.35494848e-03, 1.27251279e-02, 3.76707106e-03,
  -6.65876362e-03, -8.08371697e-03, 4.00831876e-03, 1.88536360e-03,
  -1.58956852e-02, 8.79970007e-03, -4.08339081e-03, 5.03417570e-03,
   6.56238291e-03, 1.59978438e-02, -2.27635819e-03, 1.85818423e-03,
   3.89791653e-03, -1.62022025e-03, -6.94815116e-03, -1.15845632e-03,
  -2.49236426e-03, 6.94459071e-03, 1.13565130e-02, -6.92003174e-03,
   2.89353309e-03, -1.44992461e-02, 1.23010660e-02, 1.52214468e-02,
  -1.64592545e-02, -1.72405620e-03, -1.17143639e-03, 1.80881284e-03,
  -1.73364561e-02, 2.28276523e-03, -1.35436235e-03, -9.31382366e-03,
   1.38763934e-02, 4.10794234e-03, -1.02124996e-02, 4.66777850e-03,
  -5.64834627e-04, -1.53231164e-02, -8.79995897e-03, 1.08049614e-02,
  -3.46402009e-03, -1.42469248e-02, -8.44510179e-03, -1.26653546e-02,
   2.84412107e-03, 1.14424573e-02, -1.50545232e-03, 3.08276294e-03,
   1.77532360e-02, -2.63145822e-03, -9.55509581e-03, 2.04419158e-02,
   9.32092872e-03, 9.91722476e-03, 1.92417460e-03, -2.46895687e-03,
   9.88772511e-03, -9.01680440e-03, -5.88177145e-03, 1.38526689e-02},
 {-2.80809402e-02, 8.22046399e-03, -5.80567308e-03, 3.13223973e-02,
   1.67360846e-02, 1.18267080e-02, 1.49931097e-02, 1.87425334e-02,
  -3.97883495e-03, 4.13862197e-03, -1.08384406e-02, 2.07771268e-03,
  -7.83742964e-03, -7.54036382e-03, -1.28852315e-02, -1.43892167e-03,
  -1.28287147e-03, 2.90641431e-02, 8.12354311e-03, 9.55495052e-04,
   7.51602324e-03, -2.24333704e-02, -4.80946945e-03, 4.19517187e-03,
  -1.47517947e-02, -9.39425826e-03, -2.74148006e-02, -4.30273032e-03,
  -1.40165891e-02, 7.58092478e-03, 2.34942492e-02, -9.61310230e-03,
  -5.58777479e-03, 1.73475370e-02, -1.77726615e-02, 4.05378360e-03,
   2.80885608e-03, -6.44515501e-03, 2.88064289e-03, -1.56193255e-02,
   9.16736200e-03, -2.41686590e-03, -2.34460309e-02, 1.36475246e-02,
   3.37116309e-02, 2.06212196e-02, 1.61225442e-02, -2.28647180e-02,
  -2.65553091e-02, 2.03501876e-03, -4.27964609e-03, -2.54965067e-04,
   1.48475030e-03, 3.80237470e-03, 2.60119382e-02, 7.86551100e-04,
  -1.08979419e-02, 1.72837712e-02, 4.00743261e-03, -9.20416694e-03,
   1.76412128e-02, -1.71999894e-02, -2.63378397e-03, -3.35379736e-03,
  -1.15829089e-03, -2.13338044e-02, 2.47239252e-03, 7.22161712e-05,
  -2.30000447e-02, 3.83853260e-03, 1.13714896e-02, -6.85398793e-03,
   2.13074889e-02, 2.18898244e-02, 7.01227831e-03, -3.29678878e-03,
   3.73875387e-02, -2.33948771e-02, -3.36054415e-02, 5.81109151e-03,
   2.18364447e-02, 6.17834460e-03, 3.88604999e-02, -1.00667700e-02},
 { 1.61014684e-03, -4.01523225e-02, -4.65808157e-03, -4.75166366e-03,
   2.37992276e-02, -2.84224153e-02, 1.75229628e-02, 2.58849096e-02,
  -1.71632820e-03, 1.97552312e-02, -4.01618667e-02, -3.40660242e-03,
  -4.54370268e-02, 3.29804257e-03, 1.73502918e-02, -3.06439213e-02,
   1.52863096e-04, -8.49335175e-03, 3.20487693e-02, -7.94378668e-03,
  -1.11260582e-02, 1.30992616e-02, -3.52376816e-03, 3.14983912e-02,
  -2.41776649e-03, -3.99277918e-02, 2.13597436e-02, 3.37419286e-03,
   5.50431432e-04, 1.45171164e-02, 1.16460037e-03, -1.03354733e-02,
  -1.76598821e-02, 1.26771228e-02, 3.05034453e-03, -1.14126606e-02,
  -1.31287519e-02, -2.10050624e-02, 1.69063658e-02, -1.81535948e-02,
  -1.17679341e-02, 1.48923714e-02, 3.78238559e-02, -1.84157845e-02,
  -3.52564305e-02, -7.45944446e-03, 5.67568606e-03, -2.07201149e-02,
   1.03235599e-02, 2.17671390e-03, -1.07602519e-03, -7.13325944e-03,
  -2.48208493e-02, 1.00409184e-02, -2.63191108e-02, -8.15639086e-03,
  -6.56090560e-04, -1.69601999e-02, -1.79600008e-02, -1.81596167e-02,
  -3.60274538e-02, -9.95912869e-03, -1.72065087e-02, -1.73408557e-02,
   2.69388165e-02, 5.97246923e-04, -1.07294060e-02, -1.83174089e-02,
  -2.92454157e-02, -7.21098762e-03, -1.07968803e-02, 4.90263198e-03,
   5.53666875e-02, -4.24733199e-02, 1.40544446e-02, -9.14214738e-03,
   1.90168689e-03, -1.39506219e-03, -3.42949331e-02, -1.58923939e-02,
  -2.89008277e-03, -1.83332637e-02, 5.06628072e-03, -3.46501023e-02},
 {-3.53524089e-03, -4.92251897e-03, 8.56551714e-03, -1.92208472e-03,
  -7.43077416e-03, -1.29651092e-02, -1.84362121e-02, -2.03209231e-03,
   8.32705013e-03, -1.88153284e-03, -1.01691820e-02, 1.29907914e-02,
   5.84712904e-03, 1.47373918e-02, 2.01200042e-02, 2.44889650e-02,
  -6.20216131e-03, -2.16997024e-02, 8.84170923e-03, 2.52533089e-02,
  -1.06713930e-02, -5.65719092e-03, -5.60019864e-03, -2.37150621e-02,
   2.82148924e-03, 2.30641291e-02, 1.09764645e-02, 6.82563707e-03,
   9.20940284e-03, 3.56806889e-02, -1.48222400e-02, -7.67474528e-03,
   8.76486860e-03, -4.09685494e-03, -2.28513610e-02, -6.26666797e-03,
  -1.55807687e-02, 3.30722518e-02, -1.11818202e-02, 3.40152383e-02,
  -2.40644086e-02, -3.38346581e-03, 2.62805857e-02, -5.25372662e-03,
   1.47235440e-02, 1.66893862e-02, 2.22258223e-03, -3.94617254e-03,
   1.65383033e-02, -1.37157263e-02, -1.54682249e-03, 1.82150770e-02,
  -4.48201085e-03, -2.06155162e-02, -5.86667284e-03, -4.03296854e-03,
   3.11829951e-02, 1.26622478e-02, -3.34171858e-03, 3.71003784e-02,
   1.97703112e-02, 2.52725426e-02, -1.42335286e-02, 1.67470574e-02,
   9.34813172e-03, 2.40183305e-02, 1.66849382e-02, 1.48342727e-02,
   5.82028995e-04, -9.43702646e-03, 6.03009481e-03, 4.56900056e-03,
  -2.88787857e-02, -8.85740295e-03, -2.28751265e-02, -7.52620073e-03,
  -3.62594472e-03, 2.34605465e-02, 1.13241430e-02, -3.69411707e-03,
  -5.34656784e-03, -6.95226761e-03, -2.00468618e-02, -9.92091093e-03},
 { 6.87009050e-03, -4.05273074e-03, 1.98050626e-02, -1.56982914e-02,
   5.65964244e-02, 1.81467924e-02, -1.07751181e-02, -1.75402686e-02,
   2.10579820e-02, 5.58082713e-03, -4.91076522e-03, 2.62734815e-02,
  -1.56261995e-02, -2.11195424e-02, 3.74745554e-03, -1.00990953e-02,
   3.10910977e-02, 2.05633305e-02, 1.08069927e-02, -8.48362222e-04,
   2.35402323e-02, -1.49490163e-02, -3.07010915e-02, 6.44458598e-03,
  -5.23444600e-02, -1.28742885e-02, -2.53639836e-02, -1.29836751e-03,
  -2.82291975e-02, 1.39859375e-02, 1.39213614e-02, 4.61422931e-03,
   4.37291106e-03, -4.06496879e-03, 1.21201761e-03, -1.54998444e-03,
